let neuralNetwork = [{"biases":[-0.152970613683891,0.858748428062201,-0.373930835044261,-0.52851286248659,-1.18346536113315,1.3733031032522,-1.20314138187592,-1.09911730725626,1.04730287710115,-1.80794030997108,0.325046850976101,-0.132395429474221,-0.45661175973273,0.683757054653179,0.827922130850995,-0.0408251051138679,0.714301813695479,0.552388337262257,1.77636339089514,-0.765723075981867,2.64577288294441,1.29491428551168,-0.803617059120525,-0.515073796853976,-0.676438280806744,1.26761921349211,0.477966283633926,-0.52635055628693,-0.0848778798727416,2.10181171111117,0.829217712874755,2.26789271918863,-0.441652810334954,-1.15101795022211,2.84289811451397,-0.325115009475299,0.757166211430045,-0.59050900439994,-1.5195447266074,0.4628389827438,1.18884303831463,1.0104096344267,0.199400929204259,-0.875487742275714,0.178196465102266,-0.594079248305007,-1.95139263286119,0.830040011684648,-0.990377965658703,-1.47520752696254,1.34997213998001,-0.992042558133566,-0.846003337030617,0.00734790009051656,1.6606102800197,0.148518492944906,-0.867122325189522,-0.373392915755693,0.6194294168479,0.0273975553688575,0.123093080234757,-1.42697036757064,0.534791762871685,-0.10033753709298,0.57691607703534,-0.387749759542504,-0.59725306472951,-0.79212447041038,0.946162167720413,0.871307041431088,-0.770889772088131,1.69069621252859,-1.48768654849689,1.81397633701445,0.286215588818198,-0.264040360815898,-0.451914471639908,-1.64646337594435,0.398766095850513,1.4264897098075,0.387958028555639,1.38781097925067,0.048414050734173,0.524237711583508,-2.72656430040312,-0.568949459958934,1.9684503373326,-0.633469530031377,-0.666822717836809,-0.00543021668241985,0.0301012515785416,-0.697231454004304,0.503975212937838,2.24766529354069,-2.67969778738989,0.442119551514729,-0.168209079244194,-0.462968285810051,-0.21057070602408,1.93367683953891],"weights":[[-0.0260889945941342,0.0188328978706031,-0.00772002377160001,-0.047746469786543,-0.0267393774847408,0.00212994356613286,0.0671127010942018,0.030237060832748,-0.0242828744332276,0.0229758280962254,-0.0033810652802815,-0.0205645131152502,-0.0268317159550311,-0.00389026633369792,-0.00467656864316208,-0.05347155177587,-0.0381859927138936,-0.017705569861693,-0.0495618441609827,-0.0152761205186665,0.0120976919704089,0.0126422841467721,0.0414908960742759,-0.0259392249596328,-0.0359166411321317,0.0212013279059463,-0.0304217882365333,-0.042005087278815,-0.0843331704507881,-0.00607481220856451,0.0569641339721601,0.0163679606909257,0.0113151366326416,0.00791802530070111,0.0138823223778591,-0.0047106695593491,-0.0109588872235857,-0.0509155869359972,0.0448632810386518,0.0280214599532191,-0.032189115255888,0.0490350467309886,-0.0382489160011485,0.00433423430903036,-0.000942911711560669,0.0347652914921851,0.0348988061549576,0.0393743179519119,0.0178397474387864,-0.00713442999722595,0.03483091828806,-0.0165338094179354,-0.025295123804217,0.0540539700946273,-0.0161212697318873,-0.00558228163287259,-0.0136853279542338,-0.0499712574846161,-0.0528749334612307,-0.0627880017383538,-0.00826235469745477,0.0088624041604861,-0.0241323911841957,0.0342358438888265,-0.0141044988089342,0.035494236769334,-0.0325237194621971,-0.00879823717878162,-0.0368826750277096,-0.0124629665403083,0.0181597666999783,0.0602347126468026,0.00215391727771239,-0.0128451650548086,-0.00246659016465575,-0.0236855165846089,-0.034385137027236,-0.0729817981010732,-0.0252918348982396,0.0341791069649901,-0.00686267140278421,-0.0249376134471287,0.0154562455698848,0.0581224285396134,-0.00472904579888398,0.0376175348185176,-0.000667960900011227,0.0428621131419249,0.0497108248425061,-0.020381894246094,-0.0550717082643271,-0.0315148330389944,0.000768697448439807,0.00732081166249758,0.0377232980456888,0.00836185253341138,0.00750978114936568,-0.0182827837823356,-0.0187060076712773,-0.0422157057780521],[0.0249783928641237,0.0367293299059949,-0.0518784027883157,-0.00559770657909418,-0.0267813647865753,-0.0486212796359985,0.0121549362340512,0.000403007908663582,0.0184916083478536,0.0248203797936557,0.0709516374764333,-0.0189373280687481,0.055793159245822,-0.0153009400504947,-0.0162505775906137,0.0668086623766997,-0.054107804109258,-0.0478072498112471,0.0369767387610589,0.00845310748192229,-0.0494432848751381,0.0221570581142644,0.0046727152986063,-0.0519134290152238,-0.0161556246394874,-0.0118982261046169,-0.021349230317401,-0.047698795300447,0.0168165566045972,0.0392540085667522,-0.0254242857395309,-0.0376253886233535,0.049548367869104,-0.0189039197265768,-0.0499271828294407,-0.00337976224482358,0.0214312438166131,0.00557474269212545,0.0206840492202892,-0.00765971696439479,0.0317378415126148,-0.0667068907996625,-0.00981090861899943,0.00801316546911715,0.0218289254071372,0.0172095916599879,-0.00197484110159209,-0.000820939151688095,0.00803683577407063,0.0433253516014565,-0.00357079519977056,-0.00638761990678073,-0.0449267387815263,0.0553558564532299,0.0260116083734623,-0.0180226704745054,0.0443828190885415,-0.0628890914971711,0.0538649846537958,0.0181581243674275,-0.00268459850360097,0.0590758288210404,-0.0298944025976594,-0.0533492602861138,0.0484949818989135,0.0103787227745518,-0.0246816859776115,-0.0501965390160451,-0.00892756646657491,0.004881645663341,-0.019246917226791,-0.0296193428387561,-0.0541019581121826,-0.00415387144443685,-0.0490263521068038,0.00702777123040406,0.0127313238374562,-0.0517421831854768,-0.0088256970200352,-0.0433248687908934,0.00160851401806778,0.0127753408724478,0.0208727965463326,-0.0997908594079216,0.00830470803484748,-0.0132390648343576,0.033850943516834,0.0368344657524011,0.00446188595812808,0.0687022950493741,0.0133705128093809,-0.030812099528724,-0.00682493381805176,-0.022897117462222,-0.0231369196852165,-0.021901124638592,-0.00516583654595257,0.0333080444338855,-6.35380961835864e-05,-0.000360891296802464],[0.0825842151947634,0.0101811053079392,-0.00135131499446091,-0.0482632386648838,-0.068995792246284,-0.0206930218542306,-0.0241533424160794,-0.00964231541635103,0.04601809738272,0.0157719780640564,-0.0607614425061451,-0.00611575049924081,-0.0464184326351906,-0.0270267716967435,0.014035513496116,0.0728074165591622,0.0419176113803629,0.00268435531817265,-0.00863804738983246,-0.11242066483859,0.0150167942662947,-0.0743681368553183,0.0208799624386841,-0.0597945835975413,0.0560925237069622,-0.0173236740107524,0.00162986752163407,-0.00073795275614769,-0.0559279088784456,0.00548406543682708,0.0054389732709569,0.0596416867539578,0.00460290665649918,-0.017680832428547,0.0289651336320414,0.000624282957961356,0.00289929744672023,-0.03457036216714,-0.0584526426320791,-0.096006282933804,-0.0204839648872278,-0.0163569494961872,-0.0337282665954198,-0.0812389142374703,-0.0515504472980383,0.0276349726268434,-0.013927393221964,-0.0386132933297762,0.0243883794887935,0.017281277968291,-0.0149220359678784,-0.0213772185449471,-0.0414469911292855,0.00277062303483213,-0.0221056304989159,0.00492172425827483,0.0111286044146336,0.0319824764379136,0.0130340853654222,-0.0569527074883163,0.0117263357828525,-0.00132625113047848,-0.0417624856342322,0.0277493378054749,0.0406802631428205,-0.0107125327623118,0.0183021562690459,-0.0181672229585484,-0.0878104713521679,-0.0432476252971378,-0.0103119553759223,0.0424210210843963,0.00693159140226273,-0.00239253711033113,-0.04753587141639,-0.00206955736358813,-0.0216388011905934,-0.0324131776323034,-0.00763601508829239,-0.029360831751874,0.113699405814831,0.0158178407458065,0.0151271973707352,0.0464122932259335,0.0385125147263224,0.0261936183219092,-0.0812572908322611,0.00692879002006255,0.0463001762318293,0.00442180387278443,9.6999133638072e-05,-0.0112604822545153,-0.00826299074971226,0.037510866047765,-0.0176919611961116,0.0231947732991005,0.0249727394585235,-0.0126615234320226,0.058795237796224,0.0165974100117353],[-0.0665718941244925,0.0665035303902038,0.0228294885834017,-0.0284023867111586,0.0328313220138083,-0.00551350300535155,-0.0388871055993428,0.00416579149598334,-0.0112423857321699,-0.0254772584922083,0.0257301920646846,0.0121784124225691,-0.0443110967153807,-0.000608495542053216,0.0528739412527234,0.000138960924358641,-0.0182876423494067,-0.0193767599130022,0.0310681804027898,0.00833178601704677,-0.00756224437180619,-0.0170667697413972,-0.01793942883449,0.064967863028314,-0.0233495451367286,0.041980214237407,-0.0207988969584113,-0.00519315582534441,0.0239824417463805,0.0438932871179271,0.0184947164269145,0.0280198845981971,0.0097636086341831,0.0111535830395927,0.0446409598631447,0.0332599483978555,0.0469628715702353,0.034882377956588,-0.0716748611748835,-0.0184764653041014,-0.0526485243179924,-0.025023075632323,0.00313930380364714,0.0173433482199145,-0.0115833407986243,-0.00377444089644498,0.0140057621487633,-0.0126202122039139,0.0051006718278884,0.0201478606301932,0.0309546131035529,0.0106603239720122,-0.0106663471049675,0.0213519812123664,0.0184507186726456,-0.0106799389120954,0.0235993059472867,0.0309984584115846,-0.00162955570531829,0.0360764805816274,-0.0239227697552779,-0.0194179227927627,-0.0294159063656157,-0.0514582909612651,-0.0149598201260033,0.0311624316748098,-0.00880991633068368,0.0106766240838981,0.0230602890551388,-0.0390474502859452,-0.00561477598849506,0.022613902685357,0.00593639464747217,0.0320327113091963,-0.0102995951014272,-0.0269939040286209,-0.0315507834219281,-0.00911152040872974,0.0221128219215725,0.025591487774991,-0.0346175418849942,0.0130707115341482,-0.0520816056793986,0.0417933853179149,-0.0398548434113554,0.0359236055936265,0.000488311483589553,-0.00548227630722582,0.0223229976188051,0.0494118406673717,-0.00893775053514359,-0.0082853257016323,0.0157288245263716,0.0441209775036882,-0.0194746668323784,-0.0520685896547663,-0.0248487805720763,0.0132125243551751,-0.00231872164283964,-0.00632312006035154],[0.0095031353737449,-0.0285190841522972,-0.0210045771286334,-0.0991223678153944,0.0500439986277286,-0.00975233953908568,0.0363163932658052,0.0074342521307097,-0.0275501410684683,-0.0184593171313456,0.0482204666826083,0.0477135115503092,0.0661511984667549,-0.00690330055742253,-0.0273404084940405,-0.0237332780590551,0.00428333750103561,-0.0334896084400499,0.0283062287623764,-0.0127834347578094,0.011301600302128,0.0291909971969207,0.0231080845941424,0.00926694398318001,-0.0357175712411412,0.0239645144038966,0.0101822536925923,0.00296306570792452,-0.0707854980734205,-0.0521780026321774,-0.027548369416685,-0.00359684340158607,0.0771263589649638,-0.0168204430531544,-0.0104063091030298,-0.00234090288794981,-0.0204594272355577,0.0255737699338542,0.0176103865446329,-0.0303476548313387,-0.0172052295991759,0.0209750231666378,-0.0231337580150214,0.0250710131893256,0.00774789073150031,-0.00355707931873993,0.0178493764481486,0.0602038189629993,0.0144949566154766,0.00795722168566478,-0.0468628600627821,0.00389207187376403,-0.0120009391363946,0.000920907402683548,-0.0206048181671686,0.0269934119338422,-0.0150379140293247,-0.0496908127053889,0.046129234411524,-0.00343215014250005,-0.00492735369380426,0.0195548347352739,-0.0162780018918954,0.0238510175990062,-0.00880341919749464,0.0637254960003038,0.00526704841423356,-0.00281445593923047,0.0587096485465029,-0.058684213681704,0.0246103806443786,0.0104445139130225,0.00619184331419037,-0.0118537967664336,0.0314137877598603,-0.0513984481427319,0.0635233756255017,-0.0044282551701363,0.0323888029080089,-0.0384537061601998,0.0265496222232888,0.0275603577609743,-0.0679140502698154,0.0571381807580444,0.0491171674717102,0.0159506948088365,-0.0655982827529322,-0.0145341676511971,0.0457557114418068,0.000509228864905159,-0.0487415838268744,-0.0181868219950447,-0.0340458781682602,0.0613742480380558,0.0107197205390676,0.0802031719906052,-0.0208214870855606,0.0108505077428567,-0.0754519590875955,-0.0106705318151948],[-0.0494322940897786,-0.0216224205385324,0.0156127066418612,-0.0671442193703297,0.0174401651820033,-0.0224763030772345,-0.0115448059038635,0.0735602799145973,-0.0107465979842422,-0.00949997182650537,-0.00366836002868937,-0.043318107044934,-0.0408187100160625,0.0333882663440905,0.00867473496060747,0.0467273014477599,-0.00165597324424945,0.00568271056141752,0.0333159193553148,0.0137570519334905,0.0669150185375966,-0.00538472763183531,0.0365669514673958,0.0398817070313837,-0.0323446263412113,0.0399475114500087,-0.000710552708344678,-0.00359458425485234,-0.00164728712265171,0.0299130564286118,0.0234263019250778,0.00507110768744628,0.0123095620145487,0.0175798548959965,0.0178551154341328,-0.0313137812854626,-0.0315103530354793,0.0195385702284551,-0.0136348800126649,-0.0062980820818472,0.015646698972403,-0.00274613770790873,0.00636259815035205,0.00915794865183362,0.0227673847290003,0.0179777207793685,-0.00243614465582403,0.0690863462864736,-0.00409641102201719,-0.00795391537560028,0.00892458679504369,-0.068283633991135,0.00176045912930232,-0.0274387118908646,-0.0361908092867808,-0.0215303006320623,-0.0249017633066522,0.0692596729166982,0.0290673606727398,-0.0848883948210973,-0.00328329328497858,-0.0142833439552722,0.0580860872714675,0.0135417366769182,0.0300038882456743,0.0554304736296101,-0.00567195779278716,-0.00251423986957073,-0.0710155332565368,-0.0156642096506434,0.0155571022527731,-0.0090759596385176,-0.0353479607893258,0.0230527315496151,0.0432920949164864,-0.0232965994557979,-0.0385677483175009,0.0247070248705894,-0.0162010988759361,0.0230794614782416,-0.0197169625598772,0.0216211823218927,-0.0198824710218856,0.0175787074604357,0.0228976215334753,-0.00262993366391556,-0.0248878798563563,-0.0170231538496407,-0.00125186685906952,-0.0244457708870782,0.0277104172737378,-0.00634118065725745,0.0373850554053805,-0.00652020679428775,-0.0142310907764524,-0.0477504740051721,0.0273116950616496,0.0615745993823446,-0.00812349856047744,0.0250418454285507],[-0.0162373332034249,-0.0267076040455044,0.021980031658391,0.00978742946487429,-0.00430079204357112,0.0553903180688096,0.0193491176170391,-0.060457096060108,-0.0282605700846067,0.0164979686651536,0.0247086540118636,-0.0275841433040911,-0.0573742478525525,-0.0294366304509125,0.0068839065987397,0.0157680530616126,0.0585637555045237,-0.0312450055292623,-0.00713292024711412,0.0499138968400553,-0.00919176453094878,-0.00791830792084903,0.0235982880298342,0.0189856498533425,0.0399588702163566,-0.0316503761269415,0.027580020779233,0.0496924835806796,0.0104502127646519,0.0458833250092458,0.016645883709422,-0.0316091926285321,-0.0400790791931224,-0.0127623241678347,-0.021752529300771,-0.0250805245904392,0.0292271948103422,0.0511390607104312,0.0124962635648036,-0.0226475525711691,0.0368534726629959,-0.00430654573059196,-0.0298883764355568,0.0123505935732801,-0.0710607870814946,-0.00431835643934056,0.00160526456567124,0.00258974275917243,0.0257864714707172,0.0156649601843384,0.0139381500801615,-0.0250302211392295,0.0305828487761601,0.0157848804905013,0.015982938479123,-0.0531954619697861,-0.00761404454848838,0.0105520788128685,0.0236504348194663,0.0249724083282882,0.0136044791752195,0.0103833937874037,0.00900954645609041,-0.0255091043162737,-0.0393364385553883,0.00314878257443082,-0.0230021904576335,0.0248560997423024,-0.00530255012646105,-0.0397928320406782,-0.0518694716593266,-0.0292640733441388,0.0010546790542187,-0.000851340759731083,-0.0568398348022346,-0.0279463521990059,-0.0170000044833954,0.0396566527778974,-0.0263355179312877,0.0235105706180054,-0.00605115928827674,-0.0325365929204802,0.0579232537215445,-0.0203713160298117,-0.0306483594833831,0.00153565891733279,-0.0216411094289087,-0.0418553234381805,-0.00116256007843642,-0.0661281390077612,-0.024075673327033,-0.0141162327436357,-0.00352873185492064,-0.00886230659323409,-0.0182458977048927,0.00166057279878693,0.0198483482071414,-0.00527552798608827,0.0488856639537109,0.0287730282259559],[0.0278096499242125,0.0407628921973714,-0.00591393623506344,-0.0528984540660558,-0.00124736614396816,0.00678306181311745,0.0238579674463161,0.0247337351544183,0.0192686424870383,0.0183878036132036,-0.00690914259039376,-0.00500983689833734,-0.0224821788985636,-0.0118452919506578,0.0569532587642941,0.0282308765482265,0.0290047855288267,0.0075743263270363,-0.0138443144490594,-0.0105389762718359,-0.0299308208803053,0.0636353854810279,-0.0305971563454871,-0.0112644131591177,0.014988479431025,0.0229855352830035,0.0288209975352048,-0.0214625927807959,-0.00598986844361119,0.00552136772337877,0.0359277392467028,0.035482628432093,-0.0444876134156937,0.00279233657432365,0.0200430624784909,-0.0319770858187064,0.0163731847008145,-0.0169329947153307,0.0524433529720946,-0.0285030461117148,-0.00729249356891379,0.0106911473951494,-0.0103414274718626,-0.00768750968483777,0.0391398279901024,-0.025650055253048,-0.0365026015075047,-0.0251816533618175,-0.062399543958758,0.0830134916726249,-0.0132010270304784,-0.0580193799176581,0.00807277493496318,0.0294120213615484,0.0178495972545036,-0.0147872702629313,0.0481823848762355,-0.0272323991980169,-0.0230408011008197,-0.0172970185342234,-0.0434689238382239,0.0504515976919723,0.0499795323549105,0.0300006613573481,-0.0763974009412968,0.051579342526108,-0.00353445554164791,-0.0239512024203173,-0.0030921145609827,-0.0421065665958062,-0.0133641120421269,-0.0681083801856907,0.0194656055958572,-0.053826833839318,-0.0288536055585963,-0.00432705811304501,-0.0101249693958639,0.018839570422067,0.00483974893550591,0.0276561275445445,0.0143576766994507,-0.0143788366028326,0.0499430203904491,-0.0434849805121249,0.031634723115182,-0.0030471870803203,-0.00269282842238237,0.0241772981652518,0.0278575825141699,0.00145434201023208,-0.0347837873401065,-0.0160377174534102,-0.021256152864196,-0.0397407412615067,-0.0165339496289025,0.0168009293160547,0.0355509784890831,0.0336272791942913,-0.0152547044412401,0.0117414213832787],[0.0695913929805393,-0.0393414508194927,0.0584274776054123,-0.0150742378916772,-0.0124557611857983,-0.00836896135149425,-0.0697028826522379,-0.0919203906685141,-0.00794563532589915,0.0536997147332905,0.00508378770457837,-0.0171746063835737,-0.0280997271503135,-0.0566509541551129,0.0364421090547552,-0.0541129461586695,-0.0409227936163618,-0.0500069004767576,0.0301088506624512,0.0214495721265746,-0.000107390342928577,0.0614290501834659,0.0105600606378922,-0.082316544521408,0.0537173258277082,0.0102872087605656,-0.0140911816889665,0.00152940541624727,-0.0135161814705998,-0.0247061001182771,-0.00929864868400366,-0.0732680453446824,-0.0254121650556454,-0.0750247762805959,-0.0477186142837586,0.0929183333842597,-0.0109408137694993,-0.00562714218294495,0.0574818683349822,-0.00584930041040343,0.0297186357044798,0.00278186011008458,-0.0286436062220796,0.0982270210885495,0.0245444125831581,0.0521947453264831,-0.00484252816121677,0.00919688974252945,-0.0187941915769159,0.000952197328759035,0.0659321740711178,0.0205539768897586,-0.0462038977440239,-0.0415805346137468,-0.0173113818276235,-0.0507339956309571,-0.00966490849656161,0.100559455040347,0.0213311107827077,0.032400011654875,-0.0389441666703821,0.000843569880993291,-0.0265711360568659,-0.0152576602997633,0.0281534479410404,-0.0192527004101234,-0.033274103077012,-0.0125064460263742,-0.00382117475878809,-0.0174993002639981,0.00338116666086864,-0.0196554599765011,-0.0211998691485141,-0.0284059508832649,-0.00119553051414885,0.0561829795706644,-0.0287501836833126,0.077351767061937,-0.0282825427418502,0.0635257068281553,-0.0382846362225021,-0.0564763065197967,-0.0325964201760484,0.0443651588513184,0.00322339392159233,-0.0391507328421027,0.0644768650824141,0.0258385864003549,-0.00516757570262511,-0.026566062078173,-0.0297259949108858,0.0272029832118671,-0.0668173034339455,0.0417866679586655,-0.0236450263715878,0.023466347206783,0.00161636964030343,0.00724144491899767,0.0196853762598173,-0.0106428089421259],[0.03453571671144,0.0264424854123447,0.0155956419171228,0.033628078024289,0.0130369239040528,0.0453324670171637,-0.0292789457230429,-0.0654567747542467,-0.000228640860642374,-0.0197454599739307,0.0595335756706754,0.0388836922920106,-0.022451013617003,0.0256805683567379,-0.00224542727573756,0.000468630517914464,-0.0411814140564538,0.0189675546744092,0.00379340472035602,-0.00180072728909631,0.00989672668360619,-0.0696567611507435,-0.0591391072864246,-0.00500348276706092,0.0144705756020388,0.012474238683585,0.0388306924698091,0.0551935740870823,-0.00222435468726142,-0.0174532791200576,0.0291405062371909,0.0235265900468157,0.0276186361956375,0.00682095233324786,0.0409773653087925,-0.0688684619017325,-0.00207540529384142,0.0180822384134438,-0.0804127958478598,-0.056386636689682,-0.0294358445639036,-0.0348465169781511,-0.00117975632607159,0.0138714861969373,0.0163629456157952,0.037804724990029,-0.0458251448587791,-0.0111568035234731,0.0881105370613278,0.0192283432051114,0.0553507917344558,-0.0240825203770596,0.0333970415193656,-0.00623893848758791,-0.0465566810825778,0.00910368672858709,-0.0149793264490395,-0.0186504338045977,0.000770189114296005,-0.0188924903413679,-0.028341990933886,-0.0170566091940147,0.0580127884928526,-0.0377387183315599,0.000280661635095757,-0.0621391019083227,-0.0195638983039824,0.00941272373211086,-0.0461394121558046,-0.0207028432213909,-0.00367769174912378,-0.0497558880842373,0.0132200498632607,0.0092316375821757,0.0370651106598224,-0.0295228975375322,-0.0033934933082075,0.0116984284680484,0.0276378317343039,0.00820890036555045,-0.0716402340635352,0.0222568851763985,-0.00765606048862917,0.0416856390189617,-0.0459258777647706,-0.0228021485242323,0.00385069626549123,-0.0169035133922233,-0.0321550552507271,0.0184232400267867,0.00194877228941591,-0.00543633014261848,-0.024195132486096,-0.0202156013179263,0.00472920937301766,-0.0452097354539456,0.0127141967821232,-0.000166204176868768,-0.0349411823341919,0.0230495415799109],[0.0330155585654354,0.0431564738796772,0.0464297699230645,-0.0494130693698582,0.0326014773242209,0.0121232013171078,-0.0360724474430927,0.0494577715538964,-0.0506394906810287,0.0666383453707852,0.0754693899581573,0.00265509718326759,0.0136917523524114,-0.0267587445076144,0.0564627876030537,0.0158205818830193,0.0191238719140193,-0.0134779922119288,-0.00527512102119396,0.0764922445752513,0.0176394365008917,0.0150050358517037,-0.0222323039578732,0.0286295163793222,-0.00628888162247699,-0.0356028945198596,0.0112392402026142,0.0360967218421987,-0.00473998456935588,-0.0369691698093189,0.0144143351312511,0.0210679105061469,0.00378924454126827,-0.0174651943219112,0.00227842466899545,0.0599778913616754,0.0129311504138667,0.0646603958423034,-0.00134786029483225,0.0358558174968675,0.00259668061233397,-0.0288460476978903,0.00484950058598206,-0.000400434959182201,-0.0107973820879742,-0.0385827898740657,0.0249978534223671,-0.0162950199490884,0.00956012816091103,0.0242677982189526,0.0512075254703913,-0.0547041531791002,0.00868718071417323,0.0322595551627788,-0.0476767107544681,-0.00188840536773931,0.070624730850341,0.0197853538445872,-0.0136968596490369,-0.0364825973969741,-0.00281894414130772,-0.0692264585702972,0.0333897563519613,0.00836998281586361,0.0595393926778759,0.0202053156236806,0.0359499726893758,-0.0552028177872818,-0.0199618444996442,0.0238914626944422,-0.0132140135412026,-0.0140314192647416,-0.0261590311630997,-0.00227323635328525,-0.0374114787595438,-0.0861575805334685,-0.0261592229093565,0.0294385191811851,-0.0633921601551107,0.0444254233930558,0.0011432642845355,0.0358520660415875,-0.0505392485880884,0.0344057072475128,-0.0359876973440423,0.00389524039872322,0.0576166695500504,-0.0308194043338671,-0.0160389723689852,0.0287636341895148,0.033137042626322,-0.0355741873636889,0.0342765030859828,0.0304369737416274,-0.000389386678932358,0.0146181619409522,-0.0294106103082665,-0.0314547220737866,-0.0312984061110097,0.00435125793768398],[0.00338737647206775,-0.0160078689743081,-0.000937212214236314,0.0283045884273978,0.0198319692164314,0.0292214483336891,-0.029065646122422,-0.00144275128229698,0.00565784003053495,0.0109216293212907,0.00362237811000016,-0.014197978441124,-0.00323285211047415,0.00634537451107825,-0.0602000492126562,-0.0296839011767733,0.00339468722386775,0.00543136910528063,0.0296647371432957,-0.027206687351385,-0.0256090492375161,0.0319483822796374,-0.0329029508273529,0.0368963457941437,0.0458222481257845,-0.00762366378074318,-0.00228917371457934,0.00678218262200842,0.0544020325892427,0.016817359393427,0.0704416970742832,0.0714223013636568,-0.0284371670124272,0.00400409986768463,0.0589429073701101,-0.0212523457389838,0.0269804056119391,-0.0437389698527599,0.038569032269617,0.00459427616416182,-0.0322637614117698,0.0308188316649369,0.00424976522860456,0.0247600452392171,0.00255879356366405,0.051163856039308,0.0154142900196922,0.0185485163309258,-0.02210147387365,-0.00700849289271349,-0.00118146039094436,-0.0151907344097702,-0.0223335262116001,-0.00379563758556304,-0.0126529630056588,0.0369620210165008,-0.0202495182497882,-0.04535020016879,0.00408759220460738,0.0250566059001001,-0.00312388692383081,-0.0245971897167702,-0.0332911620505097,-0.0387542650520798,0.0243411756556277,0.00892183671945591,-0.0248612928616543,0.00915829286306509,-0.0178595947638466,-0.0217044069953614,-0.0654450125034216,0.0349796889938038,0.00203071898717814,0.00482614410595391,-0.0728583244529011,0.0393015927816905,4.16419156290932e-05,0.0400814322732004,0.00575406447704757,0.00602716992522166,0.00724012754029162,-0.0403271788165907,-0.0523550861608213,0.0260011548290995,0.0656536310352608,-0.0352518645633329,0.04307793581314,0.0203408636724886,0.0651711178775144,0.0230637940174513,0.0259450266336227,0.0535702034580947,-0.0339714856227143,-0.0382421803370076,0.0229602768845722,0.0275467996828454,-0.037232544134098,0.051440727496068,0.0402574061821854,0.00141126963719236],[0.0482538325142136,0.0416665699486396,-0.0134465060329364,-0.00502078892356331,0.0560090351557879,0.0278303623714806,-0.0267919895619252,-0.0498505189838454,-0.00947349823579222,0.0232809360315539,-0.0807754487348553,0.0149752710224002,-0.0465484411773344,0.000870536043075562,0.0103037806767553,-0.036937286792665,0.00611660919821787,0.0133276259001803,0.0081354047117909,0.038074321817875,0.0815893539725894,0.0317907471094828,-0.00677971549909403,0.0350213642243439,-0.0680732451487159,0.0160572068727555,0.0429964608146999,0.0110065771169465,0.00442476411802186,0.0311286452404475,0.0128380632737857,0.0382262343560763,-0.017937786728272,-0.0157055940881561,0.0869361960073553,0.00411630866432177,0.0484584412286655,-0.00296061397716395,0.0238475624460241,-0.0230661510431115,-0.0140702762224835,-0.0119671853551465,0.0742797837182062,-0.0806992997704427,0.0138953791804969,-0.0414856733431164,0.0119491512997491,-0.00676609153764649,-0.0078882595855463,-0.02722093535601,-0.0143386563985356,0.0170014895465566,-0.00797218601430107,0.0170404204784563,-0.00736467217330343,0.00139468067101247,-0.0263035233030583,0.0938381905494383,0.00087101350149187,0.00751448424148711,-0.0285986443708895,-0.0161123704176182,0.00628927378078775,-0.00960888171808648,-0.0190191571292886,0.0105074521658742,0.00206047949851349,-0.0360122298731522,-0.037868240073672,0.016261704033537,-0.0150451885623138,-0.0424567062825887,0.0509671647027813,0.0365369379939445,-0.00259062208134782,0.039057994334841,-0.014034630517232,-0.045483596083239,-0.0775729352007804,-0.048933377962568,0.0846843040831672,0.0740654854221133,0.0226066828380008,-0.0252225133850825,-0.0142076785029305,-0.0448969604996152,0.074990446706205,-0.0281121185442672,-0.0173021377975556,0.0212919469979345,-0.035292338430956,0.0630904168656617,0.0538904638600269,-0.0278568992359621,-0.070358685027461,0.0231368673729672,-0.022362209605467,0.0262516905870978,-0.0324889203011412,0.00165450109801596],[0.0213759477139349,0.0312744041996261,0.0162878681871986,0.0706385699977079,0.0239200546559935,0.0439465176231345,0.0115421713052816,-0.0299632592735882,-0.00750699291707626,0.00484864857243789,0.0478221145023069,0.0907386131382828,0.0343775037647728,0.0258678930915069,-0.0548029236476081,-0.0198475845605124,0.0345130432621991,-0.00211180475420009,-0.0593535342355819,0.0352912958640165,0.00610487930156638,-0.00278490214255143,-0.0163014121728416,-0.0486862471797897,-0.0296889302301887,-0.00403703019869011,-0.0143217526731448,0.00197817815224354,0.0469991758270263,-0.0588563401830168,-0.0602746901545588,0.0316928825271496,-0.0617708817646973,-0.0557138380389993,0.0248985592614879,-0.0581489498446962,-0.00463958237156552,0.0201106243916482,0.0197260421699275,0.0230121208809598,0.044874925947918,-0.0244783118690027,-0.00587626213949446,0.0113506100239981,0.0609882996738784,0.0677886899940953,0.0480473762806221,0.015067078875044,0.0352395961167779,-0.0349944982287921,-0.0360943678922055,0.035238600554848,0.0029200308971805,-0.019182271380113,-0.0730442941097879,-0.000962920260398658,-0.0653310172167543,-0.0339614836222323,0.0243788480018642,-0.0106761654470869,0.0209546068295806,0.0490383092924156,0.0123517157212828,-0.0106284542050698,-0.0129846221381171,-0.0276444415067396,-0.00509225436991037,0.0423763992190278,-0.0591453082683574,0.0326675592758815,0.0282398643193182,-0.00577279535676691,-0.0130834513423416,0.00745340343341696,0.0255988924015115,-0.0226610986582636,0.00893262609842286,-0.0463038133127445,0.000355514532168227,0.0041244210054771,-0.0525302375083946,-0.0335703445647567,-0.024738739350588,0.00105843813577761,-0.010247988104295,0.0160901266615484,0.00155742483868812,-0.016347910298249,0.0125334854377343,0.00140312882929451,-0.101606431451149,0.0327894345694551,-0.0441849663990772,-0.0390061281152556,-0.00468381864841727,0.0217311302415559,0.0307412910512757,-0.0261523909823284,-0.0409935679361302,0.000817222297604728],[0.0209071463328881,-0.00755565045163413,0.00504955019374771,-0.0219397101486592,0.0303332385724183,-0.00925273962295589,0.0119557671385183,0.0198006731692261,0.0389131570144703,0.00316923773362463,0.0710907781237021,0.0329586243797698,-0.0392732769606939,-0.0216943447552953,0.00846535527159872,-0.0298002589869474,0.0188347370957721,0.0014355767115678,-0.0168604714377375,-0.0105956363428617,0.00314182123736646,0.0356608231199779,0.0189249320577445,0.0285118611132707,-0.0286680874450745,0.0559918267261677,-0.0574985516928462,-0.0435906196684881,-0.0039463140250771,0.0261749618990141,-0.0185730506082998,0.0302447951925538,-0.0819209244849026,-0.0567986211656747,0.0116786668453927,0.00734003004125002,-0.0194614212743114,-0.0386951678901021,0.0155603803138349,0.00305343189467784,-0.00837454334258362,-0.050160275971404,0.0116574851029519,-0.0446368112307212,0.0671958652492739,0.0422499364608243,0.0185884264427015,0.0275528157789411,-0.0248921493904392,-0.0625057905114162,-0.0116172603428857,0.0219794683297863,-0.00969939059266987,-0.0334821471649534,-0.00119279499705928,0.0381561829490043,0.00504772121016654,-0.0480080105638997,0.0433808059900947,-0.0133372904796862,-0.0259246453664221,-0.0262866638829202,-0.0461832129211816,-0.00508342975185456,-0.0511894860086233,0.0619861878793054,-0.0387627109532593,-0.0136800184920121,-0.032717181304009,-0.0143934050030559,0.0453661541702337,-0.0465316680414569,-0.0164509405374901,-0.04293613555541,0.0154067288015126,0.0238534644890219,-0.0226330683936187,0.0146045606239506,0.0280793524633405,-0.0190341259355525,-0.0113599616285937,0.0250348845951652,-0.00548626679386696,0.0125501737802834,0.0220942500316987,0.0129221657902402,0.0349497463219407,0.0117736241406483,-0.024516123498228,0.106248619756969,0.075172286290145,-0.0240229963137196,0.0805264283948816,-0.00382526640357888,0.0302042968944773,-0.00361305569438576,0.0310057399394761,-0.0766860796846534,0.0354900622219876,-0.0283743945894173],[0.0136529848526065,0.051281565051878,0.025867289983288,0.0269354998849588,-0.0416641897461686,0.00908059028288394,0.0263154213291688,-0.0387697177555887,-0.0699128196313566,-0.015274778308844,-0.0717468198685695,-0.0225500058483234,-0.0333297714250732,-0.0239395851493938,0.0389783142931865,-0.0212333196301254,-0.0090671871984001,-0.00222017960594152,0.0151549241808048,0.00406005282996558,-0.0214637602325661,-0.0584461194145625,0.040534587219068,-0.0369538645414309,0.0361125880346182,0.0102011957399478,0.0734528599670819,-0.0234404397794204,-0.0598160922518258,0.0311270318377207,-0.0259047814694021,-0.028672341846661,-0.00603926231857098,-0.0343568351522701,0.00580723434912026,-0.00243364888801114,-0.0161480866672701,-0.00405172085650432,0.0501897887231801,0.0156383143656844,-0.01951593304469,0.0373394100684933,-0.0219668207267624,-0.0237607829563369,-0.0151420095236436,-0.0285535678550954,0.00148521338382069,0.0240722923165808,0.0162090545671043,-0.0132345487422238,-0.0603184816806778,-0.0615352459023626,0.016033468660479,0.00290355636665062,0.0368172738033806,-0.0250341345920664,0.0411600294134531,-0.0454131823734207,0.0545294074321657,-0.0108145490380307,0.0124100949926992,0.0210000114601115,-0.014733354536949,-0.0449075655812241,0.0696989800017493,-0.0155096876699831,0.0419687943013431,0.0288326176528374,0.0560113584427779,-0.0155623880619834,-0.0287308743767159,0.00256113384979788,0.0330060110828207,-0.0329562649275413,0.00409844773832775,0.00406393868232517,-0.0021433502098243,0.0557286694844808,0.0148809093757268,-0.0368150074237176,-0.0117849819478773,0.0185215599574847,-0.0504373992466254,-0.0148732422943874,-0.0246025244687412,0.0269806502404071,0.00915678138865674,-0.0432537755366125,0.0240568632261717,0.00804530624677757,-0.051411301616557,0.0482568303764224,0.0727161953313338,0.0560893142443306,0.00439514289801484,0.0503284904321447,0.0520833527878982,-0.0612024084197523,0.0268253832173622,-0.0298982249043218],[0.0393459411365785,0.011728140568175,-0.0486100728396853,-8.35584936697519e-05,-0.0208090862969858,-0.0121534738759191,-0.0349103579798867,0.0269021249620565,-0.0617445440165894,-0.0424856789646853,0.0492318213543461,-0.053774183165318,-0.0622357491597058,-0.0077994312876418,-0.00711793672268987,0.000748969043203827,-0.000463121809271701,0.0122327522948442,-0.0583913484851164,-0.119725425715059,0.0221038314811781,-0.00488331232366436,-0.0387222996337917,0.00696451366257377,0.0147385897749353,0.0295605858559843,0.0303154002404739,0.0165489700665511,0.00423851062830134,-0.00550934378476944,0.00673542303307119,-0.0277870838136763,0.0378745565464092,0.0123123546480449,0.0426242248522304,-0.00446914069761867,0.0541350922482901,-0.0409835943414197,0.00505882300824046,-0.0277684585329701,-0.0120790517162494,0.0115643850748078,0.0153218071853019,-0.00838010189065227,0.0258604512775368,-0.0590217149548031,0.0411221628004519,-0.0170102325140052,-0.0199038995079306,-0.0410913766277329,-0.0254761648896517,-0.0111100645870861,-0.0418965425313758,0.0259104443481619,0.0102686955007851,-0.0565605818935902,-0.0249948813562145,0.0230290786348454,0.00881479185747568,0.0240103086758688,0.0109665408996252,-0.0239729713169114,0.0144241120942177,-0.0427187076029679,-0.0516756642481815,-0.108891715080277,-0.028197034315321,-0.0107304123528074,0.0154777950245285,0.063846557660111,-0.0409162737551681,-0.000398104371752699,-0.029854166513346,-0.0511071147541049,0.0419740641136558,-0.0048337124529412,-0.0107958916023204,-0.0368529997870158,0.00462327397958867,0.0166431389963943,-0.045007662049865,0.0245956472134343,0.049828707766315,-0.027550833224273,0.0190907983710262,0.00261983394074044,0.0477010937840678,0.0105486234706787,0.0243059365919428,-0.0635831327554599,-0.0423330170857545,-0.0248284621138362,-0.0196826263177603,0.030691261949753,-0.00392041744159913,0.044994465484871,0.0035110341681331,0.0228284588946326,0.0308619203541258,-0.0264551587355058],[0.0178406239154304,0.0067669738824657,-0.046609252854368,-0.0769840851507005,-0.0321911094446315,-0.041881745941572,-0.0263326789049309,-0.0100946878042561,-0.0840108497626497,0.0574606904458576,0.0193443774416588,0.0686417014654969,0.0125902468633291,-0.0191330974824539,0.031531006822631,0.000396634248411036,-0.0271144853069017,0.0102733235460697,0.0689861383155359,0.0516721029429931,0.0206619795893917,-0.0218819365116911,-0.0625762743536126,0.00126609994765155,-0.0203921641084554,-0.00984059813721627,0.0375969721274157,0.00490106674135547,-0.0167391867849323,-0.0449587714134502,4.29382828892671e-05,0.0146485738554669,0.0278593884855093,-0.0300184673226127,-0.023309062309964,-0.0979994079531525,-0.021670214898254,-0.0374039260702351,0.0130900407035466,0.0819131585554851,0.0062483973214103,-0.00754374833822052,-0.0493982222035919,-0.0299138053435155,0.0111713012141435,-0.0336919977836421,0.0344539443438223,-0.0190420919885207,0.0250295241814821,-0.0402868163283767,-0.025452495914718,0.0342280892277356,0.0256008204010092,-0.0682496789051687,-0.0407055907873275,0.026049735959852,0.055211225094227,0.0530639813029132,-0.019836432926392,-0.0367068434327317,0.0283428972299837,0.0284946729999975,0.0449210201791533,-0.0516063915504911,-0.00347575154464358,0.0209385906603716,-0.0165268727149217,0.0355211976787092,-0.0240420811914364,0.00124963040966249,-0.00304579523948085,-0.0263289502784967,-0.00624858791680706,-0.0354171356451452,-0.0472720240759645,0.0248655161779952,-0.0510248984191991,0.0218877184502805,-0.0190961638125294,0.0476690934991518,-0.0614981807144508,-0.0110904636986858,-0.0306583320282215,-0.0255558896561579,0.00321889135947435,-0.00729648219617218,0.0100639784651296,0.0131908584229634,-0.0991188526067676,-0.0555193871128951,0.0403851858413902,-0.0217654540900413,-0.0403053479376759,-0.0377355807830649,-0.0231048871816991,-0.0149484390775664,0.0260861772247861,-0.0574827567263218,-0.0556528559470854,0.0389088403079121],[0.0176163623483156,0.0415913776001185,0.0732500060967193,-0.0263654277409249,-0.0193462067053274,0.0195365428517635,-0.0360784471804,-0.0207415204912257,-0.0499244007214185,-0.0237572896702523,0.0118064054573604,-0.0362583727266613,-0.0304120618267539,-0.108540869804899,-0.00808405280511957,0.00534285430575769,-0.0473411871789243,-0.0289094197748864,-0.0533834132926639,-0.00936892873674378,-0.0810678533553494,-0.0252098354368417,0.00605103665070885,-0.0159677401206306,0.020419496451672,0.0493875396190348,-0.0495355834949169,0.054780203776839,0.0209213521860699,0.032944115572123,-0.0684105340347882,-0.0635222563342627,0.00464585011949908,-0.0130493996173281,-0.0326868501617608,0.0632529825319429,0.0265048896241523,0.00698820690087075,0.0594364875471275,-0.0268206182009018,-0.0173867687995337,-0.0186485954533685,-0.015530922212647,-0.0211157413215658,0.00715631898478935,0.0102820749081057,-0.00821467911776077,-0.024940550262521,0.00984450213256663,0.00866927362550414,0.0407798499856482,0.0291692507257295,-0.0287564246030414,0.0288011217163264,0.034640667114658,-0.00760214726151546,-0.00980614892618347,0.00185906298547357,-0.00465506377226503,-0.00437748585438847,-0.00264582223895982,0.0377072049619986,-0.019700258332148,0.0536816337607834,0.0219429965926893,0.0418060455930955,0.0343294048700593,0.027850035513775,0.00626906966189736,0.0098666444076718,0.0397755231767477,-0.00506081055792531,-0.00262437758057173,-0.0216572203358425,0.0240887450753634,-0.0253387581242591,-0.0121237219848964,-0.0658182057109466,0.0335002935927339,-0.0518298352034502,-0.0147188918670739,-0.0630254721980115,-0.00250421790175688,0.0692284667714926,-0.0313105108262303,0.0100709852904732,-0.0595101012691105,-0.00144535909451422,-0.0116408074453605,-0.0415231830717645,-0.0384248115839743,0.00346551813608178,-0.00919196850761267,-0.0111742553778765,-0.022731264078594,0.0361565500145388,-0.0187155505995187,-0.0240472256626063,0.0408689944383236,-0.0418138369580373],[-0.00879233516164114,-0.038636669406186,0.00334912909373596,0.00060574974023496,0.0260536214484661,0.0113284190583974,0.0258196380885096,0.0124333416404987,0.00657145597917074,-0.0209733307374244,0.0449773218390496,-0.0066181197038432,-0.0230541065873724,-0.00531741462479949,0.0230435510020099,-0.0159058038775229,0.0712854848278839,0.00320728726927136,0.00579983324419324,-0.0694845619643593,0.0296411410637565,0.041144363092279,0.0516191986947123,-0.0367737318963357,-0.0139116805527836,0.0295241451817887,0.0358994237367118,-0.024970431860176,-0.0205540978746884,0.0216905988752196,0.0315846302599376,0.007151459955549,-0.0182246788800845,0.000705524692527731,-4.94552786289374e-05,0.0115333767589123,0.0476233408216695,-0.0183036305507509,0.0604635882859066,0.0186886561416192,0.00190113660892398,0.0159109545387321,-0.0104755668969519,0.00202981548088201,-0.0415343270785322,0.0357263063863194,-0.064243410022187,0.00058021428756491,-0.0515819844883083,-0.0187388072636566,-0.046414464725216,-0.0200647424411401,0.0373112344091594,0.00323315943006121,-0.0443475206050016,-0.0403110747111597,-0.00788304840768152,0.00608978847510605,-0.0182647733729505,-0.00926246837086151,0.0239138475792217,-0.000469078459282442,0.0335469496792623,-0.00207802165123335,0.0123335566471402,-0.0172455666999796,-0.017736983003651,-0.0314157724662444,-0.00542980667532733,-0.032245895698901,-0.013184505018484,0.0200903878813536,0.0239718038722583,0.0361930578459564,0.093241363154491,-0.0699645206971241,-0.0141563584030499,0.0311991144263128,-0.0426032282039384,-0.014640840037411,-0.0169763149176492,-0.0595816853917374,-0.0335549753425964,0.0336854269818916,-0.00870295268719048,-0.0454358061552777,-0.0497920362726115,-0.0410793811387503,0.0620771501851692,-0.0510963225255308,-0.00628851172248526,-0.0685893059390112,0.00266693688030288,-0.00715084752524491,0.0632618098028158,0.107349632511284,0.0197900498788711,0.0404173527638249,-0.0372697026909368,-0.0942253830668496],[0.00260413587017438,0.0391251955051766,0.0278775067982919,-0.0340739906970099,0.0180678734632689,-0.00571689641773134,0.0227896501098207,-0.00498580493805943,0.0187434592703345,-0.0392687705604173,0.0251412301852709,0.0417099212156156,0.00696349047797359,0.0271076022720042,0.0425620444119405,0.0146199583411988,-0.0182016058954324,-0.0111596148045183,-0.049739767969931,-0.0312473939173483,-0.0200231620160234,-0.0286341530786897,0.0374077851677148,-0.0834826063463547,-0.0149547809972121,0.010797009100152,0.00196752568834773,-0.0353187564643149,-0.0582999281845219,0.0463656856885081,-0.0170631069957099,0.0205131412006316,-0.0473147902943011,-0.0367003317613255,0.0118022823081817,0.0349699206312418,0.0443018362348005,-0.032863992310581,-0.0419898373070996,-0.0333874899955191,0.0312937662659735,-0.00670352918898435,-0.00450253920472143,-0.0481539166237782,-0.0253162684482037,0.0124640589272595,0.04491897739747,0.0714396638618913,0.0540062095933078,0.0455000422101425,-0.0309376114555758,0.0382605932075138,-0.0261938183161568,0.0731816913871608,0.0300353886600243,-0.0416318738544673,0.0212817089973881,-0.0440827279353621,-0.0136672892305406,-0.0308139133354517,0.069568504544179,-0.083140414559093,0.0696528547259694,0.0414657430134254,-0.0457796872517633,-0.0158230808303219,-0.0108969504966581,0.0740524636082492,0.0379376938871853,-0.000563748678095832,-0.0197584558620027,0.0298183683676378,-0.0362680545030193,-0.0417283762231683,0.00316544749750662,-0.0098475971106478,-0.0196895359838157,-0.0258447498113191,-0.0156461255724659,-0.0602715824895074,0.021292415714039,0.0741311527735131,0.0380043360164721,-0.0704700827157875,0.00270652157784056,-0.0159244405457938,-0.0190093869703822,0.00366633398293772,0.0427579932020732,-0.01710219171979,-0.0665185321810671,-0.042845467390345,-0.0592031768943177,0.0406424780732904,-0.0143013337739174,-0.0567934589744277,0.0146756837150665,0.00305070945899684,-0.00584399387863409,-0.0554668250838508],[-0.0409563613700883,-0.0196675629843039,-0.0468588724372361,0.0176841695860834,0.0148100590640153,-0.00638250196056889,0.0383966822548677,0.0326768129647736,0.0639787353671014,-0.00739977413830743,0.0526176220005584,0.0320643881055169,0.0377834558894296,-0.0114879230587027,-0.00818082483390965,0.0325720354790943,0.080406331685495,0.00232745220886646,-0.0360533964406792,0.060814663255476,0.010714876846282,-0.000568363372939916,0.0314239448546337,0.0138629378255485,0.00322983689019186,-0.0429046133297547,-0.00357899843998817,0.00851110196340899,0.0280183692122043,-0.0486590890275584,-0.0124994996576148,0.00431910849191508,0.0393471669854029,-3.92524740644816e-05,-0.00331911638685276,-0.0385151140631024,0.0808808131765864,0.0182436341220051,-0.00910977749856688,-0.00885762095623638,-0.00313734214180365,0.0109828071627561,0.0539950135278046,0.00184847464471168,-0.028090487704512,-0.0455749942594679,-0.0203040310847508,-0.0162823462611679,0.0343357108023624,0.0581792339850256,0.019895471099379,-0.0352843462944442,-0.0281357195899493,-0.00464475809036019,-0.0250242092629687,-0.00722997950199255,0.0263242001553559,-0.0404458472522132,0.004343955997482,0.0212602840856815,-0.0512530943898665,-0.0250501009874776,-0.00523706457933927,-0.056804034093807,-0.0369785416102991,0.0326219003568884,-0.0757260061152378,-0.0160856276862462,0.0155914183454943,0.0542298550905119,0.0269153763899408,0.00478859324011132,-0.00307066087310245,0.00445224806860792,-0.0317836573108325,0.0467593471365928,0.0725523883554878,0.0485752854667719,-0.0278986485867731,-0.0653793098036653,0.0435720407826292,0.0455089804570626,-0.00626263587818613,-0.0119142322088529,-0.0570039665178075,-0.0102338264496061,-0.00598783793032415,-0.0176440225491941,0.0379713848979903,0.0193333332451378,-0.0187347021916147,-0.038472412745769,-0.0241006686375929,0.0278355277100415,0.0146199212751882,0.0107641908312075,0.00756117444619727,0.0891312619272301,-0.0102809426434932,0.000990860089792473],[0.0137605287086331,0.00976848638936232,-0.0804383986826282,0.047649200310503,0.0465676340897988,-0.00771538829707794,-0.0280049190167196,0.0446983780717984,0.0206356013739867,-0.039582007958715,0.0721341629566033,-0.0178396119845526,0.0340793158941267,-0.0100605237023081,-0.0375287169894628,0.0718388677443325,-0.00430595681948101,0.0201829287666189,0.0442383055970977,0.0506095542004498,0.00840228871736354,0.00864568619030848,0.0147509183676057,-0.0132108806710599,0.0404385435044813,-0.0138197710261459,0.0136533282043092,-0.00575624788780765,-0.0122911484711027,-0.0179113899686738,-0.00392295251367287,-0.0147340487989592,0.0752965242793137,0.0665382295062975,0.042417350442681,0.028534673369727,-0.0200009332594462,-0.0437253219161252,-0.00580974115614541,-0.00899209767925722,0.00733102013080188,-0.053804866649977,-0.0384428627559206,0.0109646545063246,-0.0868784462053066,0.00896260709881832,0.0398561705092507,0.0255161909781704,-0.0144313131308383,0.00568484759677454,-0.0100182767352249,-0.0153969155238974,0.00533687837081094,0.00474298364267972,-0.0341044345023052,0.007797037559216,0.0497065229055708,0.074211798836367,-0.0101622605327452,0.0215621890880423,0.0579141575387758,0.0523754254484,-0.0441440833530302,-0.00567918276595282,0.0289237204797086,0.0871137038835249,-0.0124131701660724,0.0250100318728254,0.000647640023377899,0.0396299192398477,0.0243612289772673,0.061410682623227,-0.0157667383700562,0.00912359739827754,0.0239405561968662,-0.0465776812092854,0.0250390914250859,0.0300291377082205,0.0015337773861646,0.0422019733480733,-0.00913392360904099,0.054204052947463,-0.0204137236052024,-0.00215509026867927,4.12907271547938e-05,0.0315384876367425,-0.0194361491960607,-0.0409407322241071,-0.0695603641907004,0.0571189429471248,0.0279755044030372,0.020191594297802,-0.0466157101034032,-0.0495215531129106,-0.00724152086617587,0.0788371203815356,-0.0244527497203803,0.0622953988747414,-0.016203333491431,0.0207007997593579],[-0.045336520543189,0.0751164957542201,-0.0201477729763734,0.0452695463566469,-0.00105279523982172,0.016285017906493,0.0676036402214371,0.0541058649751972,0.0601503750892598,0.0110679835343072,-0.0023876492897532,0.0596901552240264,-0.0111115964799823,0.0266053859440536,-0.0114325709853335,0.0117177670196364,0.0482729846903216,0.0420436267500441,-0.0143372516122034,-0.00640591287298632,-0.0244425973193334,-0.0366623914321691,-0.00402951691040373,0.0154747908719266,0.00437466216869603,0.0483810384027077,0.00959851858929878,-0.0187502171452094,0.00787332710268561,-0.10208584054439,0.00580038104912175,-0.00142139056271877,-0.0129198684752119,0.0637876629379392,0.0142435740102761,0.0556256612426072,-0.0287785366286565,0.0524004380670939,0.067949708247032,-0.102126368801716,0.0263028889785987,0.0128984901941138,-0.0262834594446671,-0.0938119688198556,-0.00696288383583023,0.0123886756177685,-0.0224572554995363,-0.0809375171315366,-0.0780920557258203,-0.0164318259440434,0.0121685788906464,-0.00389471458945516,-0.0222012346315817,0.0325157276699827,0.0659722522773918,0.0400458247892153,-0.0231390792917772,0.0465921759163879,-0.00134094769343805,-0.0122086576789261,0.0119323114544353,-0.0536386032045087,-0.00881496683308169,-0.0203932963815491,-0.0179434628523711,-0.00165451771638907,-9.90264173046772e-05,0.0485035007875984,0.0613001313171452,-0.0105048140842874,-0.0517173411131303,0.0719675015484204,-0.0132500601243866,0.0144472139682278,0.0135605558252301,-0.0083209404326483,0.0269952502758333,0.00888089969656682,-0.016332433393547,0.0056622216912293,0.0548336211733466,0.0672892324581847,0.00899756542283327,0.0057052170708691,-0.00955256245287565,0.00430810032987469,-0.00356208852930047,-0.00975938481597192,0.00828959424012035,0.0095916425989747,2.72344945435757e-05,0.0162248396380812,-0.0485676847088627,0.0128668511106387,0.0374502106182348,-0.0196534416605091,0.0103468776002201,0.0176763310423236,0.00556818103834195,-0.0138209841125119],[0.0400298087448508,0.049198862999441,0.0600051524644899,-0.0351945094986382,-0.0112295092277152,0.0316547235558272,-0.0280191575805786,0.0643395900871238,-0.0110799303602354,0.018764013083085,-0.0487824215232905,0.000363500977275211,0.0263425520236558,-0.0224018855248569,0.0310174754016275,-0.012129736761927,-0.00553325563894804,0.0532186182908235,0.0282942485376171,0.0234947505133334,-0.0162789960533132,-0.0524633397008992,-0.0710077037432232,0.0254436222243298,-0.0397642899258961,0.00507001284157109,-0.0568657933397732,0.0461430788052433,0.0180904943719831,0.00122792959418664,0.00617250553339169,-0.0532605522826909,0.00547442545635036,-0.0512597941440916,-0.0196285046492548,-0.032821359811767,0.0151340386555324,0.016061171238398,-0.00302222148412416,0.00745206429699974,0.0194269719562998,-0.0426303734587565,0.0036113438722583,0.12008234374407,-0.0831332611284141,0.027343130750938,-0.00705927258401368,0.0313503212467134,0.00254132551814826,-0.0029424154884991,-0.000942398080472239,0.0634989668573183,0.00141034414712362,-0.0173139676666735,0.0462644307584695,0.0173651831273732,-0.023642757984926,0.044689852346368,0.0487851336326636,-0.0731722925304702,-0.0127580159879051,-0.00822717168843431,-0.026657377660237,-0.0164249073862621,-0.105801144705292,0.0638158406523256,-0.00686852334809556,0.016016291303353,0.0599810703888954,-0.0485266493139786,0.0260477332638963,-0.05276461663243,0.0716345535823388,-0.000411420752660948,0.0847680154806124,0.00754090217074973,0.0226932881642825,0.0724932047144513,0.02790072551223,0.0945561178369972,0.0202499073529014,0.0019438806688763,-0.0393821939023971,-0.0229595495838456,0.0215048365484508,0.0493251613189362,-0.0256470820890632,0.0409989838343655,0.00313489234399209,-0.0219052919752144,-0.00524421305530451,-0.0621619372346282,0.00140639025014402,-0.0465023070783315,0.0411990410407797,0.0102094021013301,-0.00345194535907503,-0.000236265227368958,0.011828301656429,-0.0421764761359888],[0.0258681119570165,0.00598049304018191,-0.0389311795899967,0.0296599576083615,0.017493608011903,-0.0700029835793786,0.0348751737424502,-0.0343252582745201,-0.0543902894590314,-0.0295106091481137,0.00399693466798153,-0.0226885140032165,0.0710813319102998,-0.00166546093535713,0.0535396539292076,-0.0536741274941336,0.026893468143254,-0.0110331448789333,0.0589148517026919,-0.0227134857994811,0.0352814798006644,0.0368147118634687,-0.0504382141385429,-0.0153376787782438,0.000373580508496279,-0.00625116577586278,0.0245194773962065,-0.0220978169747959,0.0397851938591714,0.0127990996798547,0.0183589224947564,-0.0539950241473969,0.01757439569444,0.0555039624508014,0.066716259462516,-0.0183424402897892,0.0211679285535906,-0.0258392485118047,0.0273613746996872,0.0165507622174939,0.0622813366195072,-0.00160231957360223,-0.0217056346617478,-0.036348588244898,-0.02628403552643,-0.0384532409763874,-0.0331650710699387,-0.004267729505911,-0.0127962614695724,0.0843339054030258,-0.0159249657586815,-0.0183395502853316,0.0370857121345109,0.0621257372056242,-0.00697239986187115,-0.0431774331079052,0.0400698512930266,-0.0470647878800542,0.0548615833750779,0.0642925585119835,0.0345534839529582,-0.0136984455091936,0.0534848005931966,0.0535018664291222,-0.0281059921284743,-0.0338675065679907,0.0315056564912402,-0.0536786115948329,-0.00428719536636918,-0.00311438656169457,-0.0120721442140748,-0.0540966089068119,-0.0104057386779128,0.0172406723379646,0.0305585540738348,0.0869473849887874,0.0229168642299814,-0.0178136673953283,-6.45004959824295e-05,-0.0197978945477095,-0.0036035784596341,0.0150911002983998,0.0255055600469629,0.0596337277252401,0.0127875880108971,0.0610586487136133,0.0225999911391887,-0.00824893052224318,0.00890280305280463,-0.0135940768461245,-0.00782978530819166,0.0636684775718323,-0.00545417989774759,0.0117458122986245,-0.0267271335830375,0.0290175234753249,0.0324460197758414,0.0555712673279703,-0.0305984895161471,0.00255482101416553],[-0.0295745736903169,0.0243612261560933,-0.0229991488990451,-0.026799513280655,-0.0688810440846453,-0.00713570493875832,0.0312712276990013,-0.0173237384970329,0.073268589123178,0.0180074635152375,0.0642679919894756,0.00401015114260982,0.0831142497378656,0.0799234381832463,-0.0325539640721129,-0.0213467210947529,-0.00821113512262399,-0.0187848705223402,0.0575897500049421,-0.0308242737351089,0.02568301018244,0.0481704229279286,0.044245155823929,0.0139629310923148,0.0334036043137274,0.0408646595446469,-0.00421004328740722,-0.031222965444391,0.00177812490038478,-0.0758550932852825,0.0803785061889018,-0.00172706089040237,0.0105469434990188,-0.00586406954586594,0.0772359031357441,-0.0272747396947612,0.0324253041713144,0.0398244754356806,0.0283901458372601,0.0658553737830766,0.010017499381956,0.0145430146654839,0.0378315649296462,0.00403162458265645,0.0283855900778776,0.023374967672984,-0.0137084667246917,-0.028703678651424,0.0439250249478485,0.00819218770384241,-0.0220575566131634,0.0740620333884127,-0.00313633757600833,-0.0125077485908604,-0.0142659514502744,0.0229219865469332,-0.0142224981454451,0.00108352380111224,0.0376824170833805,0.0346649456379041,-0.0151849269987119,0.0276332602047322,-0.00904457546904638,-0.0702645836545993,-0.0212591769606959,-0.00924381416895241,0.0659315927627272,-0.0758150496381404,0.0535970284820763,0.00260173862254607,0.00660620496890333,0.0179767343337771,-0.011465154382385,0.0680549470440557,0.0231099850756315,-0.0441334469921888,-0.0452135685589331,0.0023360422358451,-0.0228882332082704,0.00279630025152847,0.0358408099470124,-0.0337828710945855,0.0619690264131092,0.00360250020897638,0.0519228799391252,-0.0295004539903584,-0.0297993105702798,0.00746642427588573,-0.0281979918454792,-0.0029360871377755,0.0119180440849737,-0.0634920928876889,0.0283148637034183,-0.015849445880873,0.0390744971029026,0.0682690928886647,0.0349029916482445,-0.0503095445971956,0.0483550416539384,-0.0355208817488879],[0.000696956952323165,-0.0101847793262409,-0.0527908559370952,0.0344992032463076,-0.0223728704040272,-0.017507015780997,0.0170241279782029,-0.00857552252081832,-0.0232032509900324,0.113733713181335,-0.0235001044632747,0.0145896417041941,-0.0281445542607177,0.0356136260655064,0.01763772611872,-0.0135238405454575,-0.0179231383144248,-0.0437291589936697,0.0332852893546698,0.0430916539751744,0.0371211806100851,0.00260473431787911,-0.0282484641501897,0.0175677206572877,0.0110970502534779,0.0229870114909361,0.0180076024773538,0.0057528876368381,-0.039786826955492,-0.0282792873219777,-0.0771167737668048,0.0193976824848078,-0.00194607073325539,-0.0520325613979787,0.00348714707617348,-0.00429927671784596,-0.00860689152338265,0.0563011532533087,-0.0509843607790727,-0.0297282251450411,0.0343248058597676,0.0490285300252255,0.0327154564435083,0.00892111744662237,-0.00232289764120373,-0.0535274367068258,-0.0331403841984638,0.0177666169636272,0.0331770529064252,0.038451119265812,-0.0192564683358462,-0.0312371119642686,-0.00329577671695113,0.011522812832912,-0.00197547620873301,-0.0401489677894915,0.00213912397291765,0.030251800983024,0.0426546221564931,-0.00638771418859907,0.022915298587848,0.0987671658346601,-0.041169369587116,-0.0175444458828214,-0.0364178632720473,-0.0210114109662811,0.00445211877860971,0.0507772544599947,-0.0144001614525652,0.00631783775076967,-0.0526850768061549,0.0275763932427975,0.0223766965441736,-0.00973729390964991,-0.058703371619971,-0.00707649306856904,0.0131749296393844,0.0202149115853127,0.00646537286676599,0.0290643505408669,-0.0142026561832681,0.00784125799212096,-0.0626338869648114,0.00814207868750545,0.0501524347998037,0.0595973166389389,-0.0277673430228676,-0.0151457468241824,-0.0542736632216136,-0.00262402568824699,0.0265720098722913,0.000130308088982226,0.0358253997485391,-0.049016968178801,-0.0299319197211264,-0.0173087232909416,-0.00835481616976049,0.0321151957948343,0.00977208379841537,-0.0246194529016332],[0.0478545650450372,0.0053172771474447,0.0357240974111541,0.00179543687245769,0.0171621300065074,-0.00630428106996777,0.0109697257976802,-0.0520629474273236,-0.00918616651980504,0.00357136962506218,0.0583085635737678,-0.05026479765417,0.00394057188055147,-0.0281278794462203,-0.0177553334189557,-0.0038540771175264,0.0138022798251821,-0.0557615744181811,-0.0519593628068082,-0.000439478406103689,0.0366217074771417,-0.0205254107166979,0.0462534292324932,-0.022357404373459,0.0229196496899528,0.077382230869486,-0.00092740064503569,0.0332327564241462,-0.0165964489296001,-0.0124107444231732,0.0284439113869514,-0.0311727068431827,0.0241303013181167,-0.0339694722200791,-0.0311247088410314,-0.0395514010864226,0.0310079308458192,0.0292847213832957,0.022341473700133,-0.00947025847398422,0.0410411242316064,0.00536812078452276,-0.0225846237006248,-0.000301502723889099,0.0345503445991758,-0.0361729498844508,0.0543162902421735,-0.031659598981218,0.00302022886416444,0.00184922737252552,-0.00939825211573532,0.0394128235037272,0.0290047556907358,-0.0372934461180576,-0.0121056418822491,0.0102276978059434,-0.0325246846508966,0.0164722683137584,0.060926581988978,0.00519488004868516,0.0345824915222517,0.0633917498536363,0.0436706202975806,-0.0248512548525693,-0.0481300209828236,0.0308214882890411,0.0384396096483492,-0.0243331967280488,-0.00700650517145872,0.00283463023649726,0.0501463878428634,0.0165512911088085,0.00371961187385243,0.0347135752242534,0.016178019658167,-0.00828913526122009,0.000951188301681561,0.0306582222167165,0.039634116810009,-0.0198363555149011,-0.0358925417791659,0.0658011367085196,0.0503100488288361,0.0156466010582271,0.00316979734614002,-0.0334398565930287,0.0561700484188519,0.00777403313140428,0.0406359960143366,0.0668132645094381,-0.000566744633967768,-0.0209953755565548,-0.0741176251300492,0.0536575847880827,0.0449772329682305,-0.0498703032391362,-0.0769375658180422,-0.0242615837480325,0.0196809708701863,-0.0532766493232069],[0.000869534214630022,0.0381947782387695,-0.0214775183122276,-0.00538133973281707,0.00841128618138721,-0.00826399135368213,0.00736828136840402,0.0524391242542862,-0.0394175454630405,-0.0186026072543528,-0.0550433187442111,0.0269098394698865,-0.0503897003506693,-0.00405451620266369,-0.0122949337238496,0.0149599254232051,-0.0114596376192541,0.0260119518269072,0.0102040470130299,-0.0258601606452364,0.0133086874616415,-0.0681449701759884,-0.031875658179883,-0.0126763593076809,-0.00639049807130256,-0.0247401979189632,0.00388160007542488,0.0116791569506994,0.0115539877425381,-0.0242353828533868,0.00288848106621666,-0.0532660903257533,-0.0464392966354354,0.0207575560959832,-0.0460634783634344,-0.0222744472377109,0.0280199567430675,-0.00818179894500404,0.0388648907238165,-0.0159826828037184,0.0184789604432478,0.0223992341149858,-0.0551427373904517,0.0479320267776674,0.00358303429071917,-0.0442739017349672,-0.0223858135064643,0.00211971947821869,0.0029887643062696,-0.0416908590562385,0.00266939205413469,-0.0246849989586854,0.0425142656641054,-0.0354135249991004,-0.0147389927824108,0.00632060951730814,-0.0195835900259164,-0.0304639683293373,0.0557122818562504,0.0801262879571352,0.0112824346508549,0.00681708448997174,0.052235483159922,0.0175877746890021,-0.0210065853072502,0.0759825341654557,0.026789971693321,-0.00910028368745137,0.0203935554943304,0.0488556007086214,0.00110799035276844,-0.00604071862823773,0.0817941123658938,0.0248607343225165,-0.0402188112338441,-0.0636563249769441,-0.0105272653722919,0.00696339981959123,-0.0465657836309268,0.00401017240649632,0.0630930613168084,-0.0423338080565656,0.013696572919919,0.0651139975423441,0.0398481332918063,0.00728857112858917,-0.0570112977496068,0.0125969404319685,-0.0078660772902339,-0.0441608064328951,0.0288296797200449,-0.00275249864139172,0.0131436174012807,-0.0111439405454912,0.00271833896110334,-0.01048543045299,-0.035832805382299,-0.00761419283327134,0.0117233589167809,0.0267001762277701],[0.0179040620492065,-0.0244661744959111,-0.00258490038191406,-0.0111670151043357,0.0937746942801943,-0.0322388885182627,0.0271591390596144,0.042817426815866,0.0090362513457792,-0.0630344843181465,0.0962227730674392,-0.0087728368968034,-0.0245701117266517,-0.0351965539176627,0.0638148624880026,-0.0405401280452274,0.0445744998494612,-0.00351391146012502,-0.0363103815619651,0.00643994961977818,0.0412025497183061,-0.0616297632119148,-0.0150756584745888,-0.0743167809630075,0.0147530623076459,-0.0223279837650007,0.00427033355751419,-0.0131694513211593,-0.0197634427691774,-0.0469563722476566,-0.0416054158692895,-0.017015371869149,0.0346768716204624,-0.0220050908946488,-0.0573412411100771,0.00398972146968732,0.0187832797527855,-0.0103842544998006,0.00502636955393187,0.024554086538484,-0.0315874795169887,0.0805525299700339,0.051233098406732,0.0175786247893074,-0.0483667179769527,-0.0382045070432523,-0.0306579173521711,0.0529236478421336,0.0107128685134417,-0.0393964732778217,-0.0366421598518967,-0.0160365627155401,-0.00839047047513291,0.000725127795885079,-0.00999338107658715,-0.0163963049527524,0.0489063225826006,-0.0365520604581041,0.0265642363161198,-0.0478087451288964,0.00454773884305764,0.025457065120708,-0.0297604278180023,-0.0674994318464327,-0.00588506799414436,0.0359967504629304,0.0626899021543562,0.00878782278119108,-0.00957835973100321,-0.0122325812667605,0.0111262889589171,0.0263425755673739,0.0580529643284356,0.0203156505130714,0.0105867944900811,-0.0121823875416094,0.0288962715739013,-0.0852841652683334,0.0583524207542144,-0.0110526400317491,0.0376597660589539,0.00708102362257093,-0.0236490589951975,-0.03512409645136,-0.0165741424556427,0.0676643182712071,0.0249844762315413,0.0607702034088597,0.00991697326636397,-0.0247877366670783,0.018320893768953,0.0689302359724057,-0.0618930329699826,-0.00438523265414952,0.00589945346294904,-0.00306232542442602,-0.0581980396689668,0.0294066876051387,0.0405167107736732,-0.0318652613938815],[0.0299528258984305,-0.0620806237783702,-0.0583268785345892,-0.0472570555821943,0.0116274922010667,-0.0255539135579284,-0.026424815570856,-0.00941465501896549,0.00277961959967815,-0.035196354228538,0.00730331959102787,0.0115111334175951,0.0309104791895281,0.0213074220091091,-0.0686755738642328,0.0518390933161296,0.0149476285684508,0.0591662799499553,0.0612253065562943,0.0602575814654158,-0.00610557359383118,0.0151665530168115,0.0102901446333987,-0.00657576745668897,0.0231544107006326,-0.0411795354832897,-0.054791641625837,-0.0260010213156035,0.0635969378523494,-0.0536197775198966,-0.0150520877152472,-0.0205359281485982,0.0185745764340498,0.0766687048637808,0.0246495946172613,-0.0189508393079644,0.036615287835439,-0.0149502140113845,-0.00682378867431794,0.0399745576997483,0.00633454897480989,0.0527001526314448,-0.00182668067867048,0.0262064927871272,-0.0391632202043797,0.0209659223331174,0.0242005804816161,-0.0235597810138622,0.0202055372910627,-0.0520327866845237,0.0394135106218422,-0.0652600507452243,0.0258988089731781,-0.0349708235549835,-0.0312398824413346,0.00734620138454091,0.0123545011178885,-0.0199543434660192,0.041482530476186,0.0423448455527885,0.0361123647696214,0.0555857204372324,0.0388316502791268,0.000208977772920202,0.0145689645940594,-0.00486531827665203,0.0502535126561838,-0.0376836636618268,-0.0297508260149762,-0.0163265788860514,-0.0566957175291691,-0.0153495008953483,0.00191235847083193,0.0325032556325462,-0.0323742703252389,0.0632318828279258,0.0158494738511076,-0.00945865193454874,0.00916889877514637,-0.05527527352789,0.0282523701334593,-0.0568793311696541,-0.0116561674471139,0.0373999149184125,0.0488970187810125,-0.0230040720577259,0.0260161269967915,-0.00278675998128138,0.03535558492384,-0.0304426522130843,0.0212924207296418,-0.0374975924485621,-0.0120371033662116,0.0280893401574983,-0.0470826771614244,-0.00335177674341257,0.0197913157887975,-0.00389897523408937,0.0358121608470773,0.0390995418816667],[-0.0138947805724228,0.0398412180317726,0.0306209142458034,-0.000853794834052447,-0.0236515641982455,-0.0342179395822715,0.00680727918579634,-0.00655644942926284,0.0144467460540789,-0.0680143075916591,-0.000784831124487027,-0.0159435323121471,-0.0641477854282524,0.0231024203777741,-0.011244792935808,0.0157091099522436,-0.0405374907621372,-0.0358952444118548,0.02431773975184,-0.0504839411440396,-0.00162740622349872,0.0316549824624453,0.0430063508874479,-0.00653941708897423,-0.0179686434341899,0.0229051185547758,0.0434506135500325,0.00744960579660076,-0.0291445477997138,-0.00704520178486094,-0.0179328361176371,-0.0323032845362207,0.0922566024291142,0.00494952682591218,0.0358362747531384,0.0109311235745184,-6.34459298908015e-05,0.0314440210504809,0.0284448616702444,-0.00464617110096979,-0.0420016412183905,0.0462474913279683,-0.005877479460072,0.0107569096595939,0.0325930418469559,0.0214590126413984,0.0434986231764351,-0.0574862974942168,0.00822783838659759,0.00676446074697718,-0.0287119459961113,-0.0371569413321894,-0.00633399159728002,0.0478920295547472,-0.0196823769201968,-0.0100724138322867,0.00171635442748877,0.00255938135421952,-0.0139830632179458,0.0303298073084277,-0.0284213934296645,0.00755900136830311,-0.0206462134244559,0.00311067951261948,0.0188750611902677,-0.028753681906782,0.0663023123784863,-0.0460159665053791,-0.0104439340906877,-0.00129944952617376,0.0456559112793086,-0.0374695288746008,0.0280960505381242,-0.0313419208206278,0.0174273667581825,-0.0584008871213654,0.0371533072401632,0.00067645202147809,-0.0187412689825555,0.00309310007197606,0.0278509245564173,0.0251393294713466,-0.0643833206934003,-0.0358602033887733,-0.037557932029129,-0.0173994916221899,0.00770456543363861,-0.0343465887433443,-0.0468153172804496,-0.0244904622646357,-0.0404130392277146,-0.0173992389276832,-0.0238588229366411,0.035925730918362,-0.0447940086523217,0.00643800542810396,0.0464957125983858,0.0048629520016199,0.00937971687137967,0.0316176265756392],[0.040484952457771,0.0523868473095294,-0.0530989919274343,0.0303850263239386,-0.0249094667497442,-0.0275089536264156,-0.0259915787477456,0.0256381400967796,0.0257116270305727,-0.0386810227784386,0.0363407948237987,-0.00225898660132105,0.0120239236781855,-0.00781383408929585,0.0389856672140387,0.0392655941588516,0.0488290165560496,-0.00115340826387341,0.0378379720447806,0.00189682719300347,0.0458121862646754,-0.0408942430294861,-0.0299818691287548,0.0647068458083031,0.0094005233076544,-0.00443689518145968,-0.0761238052389099,-0.026273832272517,-0.00520280079701247,0.0121915755783978,-0.0381234830734476,-0.0405087630992897,-0.0143708242507145,-0.0437587302956312,-0.034950533002824,0.00738943139392153,0.00304229246374682,-0.0813434894834839,-0.00784855492228989,0.00157682853452689,0.0532184744737049,3.36362350394206e-05,-0.0555945953089181,0.0119458608083173,-0.0345364627595313,-0.0120451532877541,-0.0272126676548344,0.0814473103736581,-0.0281726508496579,0.00100989696545063,0.0197768471282456,-0.0423969745065753,-0.00770843481734394,-0.0222891964769105,0.02873110932856,-0.0304224824196086,-0.0224903955697993,0.0370029532424585,0.00813811447206806,-0.0203542415691397,-0.000192678502966205,-0.00542959246095399,-0.00917735796060178,-0.0127446966583757,0.00682677732485857,-0.0546660375938449,0.040907498170924,-0.00217139212051468,-0.0116220299772933,-0.0103698420299841,0.0124463436688434,0.018340277296845,0.0022903818537673,0.0174121993229768,0.00466011860042101,0.0351653804478949,0.00996066117502351,-0.0530797503362812,-0.0421929002814094,-0.0408661361548915,0.0234952193920728,0.0356594145962557,-0.0298651041804359,-9.86468152316329e-05,0.0818067445448878,-0.0407502805317764,0.00853760056479007,0.00459014918070014,-0.0196307482371382,0.00870591695962986,-0.0522553036762434,0.0106022712629172,0.00124634282390264,-0.0320961219109501,0.02202896795703,-0.00880683963629367,-0.0165246142021864,0.0261660341062615,-0.0279195117025161,-0.0119928444484494],[-0.0366093248929479,0.0329271600540455,0.00758768734537448,0.0351444116705552,-0.0931751398507275,-0.0342561634776827,0.0348664331234207,-0.0255501687242051,0.00375186731578492,0.0143975986531643,0.0258583754857186,-0.0128222880386894,0.0440705024952094,0.039606887841757,-0.0257021235905235,-0.0124212011625745,-0.0467158216689341,0.0037657276925871,-0.0103343961414402,0.000650741826251801,-0.0126727093348026,-0.00387824551498663,0.0352269218118865,0.0220295700087243,-0.0153292865011733,0.00810807289899586,0.00655184606309248,0.0356254763119008,-0.0565031809026936,0.0262282959738743,-0.00341556169832552,-0.0339427568472515,-0.029050095212076,0.0633865405261792,-0.0552459489940796,0.00311974557495732,-0.0980654103660569,0.0129007997556103,0.0406472974339829,-0.00451731050513133,-0.0590112452692601,0.0047220008715877,-0.00512264225476161,-0.0449790151784439,0.00403035140673419,-0.0499376289892034,0.0361568077528318,-0.0423415897347909,-0.0294784471204853,-0.044298305892367,-0.0320215680595251,0.00703743564175177,-0.0393729644538419,0.015337341877937,0.000563510127521864,0.0593044944721203,-0.00172880623335054,-0.0198964197736802,-0.0776630417294851,0.0478575705997929,0.0386412659957844,0.00442345583918021,-0.0522407721707474,0.0478142115150691,-0.0434410725116276,0.00897087320284505,0.012767012728446,0.00252171415700394,-0.0218180513664392,-0.0541299134278257,-0.0236821607550143,-0.0274749442666522,0.0583435065762101,0.0411269322036437,-0.0534300071040321,-0.0218057423034105,0.0321048510467703,0.0232235654947314,-0.00763630354092917,0.0378954812722686,-0.0488076776358122,0.063291856789153,0.0241851962751407,0.00844312507272167,-0.0535361165981409,-0.018764362160903,-0.00670767757441849,0.0164390334644162,0.0698380982878127,-0.0169146790424152,-0.0134259535367083,0.0168834907686673,-0.0552660089660405,0.0724195135162785,0.0346343753774538,-0.0233281158463846,-0.0981586875830894,-0.015690237501857,0.0290086801461007,0.00301220363290252],[-0.000890014342567556,-0.0280296665172502,0.0076314679554043,-0.0192471698452288,0.0657013034184022,0.018753521998521,-0.00711920752155987,0.0410095800428069,-0.00587968093927211,0.0311237308529332,0.0311326270011942,-0.066734559249028,-0.0428954484276722,0.00983600178822651,-0.0385599669555674,-0.0026495007154493,0.0111730545478355,-0.00672493450695598,-0.0083642004561973,0.0113455892118862,-0.0188579917281682,0.0253530807674962,-0.0143235262909286,-0.00812637659113027,-0.0327199248559255,0.0239006809149784,-0.0379532469873955,-0.0141174832781599,-0.0529591815175352,-0.0340154556681922,-0.0390769036931125,0.0316245559989019,0.00405554253903714,0.0586110542873019,0.0164509826105017,0.0426435852999186,-0.0363148932265419,0.041210810076342,0.0260216515328293,0.0584314681926729,-0.0289065276496793,-0.0374553831522915,0.0410727287528711,-0.0231375664818807,-0.0109853058453015,-0.0661233405132658,0.0120315178670525,-0.0143805652892956,0.0952789006003504,0.000951747358401935,0.00852786800556211,0.0103479099589901,-0.0366901509580155,-0.0157899302748176,-0.0193414235523157,-0.0041670953515164,0.0486238533901524,0.0420482468447239,0.0266948300942702,-0.0117354374672333,-0.00259663192370467,-0.0250474540617342,-0.0155080314961413,0.0125099087420119,0.0238547467884593,-0.0363817237552881,-0.0283906467770411,0.0646412433861391,0.00873927901080277,-0.0341895223116938,-0.0286681437683011,-0.0589657685229739,0.0242635671602908,-0.0575511512058458,0.0276373334692351,0.00168727881002335,0.00208168714015242,-0.0709707462588054,-0.0404536207749932,-0.0617403316174258,0.0404539056526701,-0.0586247989770309,-0.00776464763781803,-0.00509201403853948,0.0226195143601473,-0.0407255347410956,0.0556025193361382,-0.0351514560178662,0.0129843231111774,0.00183831150912103,0.0344780569227906,0.00608778076737389,0.0581067717676301,0.0292339099022461,0.0638515921625458,-0.00182559945697339,-0.0759245215708351,0.0706713678206121,0.0354387772171868,-0.04490618919186],[0.0401394508965592,-0.0309461548360162,0.00428488242137296,-0.0914058587716758,-0.0217286748255931,0.0540893851035941,0.0419211389753345,-0.0175413710526433,-0.0487186776127955,-0.0227734842905238,-0.0584656720443011,-0.00485150147411238,-0.0166025860407802,-0.00529515171237109,0.0082937621887622,0.0296122159402727,0.0125959728116925,0.055344487066592,0.0252159190413571,0.0384646329021015,-0.0468379547667289,0.0412123294288901,-0.00321457930015414,-0.015571611623635,-0.0576482367075027,0.0411382158414661,-0.0522082885279453,-0.0369159584932871,0.0186804203059284,-0.0178153516090647,-0.0307911927277218,0.0323703822986019,0.0510983233214716,-0.0664423206476957,-0.0734937019288595,-0.0563705498833367,0.0345757199663115,-0.032660316047195,0.0247626229301025,0.0188455621922847,-0.0548391931304647,-0.0165685613006378,0.00495664314463147,-0.0560234665541145,-0.00697145727435327,-0.0293950835644468,0.0538997806241018,-0.0475841953216611,-0.034303320635908,0.0757880548920145,0.0452369924551411,0.00867714322341791,0.00757163079106108,-0.0569110401363141,0.0250752898185398,0.0517809197398789,-0.0551897111403223,0.0231660696653251,-0.012162808076015,-0.0420909648883199,-0.0542798154082899,-0.0684265079202876,-0.0630401878842853,0.00124402640979988,0.000436326571066676,-0.0222197336740836,0.014513870066628,0.0289589545804947,-0.0113005586791259,-0.024405252783828,0.0507188905337431,-0.0160598605545941,0.0436862456041852,0.0521504847012183,-0.0159001213120993,-0.00923966438165765,0.00605836868434987,0.0265504886531025,-0.0481068074644099,0.0259385260850148,0.0295893015034411,-0.00569731268200617,-0.0229083910103517,-0.0533885807214225,-0.0660450199369562,-0.0192628050305311,-0.0612577545289406,-0.0580366654641723,-0.0141898139898242,-0.00849287121940086,-0.0137947434285465,0.00811496242405962,0.0226916117396448,-0.00348537041137385,0.0470096739440789,-0.00518934294302453,-0.0347553011906915,0.00179990787847312,0.0163813380629184,-0.0130650347527538],[0.0209307881169067,0.00213366904459118,0.0138366806176115,-0.0106648370629175,0.00668572305170623,-0.0176925185736594,0.0117798159148457,-0.0362076380355594,0.0616649296036878,0.0301123045656584,-0.0240798063070667,0.0845198646188508,0.0485850423065732,-0.0431965324220888,0.0248653702322762,-0.00177865093730104,0.00940162252613577,-0.0211499486910721,0.00215990637395371,-0.045552084302953,-0.0668878796678358,-0.0399673527136192,-0.0379899905701203,0.0203605735712219,0.00713618303324551,0.0277963846359388,-3.34974571110069e-05,-0.0218342419827118,-0.0243395521800315,-0.033271163737304,-0.0451861953558965,0.00179672396796073,0.0162313588820685,0.0459883774674851,0.0479206933036763,0.0219029236105959,-0.0513233561212393,0.00614218576166875,0.0112894866148095,0.085757801243374,0.00483285916824876,-0.0228129364713267,-0.0391980687329439,-0.0787427370660728,-0.0637704191848769,0.00577054866796238,0.0843566644498855,-0.021578176641721,-0.047160304934799,-0.0290185279057926,0.0017706004611122,0.0347046189670981,0.0389934016509727,0.0150226268889143,-0.0228162163865922,-0.010945526218649,-0.0208321692923468,-0.0327259792232508,-0.0299217619426092,-0.0132731867771756,-0.0342102543455946,-0.0409517771249389,-0.111743983203165,0.0387210949064156,-0.0174050629940928,0.0552798083632709,0.0167974581149577,-0.0175103155039234,-0.0620157953332405,-0.0852943493569974,0.0170563794523459,-0.00362337476600074,-0.0321981399655639,-0.0031983597687693,0.0140845963904664,0.00721474915461548,-0.0257082615994233,-0.0471409959892665,0.0331524004374883,0.00630022980876019,0.019527671870531,-0.0199124571689473,0.0182183010152519,0.0231695545814776,0.0179966634975068,-0.0643051090365671,0.0117256013656555,-0.025119194070625,0.0474632513559825,-0.0276165556991076,-0.0275867780251958,-0.00286968400976511,-0.00963524126064568,0.0450348962437631,0.059619195156186,0.0647326080999473,0.0534399007910699,0.0138713761639768,-0.0192443526985702,0.0674360312262411],[0.037307990493061,0.00727180734368871,0.069728424336101,-0.00599137614714895,-0.0503090414594681,-0.0614738711069321,-0.00708708578950105,0.0176552325177705,0.0227489574576298,0.0103047182159513,0.0100117739593725,-0.0462226798926607,0.0782554782281117,-0.0254022287715724,-0.0197823423502582,0.0668802980677748,0.0339036697628072,0.00543206170535604,0.04300661220727,0.0199975996617213,0.0285523979157519,-0.0603455332883682,0.0248505676765461,0.0403188586269761,0.0167839537511504,-0.00262610895491561,-0.0211352201700115,-0.055038057916047,-0.00206260798549491,0.0563547174318806,0.0388370137943347,0.00576701772410842,-0.002709542989789,-0.0518921426327571,-0.0338036882583423,-0.009139256063793,-0.019066150772312,0.0139123599187667,-0.00966984871095381,0.0725926959427233,-0.0116876265806242,0.0388494239669935,0.0165122318252194,0.00411642141009581,0.0259460048681891,-0.0846309824015831,0.0043376975053512,0.0365389167850399,0.0288240253721026,0.0424483117807647,0.0128737449111179,-0.00974815899419869,-0.0246391238605232,-0.00624555250193437,0.00267569955134863,-0.00509236059332635,-0.0381224153075285,-0.0456342314358965,-0.00618434256116396,0.00118525262129864,0.0184212244345697,0.00556865631338127,-0.01080119552398,0.016799081971008,0.00894707886730739,-0.0368459518598239,-0.0317468618072007,-0.0268954445228746,-0.0287255621250572,0.00241483223353365,0.0293006509512935,-0.0348814944505458,0.00926399367479802,-0.0136008184775949,-0.0566883358527385,-0.0238357279074246,-0.0622083571079977,0.000708189925463982,0.0550244122580909,0.0385749190891722,0.0726845325458756,0.00891658439886099,-0.024556615480312,0.0388783725605582,0.0119268025238344,0.0209155794457901,-0.00894103096270877,-0.0121100449629572,-0.00357879243110675,0.0676175020186057,-0.0398756276075888,-0.019482362264651,-0.0282011167936162,-0.0150083493001345,0.00954040346133439,0.106773943742778,-0.0285348253696485,-0.000915803097841928,-0.0363478976052335,0.0208554328080401],[0.0021432280920095,0.0616434451346498,0.0767285597978448,-0.0502045443085647,-0.0231957416295296,-0.026413219609247,-0.0439553420986406,-0.0163502097412345,0.0340983748592057,-0.028577608192168,0.0170307988296902,0.0235033308001524,0.0383025436079506,-0.0282917010550996,-0.0460328359587215,0.00607111039465095,-0.0382375019574609,-0.037972034936612,-0.0325644906900962,-0.0429047169788341,0.0640264423388711,-0.0104217369792405,-0.0291871285134216,-0.009036180889728,-0.0460773398987004,-0.0325446031623031,-0.0296865594871509,-0.0924642787560937,0.0344104097415817,0.0278445832849806,-0.0427883363992689,0.0116262299720345,0.010055718075825,-0.000251917667179799,-0.0108182275224176,0.0128378664144453,0.0182241620162746,-0.0571560079549753,-0.0103800687380604,-0.0317066677677132,-0.00047403230327354,-0.0582507903496222,-0.0324766396604697,-0.0795209268278832,-0.085386344942799,-0.0337936833742696,0.000923995051501375,0.00577493840818886,-0.0123309378195959,0.00351942634602677,-0.0151878293809689,0.0209943279823269,0.0502257439378243,0.0388929435726155,-0.045132612870474,0.0261500781773216,-0.00873010353621913,0.0150246665583047,0.0324035170358274,0.0389110045145092,0.03528202159997,-0.0200023266221692,0.00348830064853942,0.0366348210151128,-0.0559777967438876,0.0406788906057687,-0.044941071791311,-0.030118033109668,-0.00335616300534444,0.0267319609839405,-0.0473364958687048,-0.0412601466254482,0.0227349613818957,0.0125352387638808,0.0387819910701063,0.00701678655347694,-0.0224005999694208,0.046375184930829,0.0187935285478707,-0.0487190596511589,0.043507030767986,-0.034616777926247,0.0040762725224682,0.00763956072749144,0.0269794992579336,-0.00400665825156641,0.00243998992639154,-0.0108952153387254,0.0524736593549518,-0.011420249717468,0.045951901993853,-0.0470806188417153,-0.025135808710267,-0.0488775352409837,-0.0219094793125931,0.010898921998753,0.0248171158111191,-0.0315598139015317,0.0217995654577366,0.019163795732242],[-0.0324520861861563,0.0322472743911259,-0.0429702821362936,-0.0336168788346208,-0.00711862469910711,-0.073429719755253,-0.0127736728542371,0.0544137163717895,-0.0160332629615968,-0.0655711833523581,0.0612662496930516,-0.0275050684465662,-0.0384385335232686,-0.0428175029421943,-0.00197341497631394,-0.00375296796908667,-0.0436879695549243,0.0393803780625705,-0.0617996107774459,0.0446795462963824,-0.0111003325709019,-0.0226027724659402,-0.00107091052274218,-0.00682017640614617,-0.00148408828130744,0.0169821458076904,-0.0141737174364628,0.0634404722920661,-0.00749935011508245,-0.00925698528993427,-0.0296660952853802,0.000522181420116017,0.0226709174420072,-0.0208687973427435,0.0146454483831347,7.08637552269039e-05,0.00719899069364615,-0.0413330756921657,0.00329399049545326,-0.0108950143964458,-0.00869202376351941,0.014784067126229,0.0269124554356665,0.00882443042547295,-0.0184001056600109,-0.0122378571601024,0.0662873642566983,0.00501904670786405,0.0114260928088295,-0.0132739461796643,-0.00345969215318987,0.0765325763978984,-0.0293308070599447,0.0319753736067744,-0.00421516420972759,0.0482946884090653,7.04191820099832e-05,-0.0270809900466345,0.0639482058329114,-0.0539283027862923,0.0156645246945155,0.0291460710698417,0.0350625874115103,-0.00643338381207025,0.0634153227911911,-0.00562406642611422,0.000948670039560396,0.0222157424456114,0.0228944712385789,-0.0737153855277739,-0.0268644356046929,0.0530863832349782,0.0308944650356161,-0.027255921795048,-0.00746851926494677,-0.0163193682630992,-0.00757287131638481,0.0499425510995928,-0.0146459898699494,-0.0519046246047079,-0.0161048478657679,0.0229284378018508,-0.0176459243931924,0.0417009036771951,0.0121333795744322,0.0204866782244788,-0.0174871423505254,-0.00419481752949365,0.0354628716284298,0.00284461474048148,-0.0320473054153982,0.0184760980275461,-0.0108039246544346,-0.0252378675128663,0.00291327785223557,0.00299446764045836,0.00144767034263931,0.0016912102687808,0.0229397611719402,-0.0623776578372544],[-0.0410993250726005,-0.0260567266641574,0.0433286001377581,0.0350017373403397,-0.0257502795480949,-0.00303575710944518,0.0119103793328348,-0.0883088071308423,0.0431970933838234,0.0203943906675519,0.0724880689978154,0.0432828874281758,0.03991836352076,-0.00972609347729032,0.09726325871841,-0.02749879140874,0.0285156928529631,0.0110435087716858,0.012847736382173,0.0135873062840689,0.0503213207223521,0.0205388284963618,-0.0153844208392033,-0.0112942564948058,-0.0408930259943567,0.0148583518467898,0.0284546018673104,-0.0571929082755627,-0.00496138014305085,-0.013196301862646,0.0273610571584379,0.0118487203517829,0.00757229848832042,-0.0299462981103829,-0.00337405650804969,-0.0505021039286564,0.0285478001886114,-0.0260448257058533,0.0193203111620281,-0.00469652563058182,0.0306870140906196,-0.0727211601359389,0.00961026203548471,-0.012218084310358,0.032797598395406,-0.0566843685821106,0.0399106443907629,0.00343761386664007,-0.0180255320268862,0.0218549593016327,0.0285862171144529,-0.0375777361281063,-0.0186947406209183,0.00904822395679887,0.0443580364801917,-0.0462826656641575,0.0956459451106027,-0.00729430806633943,0.0449029067130129,-0.00956507604318549,-0.00999095482568408,-0.0323297592677907,0.00414911671636646,0.00746836831304537,-0.0374916041150535,-0.0327357037141293,0.0302040065231307,0.0266095472910116,0.0332379105967275,-0.041557796505865,-0.00622906437986292,0.0340037722630793,0.00867402752584698,-0.0196997221701348,0.0232274693982573,-0.0365655608912664,-0.0134795514236524,-0.0348965936830235,0.0308332709115516,-0.00538034762091636,-0.00885251614988449,0.0375538320622224,0.0253644534623444,-0.0348039050623871,-0.0318120860329065,-0.0080319227170253,-0.0255031005717594,0.0831706964481818,-0.000502091850003641,0.0333909495067193,0.0366287682367387,0.00275380068542985,0.000835995140459016,0.0996296482548022,-0.0301402070303553,-0.056169525912254,-0.00453847223847494,-0.000276586058778287,0.0589252505724836,0.0158016070550989],[-0.0358148109198851,-0.0310794863267774,0.00420202044261468,0.010280060651684,-0.0220027988890742,0.0233776715359866,-0.035296131814299,0.00924934381630247,-0.0661784295466279,0.0164245646634622,0.0460504909858682,-0.0258266038924676,0.000991841788994273,-0.00746876400845478,0.0141902176099256,-0.0608995051330129,0.0398377449133975,-0.0387497465671813,-0.012137860264205,-0.0075003069339286,0.0285892774751306,0.015800311806207,0.0282944251219082,-0.0288272663528309,0.0296697505074691,0.0376726472832275,-0.0246543723970112,0.0284614574431651,-0.0986497252604832,-0.0336146804993218,-0.0555612729854172,-0.0135090543838941,-0.0232141019669776,-0.0203260277913679,-0.0322943108787596,-0.0460872678990426,0.0435231575430731,0.0246755355932863,0.0171744933864823,0.0245158814285493,0.035508866374658,-0.00321105561214238,0.0430884329030368,0.0207583505768677,-0.0283002260680293,-0.00472477406220729,0.00309626213337139,0.0144960458799736,0.082566008953872,0.0612402855269696,-0.00659337256852746,-0.0613261076882968,0.00388336767936326,-0.0193121745669883,-0.0265971528338028,0.0153642735555849,-0.0425589690450416,0.0474292360841447,-0.0556407304541928,0.0237388607375309,0.00130436639373963,0.0292391574388404,0.0109302572261717,-0.0268961036295084,0.0336404716982752,0.0529341321646748,0.0581971675019098,0.0397888450328657,0.0198083794278531,-0.00676371610147096,0.0650113765607446,0.0266072880239655,-0.0162262984285889,0.0157024627250449,0.0599716240417633,0.0300411829463124,0.0152181762042697,-0.0193633246733475,0.0242750854250731,-0.0109730760905932,0.0193539339609519,-0.056005384444274,-0.0148891101128744,0.0178254820345938,0.0142467148504767,0.00752157611343876,-0.0872193085478455,0.10620752602853,0.00834250917491378,-0.00187961904422819,-0.043510886048437,0.0036322154601985,0.000738988409036868,0.00174552778511797,0.0443478505210793,-0.0326288326858536,0.0236835707658579,0.011762560769342,0.0212638469874393,0.0248199160570965],[-0.03108201258827,-0.0285566526531937,-0.0297526591559981,-0.0202074169122607,-0.0448270312532348,0.0192863861955226,-0.00466072454579003,0.00738648676958305,0.0173740962512258,0.00433334287452094,0.0439761753988262,0.000427195905432336,-0.000984637233601734,0.00959341745051133,0.00230964429223666,-0.0155765002064706,-0.0688938291373863,0.0630476718596034,0.0483016783961293,0.0353276314064468,0.00943873810004719,-0.0169399491905054,-0.0119466083240533,-0.000910638379501099,-0.0374858865809675,0.054773863572812,0.0373790080053363,0.034344811066318,-0.0132763243899211,-0.00409811912066666,0.028539526520794,-0.0808793150024595,0.0251634639998448,0.00118754654949723,-0.0247751434965463,0.0221167853107211,-0.0266736000233406,-0.0322914870429379,-0.0312459100600468,-0.0146456261714366,-0.0211885334819919,0.0174708010198468,0.0664926535561686,-0.054915057131195,-0.0061565217732525,0.0574516196494348,-0.0269574265042985,0.0380767329508392,-0.000166796686694164,-0.0210407510824108,0.00538411707640613,-0.0674054614284502,0.0269150132559761,-0.0409308859419493,0.103469550427548,0.066002119927838,-0.056242515151574,0.0228760024264043,0.0031583360779594,0.013835861888303,-0.0174096243044282,0.0519339473336633,0.0333049039740898,-0.000314612857597438,-0.00828927012200293,0.025228946150846,0.00595449397218546,0.010379930346995,-0.0100263557448604,-0.0111209801745652,-0.0236003159043407,-0.0760697024566724,0.0048752880391292,0.0680535603917677,-0.0382990553274757,-0.0347667458201683,0.0432998628059864,-0.0642761740218644,0.0775747897468116,0.0324714190680983,0.0498670461221048,0.0141272936193484,-0.0186623125591805,0.024931504687101,-0.0476776692141759,0.00560675976369413,-0.0424558560324971,-0.00392488320459506,0.0609220556369104,0.0359562476294259,0.0381151386368851,-0.0349691727187891,-0.0156186911967755,-0.0391903512233545,-0.0370707316284225,0.00890598208297505,-0.0663534600208777,-0.0252626915770948,0.0186736047664501,0.0244570452536292],[0.0189665855077676,-0.0229614421149337,-0.00529603714658214,-0.024091033213829,-0.0391630776984907,-0.00939021688452524,0.00200359782351674,-0.00599271380048575,0.0106764148247008,0.0095397912730942,0.0378186315558178,-0.0736239887284479,-0.0425459172442035,0.0232698994437689,0.0398593958973435,0.0254190464129767,-0.040268528360998,0.000692138604759979,-0.0435809371008754,-0.00995148905690403,-0.0296049304829751,-0.0446905375484301,-0.0373406037429275,-0.0548028344373365,0.0317152400689155,-0.0161099165375796,-0.0319121451315178,-0.0159529183208907,-0.00745280726859769,-0.0486108902285461,0.00838653027631201,-0.0612429516427248,-0.00927697783915545,-0.0041208858537599,0.0241311057730954,0.0194679332094491,0.0309252794273251,-0.0157754930788957,-0.0166030087777559,0.00128241682874336,0.0300529206088403,0.0200700265348263,-0.0190288426468397,-0.0122908846620655,-0.0212599845462711,-0.0455455492292407,-0.0739075464668903,0.00730834334138233,0.0104899481969451,0.0444603430666838,0.0390808220596029,-0.0321822124075992,0.00322361164877374,0.0878168485911624,-0.0263408857577809,0.0670641554244404,0.0601443456455267,-0.0369981406680566,-0.0335484729330732,-0.0201119384883523,0.0907364186335586,0.000196265086406733,0.0327131464739146,0.0226975322117347,0.0146534219419761,-0.0179029857971912,0.0828182138435496,0.0145315112268114,-0.00793268366902882,0.0711747946127657,0.0184845906390378,0.0110936576979587,-0.0801118809063229,0.00675754041858876,0.037453595842278,-0.0221616909991493,0.0276573581372787,0.0814136655310451,-0.00849638826041568,-0.075777474820654,-0.0630833272074668,-0.00236737804905591,0.00569170190685925,0.0481753238133837,-0.0172251161180147,-0.00287267528238596,-0.0540220836746724,-0.0184162314739825,-0.0518696282855125,-0.0281059864927853,0.0061331034952187,0.0236859461614742,0.0381683604089571,-0.0168158337531686,-0.0260715177419581,0.0286874127802231,0.0341684307071052,0.0307041753450847,0.00447474195821699,-0.02626118419701],[-0.0163774347297045,0.00578013632961335,-0.0342945403219472,-0.00290774978024877,0.047939235890706,-0.028567408233834,-0.00141737548114991,0.0128409421549571,-0.0183151389111319,-0.0778998875596095,-0.00255256371364936,0.0478342661733,-0.038521174697945,-0.0209364279619164,0.0473919286397428,0.0351430536353786,0.00175754262747301,0.0565223718027669,0.0372901879675879,0.0170857111364924,-0.0408282194941186,0.0481780011516766,-0.0369585060138612,0.0580118708730709,0.0011376334680003,0.0450857403298013,-0.0511797882286686,-0.0471360736399206,0.0461602764307587,-0.0265791154893091,-0.0346202054020049,0.0304020749579417,-0.00517285499586309,0.0598889538410308,-0.0223287755148391,0.00523314321333191,-0.0281981059090367,-0.00572366257862667,0.0249760902322053,0.0441822251935062,0.0471177167413668,0.0427584722629699,-0.0288347695761446,0.00484099926925445,0.0265054550371421,-0.0155715771186518,-0.0380708939279183,-0.061943766453141,-0.040029798288814,0.0681590286594041,0.0245525691796001,0.037046317343882,0.0164146429039428,-0.04047414136903,-0.0746268918846757,0.0339169268346528,-0.035610357081625,0.0124146374608447,0.0192192770808683,-0.00324910006765277,-0.00638024211473128,0.0193533199872491,-0.00487894534602177,-0.00816396931943838,-0.0335518855803398,0.0776577760215967,-0.0453399687822454,0.0518641712990646,0.0281884455338748,-0.013114234063793,-0.0101157818844155,0.0511723754188878,0.000526986035278849,-0.0378172648275655,-0.0628055652513085,0.0817277224357055,-0.0119797043490818,-0.0327496386579568,-0.0261701783474527,-0.0567644958354565,0.0453350805908602,0.0237723055475992,-0.0346531652375611,0.0192188934255779,-0.0584961287230546,-0.0109659231718423,-0.0427918333444119,-0.00392823662468619,0.00695131477495967,-0.0043419742098221,0.0165378543076914,0.0166224000766121,-0.0165136618466774,0.0091841397620766,0.0085463519195609,0.0341365046708208,0.019686569751875,0.0416469689590114,-0.0028391858060297,-0.0114367820712142],[0.00904248670068759,0.0258337360126539,0.00120514019002321,0.000123917925223355,-0.0751932809046378,0.0317339808737567,0.000154689885042427,0.0661602903454935,0.0388320566086412,0.000640894309973482,0.00970208820893412,-0.00846873341615522,-0.00511832899248,0.0444477948682872,0.0197899890525954,0.0475887745339525,-0.0122290175698936,0.0200095094965279,-0.0117829520869508,0.0622133439453822,-0.00777370056375568,-0.027539030216468,-0.0326757036327431,-0.0070037454200031,0.000648618985316973,0.0185668127243655,-0.00606160668457453,-0.0112561751944995,-0.0408614565807106,0.0336726802852849,0.0593058925011141,0.0399787839315301,-0.0329219078530548,0.00410912321628226,-0.0103926404290075,0.0154525176351674,-0.029045994446128,0.0110759786750958,0.00730233964113911,0.00171173454679582,0.00701589251569292,0.0173830978559319,0.0083460221809166,-0.0676639299570141,0.0247754843058083,-0.0219043488806896,0.0119085396374792,0.0463770330811089,0.032614710096038,-0.00900921148297723,-0.0109443288555036,0.0267342266147013,0.00798674192082006,-0.00448396616004628,0.0277414167855595,-0.00581309378432967,0.0243366186519464,0.0379016923152163,0.0306980735332049,-0.0172097813128521,-0.0326382763741935,0.0271231019324034,-0.0203745556786899,-0.0157396997038287,0.0202504588613452,0.000376324516675933,-0.0372817042868804,-0.0121259006733228,-0.0367869582884244,-0.0183865109388467,-0.00432531074479026,-0.0445784066681161,0.0835314356204222,0.0312483572701909,-0.000502963230272798,0.00476493721611325,-0.0187347975832197,0.00449315953142307,-0.00335319901312015,0.0176041168761118,0.00177254278520812,0.0342073445681848,0.0735679798973211,-0.0317135340980081,-0.00767473704868287,0.0769781684474893,0.0162644759335685,-0.000880109877983474,0.0354384785684698,-0.0417647213073163,0.0389178892026678,0.0386170044104339,0.0298211462666285,-0.0159236347625587,-0.0157836841009785,0.00108688303587097,0.0104030109807483,-0.0589028906994142,0.0183300467872501,-0.0152296904011676],[0.0121983000698037,0.0389838592174243,-0.0261088857121233,0.0838481743669562,-0.0858329688603441,0.00134186117578102,0.0106961297996325,0.0644489490318593,-0.070934216029389,0.101492369964813,-0.0326692993352883,-0.0236742510063617,0.0134769138161272,-0.0192713281679712,0.0296926261653678,0.0092777806465372,0.0452443896892589,0.0196554255256987,0.0152024001666695,0.0718653051877733,-0.0124982765905439,0.0140293221783205,-0.0515962736484598,-0.0753549477259123,0.0509380015626019,-0.0311136357632511,0.000494357006132311,-0.017216842639192,0.0198589413618103,-0.00975865619893736,-0.0312863317779598,0.0254984303993796,-0.0807205151557283,0.0228311413396018,-0.0199091179527988,-0.0643738430927857,-0.0302294051237838,0.0153941882288088,0.0414436706429656,0.00526036862034314,-0.0217671351570073,0.06976859431612,-0.0342703243015433,-0.0400746415381335,-0.0199577440110976,-0.0338564034352589,-0.00775478234218365,-0.0226833044306816,0.0199377258529196,-0.0176417617021939,-0.050711009963942,0.00711606961227076,0.033305273599143,0.00418727771367271,-0.0340450107230445,0.030001718222826,0.0717213033347069,-0.0208547379510175,0.0339074699632817,-0.00430539166713153,-0.0232929401790321,0.0284423402457095,-0.00492169043884761,0.0495053198866765,0.0181706786491305,0.0292613985278602,0.0282003778141371,0.0323231101648631,0.0208543863164606,0.0130603975092587,-0.0287575352858837,-0.0141129670855399,0.0060216424889715,0.0101444222035459,0.019879064823153,0.0271518350483364,-0.0280695478470906,-0.0268070652857338,-0.028374598735401,-0.0468959468028074,-0.00258406325612332,0.0303259221204182,-0.0491176270958686,0.0109084569079085,0.0101269279602292,-0.0619265007244221,-0.00593186650317229,-0.00338380915013045,-0.0557916033670682,-0.087282488784673,-0.00823820929075403,-0.0519176849606257,0.0302648276402067,0.0142230666934857,-0.02103563752647,0.0223138491484321,0.0301413920522108,-0.0877224321908681,0.0136885783323943,0.0240888522304694],[-0.0244991983160091,-0.0362882271487138,-0.00340240686962479,0.0300502820200274,-0.0531648206460415,-0.0069687268483022,0.0315012042476253,0.0388178359119638,-0.0718320721080058,0.0617647856226943,0.0188524625560757,0.0169567225787182,-0.0644914402769617,-0.0154327087229708,-0.0368431168359391,0.0246053322665742,0.0398063418869637,0.0112282686183371,0.00498762066713675,-0.00168172621951595,-0.00430536897374554,-0.0431893664678145,-0.00015006219000996,0.0649645996909102,-0.063336808800772,0.0559608691057088,0.0199375441824672,0.100042851656236,0.00381431514304521,0.00396655451925671,0.0361533962695395,-0.0758306821345803,-0.0105189928648577,0.00192554927540195,-0.0842297976099619,0.0065493800518744,0.0371315991414708,-0.0420161726073126,-0.13027857307058,0.00496546003525349,0.0141792739004502,-0.0248037353536034,-0.0277471009069261,0.0214752159265216,-0.0741666833341745,-0.035184494597573,0.0304917527024463,0.00689858256188842,-0.0316108123165023,0.00574006050326081,-0.0424433564650535,-0.0070376648395666,0.0937743651398354,0.00398893970995336,-0.0244339080696587,0.0169686218361567,0.0126887482448392,-0.0413868107388695,-0.0685795642264448,-0.00421969232371273,-0.0108206100810085,0.0108654313535377,0.0125360051223435,-0.050262162072849,-0.0433121861666582,0.0424342387909559,-0.0476330636764704,0.0266895210800651,0.0347265291905388,-0.0959673692325521,0.0314111079813642,0.0543766443301899,-0.0531992623227048,0.0234983670917815,0.00186023779552625,0.0457660996677745,-0.0588440227803861,0.0275417530589996,-0.00884826041800891,-0.0262237082213086,-0.000936588212408645,-0.00809131520640889,-0.00496847892865437,0.0555904895164644,-0.0288094851176535,0.0167018476374314,-0.0228706411837823,-0.0192700805751797,-0.00953598234925775,0.0298887616387024,0.034552000842803,0.0117805375193379,-0.018257705642277,0.0620684232386952,0.0426180689160251,-0.00587364427733297,-0.0662714732491445,-0.0378983459231329,0.0402609515795013,0.0615244892122826],[-0.0204223814130713,-0.0836084572967424,0.0521310533188257,0.0185395825387124,0.117793242898701,0.00441602516744135,-0.0926600236242761,0.0350045686993835,0.062623417182419,-0.00518659023037941,-0.0389178189165497,0.0338673536610647,-0.00500080864427212,0.00851135521873371,0.00163744533324125,-0.0248164961875648,-0.0336466182455668,0.0783475459871137,-0.0582497285821981,-0.0490182308471968,0.00485162911303265,0.0880051349582205,0.0471900581643533,0.0127909409892768,-0.0184182989022424,0.0367399908980156,0.0475845397291577,-0.0179640031453734,0.0844892536552962,-0.0674685895149624,-0.000280178816241732,-0.0157234620226755,-0.0591730527875013,0.0272238070366084,-0.0411004232297047,-0.0193524906472823,0.00771164970276217,-0.0437751052571489,-0.0570988277352616,-0.0430338930934176,-0.0261405370841638,-0.024732306425947,0.0077846288752094,-0.00204200772280314,0.0281499516149603,-0.0178162173393619,-0.0446926826836948,0.0436953776224884,0.0821819623686299,-0.0606025665770966,0.0372643448289441,0.0314288286666178,-0.105121614134963,-0.0198346860800612,-0.0144571006110683,-0.00817157975970952,-0.0281209861618545,-0.0120062919271114,-0.00241330092088727,0.0100118368772539,-0.0115112975596374,0.0269611680097712,-0.0222811691409839,-0.0219519400049377,0.00767091695492922,0.0146088535889758,-0.0226329554964604,-0.0290403552622263,0.0264666583038837,0.0656405169381946,0.0496357300085557,0.00703376763784932,0.00702547973350049,-0.0491019471574976,0.0149882972276891,0.0322495685416916,-0.0854411021256456,-0.0212040834990382,0.027219375915123,0.058444011151254,0.0130641738262937,-0.0272282864043862,0.0707376100424019,-0.0035781130714033,0.0311909106164855,0.0250606128219343,0.0516213819635007,0.0130244851516023,-0.034193703918382,-0.0278599106364656,0.0192588167776118,-0.0395950837656489,-0.00993965343249448,0.074258205805873,-0.080807950678999,0.013952897542311,