let neuralNetwork = [{"biases":[-0.189490201380234,0.614232569864525,-1.31791208470172,0.42738599200154,1.42218280218785,-0.187135023588622,-0.0407258955646543,-0.279627663367727,-0.769206693913245,-1.49731265451022,0.797503374103199,-0.360802037002092,0.734729608386641,-2.22771131806399,0.90280433944621,-1.31398973543138,-0.286303495352071,1.13801502844983,-0.779306530585091,0.401440905973475,-0.365927017699173,-2.63609361628166,-0.0614692068768979,-1.06797954169636,-0.472771038821247,-0.899770252256659,0.325154187946476,-0.121339488879033,0.13427697903507,0.539305728166641,-2.034474965346,0.504919692321768,-1.33537050101928,0.639450411631251,-0.693946734141557,-0.00803636729069813,-0.654061294310977,0.503814637222368,0.158339231804873,0.434957664078471,-0.227784604372896,-0.713124392670169,1.07599083047498,-2.3413810030081,-0.844239395702319,-2.35947053803241,-0.575089250046802,-0.934525547894276,0.613428546518502,0.724749550275629,0.0394585423593346,0.950324728912871,-0.870019951127244,-1.68513113242156,0.515588986240691,-0.468025173631841,0.130102953410679,1.13822971038218,-0.235805811255536,-1.05872155045093,-0.279199062445654,-0.369087451531594,-1.10147181853389,-0.236795382015497,-0.990004350183041,-3.5067779398778,-0.326534724412032,1.28620190379065,0.974116711024776,1.02524571781145,0.0281323458334294,-1.92148957378667,0.802481233357696,0.423561397703674,-0.376127628371956,0.652757330367876,-0.440600752338702,0.168781336730274,-0.0525322948833095,0.509344211363846,-0.987885684046016,2.37461493010934,1.00113604781132,0.407855926105785,-0.0719698421536095,0.947477800948244,0.69793319810843,0.15747197690947,-0.953022898324845,-0.0737087519399714,-0.442004164127375,0.901693412801165,0.932950103617374,1.2423306137924,1.7579886019232,-0.114669598438792,-0.829026700525965,0.0386167495973785,1.4893691497225,1.05251521606061],"weights":[[-0.0534131521678192,-0.0252798621125199,-0.0602249119688157,-0.0366582419144686,-0.0302514486882383,0.0247077162204531,-0.00700156461857005,0.0447277337580198,0.00156641631840203,-0.0546853209961967,0.0364965905858665,0.0276142357435527,-0.0112505939224517,0.0213629129666999,0.0301549123813522,0.00248148882220575,-0.030461760779163,0.0224516382661317,-0.0398019747630025,-0.0220488568348151,0.00346287230931032,0.0351467708831242,0.00521223282963021,-0.0606892025218675,0.0364844523541139,0.0145601236634817,-0.00264437651969812,0.00724839235521124,-0.0213399326257254,-0.0362718653455584,-0.00155767025428302,-0.0266094579594885,-0.00285271913672445,0.00857912280887356,0.00718300434204666,0.0350433470895636,0.0268960484031306,-0.00507387518084301,-0.0260191397669421,0.0145760932100349,0.0433697173444549,0.0313317088739236,-0.0354808556935704,-0.0243900217845429,-0.147609457546763,-0.0220134429748596,-0.0136062951689727,0.0161203639974541,-0.0647934176532821,0.01614834603559,-0.0124506388583096,0.016396692942033,0.0098437592367858,0.0326151874249306,0.0251847790434172,0.00360086139056247,0.00764511362019418,0.0602291831796434,0.0116522543025222,-0.029436264095402,-0.0499564742343805,-0.0298951394690969,0.02002458805758,-0.0266203365840674,-0.0215060239624805,-0.0150970516630102,-0.034676349641272,-0.0839970721201035,-0.0151569276842738,-0.0368399775694965,-0.0758546007082715,-0.0234366562007293,-0.0494260478886123,0.047149104405923,-0.00315545140915132,-0.063023855945732,-0.0109743864493412,-0.0157301554881139,-0.0571128092918752,-0.0658662023085889,0.0312857202938216,-0.00623610313467733,0.0228282043525869,0.0146703707833112,0.0303814170268856,-0.0118439892954862,-0.0198461324648736,-0.000247658253399743,0.0124139978115378,-0.04095244270394,0.0035556404697861,-0.0110174342134053,0.0321617217122668,-0.0241004057997273,0.0438265359348425,-0.0169099927611907,-0.116863287169037,-0.232689268542091,-0.119232805424291,-0.049088972689637,-0.016782234270072,-0.0589502723722041,-0.0116867817923052,-0.0470651516711917,-0.0193219993705166,0.00892809485305305,-0.0134029469518321,-0.0424512352236859,0.0252583468622791,-0.00321655366681073,0.035085925613115,-0.0506338310148314,0.0155667543337746,0.102193332389324,0.00523037746042406,0.00776331405190521,0.027393853443651,-0.0268509681417267,0.00457266365364736,0.0536667029835016,-0.00699258044635695,-0.107888073429495,-0.0366988067889753,0.00545836818468598,-0.0426325568366482,-0.173250572243546,-0.0409153525915549,-0.0182506785339749,-0.0654354034547647,-0.0530519492258314,0.0623226617712087,0.0144564005069083,-0.0114271990753521,0.133417562469815,0.0744317159771423,0.005043488208267,0.0615518555694163,-0.00184772977026752,0.0282300201314204,-0.015389032197205,0.0106160070825098,0.00146581037831633,-0.00082375772712109,0.0602963681873915,0.0450515635619873,0.0254714077713763,-0.0418646810018068,0.0869980316658223,0.078071745665944,0.0355729599482369,0.019358124498931,0.115534259812558,0.251986902638284,0.0959674766249332,0.0880248174404316,-0.0424667584855832,0.0133452074070005,-0.0545231726995248,0.0441595511508396,-0.102884385683212,0.0389043569207202,0.0905343919425195,0.0205904556861527,0.106177894113391,0.070521727733123,0.0690240269932621,-0.0102847761430445,0.0158843031331952,0.038013921607096,-0.0268536085703559,0.0533577695139354,0.0236030525442756,-0.0206632330066365,-0.0189045914226971,-0.0560063899342299,-0.00547212053009958,0.0146666687690337,0.239207032587854,0.199071407953877,0.130006766552705,0.190869527415472,0.128045111885299,0.122321963951702,0.105280950242944,0.142281904995153,0.107315982721258,-0.00993587692949561,0.0241248324918953,-0.0260040621829291,0.0276443249266394,0.0687437897240803,0.166370752015122,0.0556080480323812,0.00481132477906612,0.0195539027040366,0.0112425776894848,-0.0268542039685103,0.00665785445673279,0.0156801467911456,0.0308663534922962,0.0429589695803052,0.0225609915905239,0.101966328675573,-0.0242958520679104,0.145007693689129,0.223331036595592,0.159782942384577,0.0870411774080743,0.0104673933037114,0.103009921277285,0.103820294250562,-0.00194779649282849,-0.0437838864117809,0.0197200076374392,-0.0444834280913514,-0.00856748213208812,-0.0643045427247723,0.0549918531897166,0.0324314774097424,0.142686405284329,0.126283283681175,0.0695871570440381,0.00930392839652215,0.0373773599804154,-0.0291194567874106,0.0348168656436879,0.0296370251965343,0.0767287089624764,0.0591666334567452,0.117333337988776,0.0909196941191165,0.0881089847817721,0.151087203199882,0.0848658969283332,0.00926905241661244,0.0555258138226785,-0.0728009167878141,0.0240650630464324,0.0669344416862894,0.155003867202972,0.0770107893887619,0.0268374483878027,0.174772211089513,0.0911732725702821,-0.0292688237605309,-0.0737738535202084,0.100449011999524,0.00912206430522935,0.119413385877791,0.0756543615994484,0.0217694737878979,-0.0327259807502438,-0.0484304963242009,-0.00976277784178171,-0.0574853053399233,0.0936761473019662,-0.0241866061317045,0.152485815709467,0.176221953638607,0.0897151356151891,0.185019521177006,0.134816857140266,-0.0683126773019896,-0.0739550114224933,-0.0648954086838837,-0.066176725950694,0.0626730291659711,-0.066585143428909,-0.0664959582045632,0.0535965310942786,0.0962488032032893,0.106518708749251,-0.0797980251509879,-0.0772527570709914,0.0758745544346872,0.0183191169172744,-0.09763694731242,7.86057014052584e-05,-0.0720536637581463,-0.0227022765625413,-0.0424182035897844,0.0130214553817007,-0.0145930725794156,-0.0416060355046614,0.0258289182421591,0.103910593572481,0.192852911220136,0.165584603932493,0.147398877466934,0.0736272411105884,0.0216266817436345,-0.0632479503485548,-0.108544612747409,-0.195195907298006,-0.179977427651025,-0.0219208343795291,0.00365121871807532,0.0181959013435188,-0.0136801346736173,0.137564976284201,-0.0218412067391047,-0.0886196886409727,0.0131008738994709,-0.0886979793197485,-0.112121042418642,0.00107401750632196,-0.00337043556079722,-0.0342237793137419,0.0104267739093897,-0.00684847561326016,-0.00142311105214966,0.0835793745207404,0.109280157538663,0.211320786300194,0.182803072276378,-0.0500404898344266,-0.0132614321630984,0.0546725962351109,0.0448704687049623,0.107980465372683,0.145832302891531,0.0240225877666744,-0.168945849106998,0.0155906128745502,0.0126374317383984,-0.0297179302313844,-0.105246503254206,-0.00075906250871764,-0.124884214919453,-0.118196095682281,-0.143652966157053,-0.148126651329497,-0.190379152163016,-0.061976729048721,0.00178160850074903,-0.0380788449594276,-0.0487038202653158,-0.0163253150974941,-0.0213206773255169,0.0135643174243729,0.0402242064596345,0.0656169483318875,0.0519969044089006,0.00471378351403658,0.0302254310851021,0.0441815348684662,0.101646677133323,0.0432962622006568,0.264312310635522,0.162261805443147,-0.186107845164435,0.0102829089655983,-0.117463372341232,-0.128361084545279,0.0701372359767034,-0.0792684140287833,-0.112134960824989,-0.139427221735469,-0.162978079532903,-0.238176903361108,-0.179650176923406,0.0505303703487565,0.0076058889721268,-0.00329250483643785,-0.0793186681606075,-0.0108971587142249,0.0116697688471715,-0.0335612756907154,0.000412427400772,-0.0651010118801693,0.027135236255896,0.113562958610067,-0.00311066916657404,0.0511130011535811,0.0692562273916711,0.231478620833166,0.235944032248,0.202130551130052,0.0621650157383638,0.0990830159550093,0.0673070956315302,0.00202707588866223,0.100239285777251,-0.156251600850689,0.0297839610817187,-0.0774594137342403,-0.149121311064179,-0.128628647323204,-0.00726269163524926,0.0321831664991056,-0.0176950245848002,-0.0157104807690936,0.0196151632662127,0.0390065544238061,-0.0108376107566993,0.00918197305897151,-0.0717388830541162,-0.123236782009857,0.0659983734711159,0.058673221437775,0.0711919943639023,-0.031185787332183,0.0624032123793197,0.0777793764398249,0.137939810120024,-0.0861080098938778,0.00704011535693504,0.063031332393553,0.0300195624025598,0.0342403071611907,-0.0875452957737893,0.0282633762081911,-0.0714571592750892,-0.0559567635352534,-0.153335892241666,0.00392037155306064,-0.0732204043760918,0.0606938307858216,0.0033079467780035,0.0551121962120705,-0.0488541346810702,-0.0643791567430903,-0.0160016709368338,0.00190785153994571,-0.0791264291248614,-0.067584411222091,0.0442344297988753,-0.0764149928398594,-0.14948522237897,-0.0296400374075045,0.0361087026847215,-0.0228642680270884,-0.00422165561822628,0.0233500754325708,0.035902611097212,0.320267456647364,0.184243441724549,0.289390799034108,-0.0543013973467763,0.0623194989182544,0.0926259570559013,0.107629067056748,-0.0437827145499398,-0.109145682057705,-0.0732340737350307,-0.0103159887143147,0.00118450877569822,0.000689734825754015,0.00194540349976091,0.00951205006791212,-0.0307887103001137,0.0216753334282149,-0.0632403273591858,-0.0272892982414191,0.0485018489887255,-0.154114179975301,-0.173125023668463,-0.171473933799207,-0.121548334217927,0.0025521457144177,0.00657209829969947,0.172924674181816,0.0504984715600513,0.150739469369219,0.214826389759398,0.255558836709834,0.127476318494768,0.258298133291806,0.272486053251894,0.302432787765982,0.0781902808809757,-2.88636077866147e-05,-0.0688950756520856,-0.0234933974433547,0.0142347376904579,-0.0145143834585108,0.0250563128750636,0.0397016588970286,-0.0345915639462447,0.0165208954230568,-0.0247763608503637,-0.0282277260016718,-0.0897156127077522,-0.0566362438061632,-0.157906883254108,-0.194156249184704,-0.214334698134445,-0.12728631258896,-0.0966012747480557,0.0382898960134461,-0.0409609724835474,0.0366803026579212,0.18292346857397,0.0816665221867384,0.235186400551163,0.117629297375375,0.0845819089316957,0.243329077583482,0.0889440472440654,-0.0141943764494516,0.0301648707497752,0.00695884302109346,0.049048893041151,-0.0586043891245514,0.054098802355946,0.0309259546120744,0.0758340408129827,0.0167560830504115,0.0719353857136331,0.0377872221872391,0.0641084842219543,-0.0525978202122997,-0.181585969970566,-0.273629206220545,-0.226414171412032,-0.284821936766082,-0.0203711554645127,-0.0775841664910839,-0.00457459723351366,-0.146567400084035,0.0938787009402306,0.205469534755871,0.0670322316477051,0.196007033091448,0.179617720234913,0.101057041895282,0.00139316890347726,-0.0264459105044297,0.00351572101095258,0.0560081951805897,-0.0214821063232984,0.00175550591758017,0.00665215782606743,0.0312479329796904,0.012162582209526,0.0460181965753839,0.0575095703395116,0.0782560531092154,0.0230312151243311,-0.0709904238458488,-0.137874918171167,-0.1981298527661,-0.17860875829932,-0.129815075388667,-0.0310752612048005,-0.176173273698828,-0.0330707699694144,-0.111730313883505,-0.0484530494480136,0.120300951293736,-0.00207547747196234,0.119909661956567,0.0281780091427089,-0.0455386139298524,0.0407593391093583,-0.013198467819625,0.0216914486737858,0.041349174865888,-0.0638337399583931,-0.00248784928288432,0.0149329344663068,0.0234816844709638,0.00227922735999603,4.91283258466514e-05,-0.0131292806214964,-0.0161982826471523,-0.00796356208000346,-0.0730548943492235,-0.0536020077723333,-0.0137787586236269,-0.105014993329977,-0.130172947038531,-0.192714701200456,-0.121031980524465,-0.215467770148639,-0.194441569821265,-0.209507133195029,-0.140214356375543,-0.0875134486980843,-0.0194731041162454,0.00200178380399309,0.0686118461275642,0.0694636432818089,0.0530769529567556,0.00986351336824349,0.0357849170898235,-0.0384750171319233,0.0268709840498296,-0.0254264348222917,-0.0174295312349033,0.039284247762558,0.00586717173332963,-0.0959322790014075,-0.106908077481988,-0.147966540423574,-0.138318863034661,0.0552270659394429,0.0125461544623404,-0.14608920744485,-0.181766667434704,-0.0230989325669321,-0.142015093488387,-0.221012678909112,-0.331604675769901,-0.339485189322709,-0.185805886170532,-0.0896966899814836,0.0303621277571058,0.0885053346418333,0.0227166139723536,0.0518808007191031,0.0858243822419022,-0.0549869018959693,-0.0264368982779776,-0.000513595235917259,0.028698483885685,0.0159354235650206,-0.0603999654787782,0.0282676989130104,-0.0372189320497371,-0.0441473656583216,-0.0822199589391299,-0.124126070504219,0.0952124238688771,0.0860393176107385,-0.04432672959819,0.0387924588298046,-0.116617072115075,-0.0748779801833118,-0.153878929938696,-0.138814103875407,-0.153633800282003,-0.264597348225179,-0.186307680480226,-0.0596973034790358,0.00760307248731605,0.134237483109409,0.032676173246367,0.0445602117320049,0.0983342786718773,0.0573034373472441,-0.0336220814866283,-0.00861207856991523,-0.00204884220045934,0.0205694139241422,0.0743875163613996,-0.00301071350973592,-0.0266027450884816,0.00656790771610614,0.0466873830647811,-0.00888751170667625,0.0827694623597463,0.0868767193293559,-0.0411447818192032,0.0804629433392667,0.09201591195017,-0.0279568766650818,-0.00631160969302807,0.0190210054979821,-0.0282642823372002,0.00639123900049936,-0.064595429093451,0.0436130689204158,0.146786146292273,0.236603321207753,0.10577289642785,0.0772441669337489,0.122600586954913,-0.00883661374530528,-0.00854986110365627,-9.82980992586493e-05,-0.0677441216342122,0.0347685257042782,-0.0131705154495419,0.0661741238442292,0.0326747235488294,0.0386744000016733,0.0722358226274304,0.0868687575208098,0.055773170001419,-0.0160091597381177,-0.161300482368618,-0.0194583178113876,-0.00649656367063528,-0.0514771938364977,-0.0429512355841676,0.0103403865250906,0.130033749395877,0.176654846738125,0.0596570675387628,0.0408221035796995,0.0959608157866894,0.0812003631368306,0.0967710770114614,0.0674574576636909,-0.0384486861158796,0.0812715932508456,0.0670375471165825,-0.0227631433100235,-0.0307754092112783,-0.0165847781384885,-0.0240207871382029,0.0135150101241003,0.0786804014623442,0.0508672637993533,0.0451335384763491,0.0545212187480017,0.0756555949152262,0.0618136570896936,0.00950126477801789,0.124514249343463,0.0489937509049796,0.0983540220927928,0.0260798818329861,0.128681807712906,0.266196023689075,0.158722591420531,0.0539022411298639,0.0562360468905541,0.0125493538925897,0.0794353823234574,0.000464454663078252,0.0154619829326474,0.0595559315554751,-0.0163430861055233,-0.00817147788082313,-0.0672490085516884,0.0359323050500409,-0.000214904889221873,-0.0399962507281738,0.0703092969366088,0.0432617438011583,0.0188776934317288,-0.0282409985408641,0.0298933082031273,0.0527544532680011,0.0212853965997131,0.0458912045058807,0.0287282797218592,-0.00661805599256725,0.0334473950441549,-0.0220904163534487,0.0321789258636305,0.0400929539066014,0.0858455241684284,-0.0322448195335781,-0.00131846473892156,0.0372612142049705,0.0433823626038989,0.000109190883201063,-0.0459389321455087,-0.0161424354364641,0.0186381962651151,0.0276489338487395,-0.0396817209746725,-0.0145527311694191,0.0175896338167357,-0.0120662689477199,-0.0469391989281315,-0.0343723261338266,0.0170619963183134,-0.00791129150422228,0.00058057560175417,-0.0119656704854528,0.00251384015111894,-0.00166298939846055,-0.0235098707975263,-0.0193238502379079,0.00409283103767052,-0.00856100368006008,-0.0078112211645176,0.0269768197697217,-0.0220124611664417,-0.0226858344612599,-0.0745464152672648,-0.0125543222759144,0.0102719035058285,-0.0139189124874334,-0.0382546291929328,-0.0335947431827399,0.00252046432526526,-0.0309449517421389,0.0517901274422323,0.019513133751172],[-0.000846064432050926,-0.0126029085249724,-0.0304230626145374,-0.0213746181462279,-0.00274458618272956,0.0427440864101158,-0.0335316686879835,0.0226274934881858,-0.036820008714482,0.0265424029492785,-0.0107070228741077,0.0458306192966127,0.0279227001835279,-0.000196257753090962,0.0306395330421934,0.0572313171476281,0.0481038031742304,0.0956170776342223,0.0219207852519313,-0.0255364165413838,-0.0236252741837046,-0.0530878409911333,0.0370025450960174,0.0286762324309675,0.0453906853156384,-0.0719953562012508,0.0260846137480526,0.00379674996365292,-0.00184885051831936,0.0559522087755829,0.00951356831471774,-0.0230062081619622,0.0291855056240833,0.0421748664065044,0.0500121822693997,0.00368471163194173,-0.0243827263468768,0.0367217999372094,-0.0428319782506016,0.0291678741586955,0.00680285351003399,0.0150028270774144,-0.0551991089939942,-0.00335929933052853,0.00759432143831145,-0.0299061372237776,0.0255438331154476,0.00107389636741386,0.0977542091140578,-0.0207600501844306,0.0192147223848731,-0.0144599353227185,-0.0112129567972451,-0.0633537044489862,0.00411742953366204,0.0235820248285571,-0.00875421695742935,0.0175718437696688,-0.0189568371295677,0.0230739579840732,-0.0662284930648615,-0.00297402302350935,-0.0272853067359849,0.0390218954654481,0.0548661656719382,0.0230306882058797,0.0195571101081142,-0.0452863723115581,0.0366189547558461,0.0952339816363115,0.0762928316750851,0.0379197468676589,0.0518702939751901,0.0334521505367678,0.0258527877804273,0.00678400334683847,0.00720022776799407,0.0458805292145793,0.00856413893002243,-0.0352737618966954,0.0320403695195276,0.0189557666142588,-0.0448841073846201,0.0274545689081395,-0.021348162501356,-0.00121167538189926,-0.00952279157351988,-0.0221897859599731,0.00133678474896411,-0.0265757495866888,-0.0195385261140868,0.112538156491966,0.0655313028513,0.0147738175119411,0.0521839373554794,-0.0248556421058704,0.0438036115105758,0.0454872007195163,0.0672858073551384,0.0881280275293396,0.141485343712027,0.0430675687591213,0.0771452569012124,-0.0288763062869911,0.0220894741915135,-0.00809394857794982,-0.0146120289068816,0.0606436994637167,-0.0019656714960528,-0.0788573504453007,-0.0357088819889823,0.0733444289308161,-0.0207412476615222,0.026154422225733,0.024957210833548,0.0371009352476521,-0.00159211633820308,0.0286826835438727,-0.0112030544366632,0.0685381278890729,0.0279637158680012,0.106345779302247,0.125381714809763,0.0673108681234315,-0.063558403365877,-0.0976970276117068,0.0237859609909673,0.0617776067982912,0.0949623588919468,0.148119253077148,0.0166624553529008,0.0624761263408306,-0.0138813401440534,0.0143734734011084,0.0497119427886865,-0.021546625345689,0.058672676950374,-0.00581667752990251,-0.00348391142263575,0.0166327835975418,0.0765207012726572,-0.0441302023422149,-0.022730179613762,0.00407368346961757,0.0272702421701207,-0.0109522158286597,-0.0468322180498219,0.107269657983041,0.061048127003384,0.09995616245339,-0.0168078999449636,-0.090212606595739,-0.00750956649300713,-0.0235684484259989,0.143924536571595,0.00934002548354307,0.0858188424103887,0.0319622802383992,0.00308784467042732,0.0554062792790294,0.056683683560909,0.0879752254834787,0.0764061143172648,-0.0197558861357885,0.0415137304716642,0.0216001423132448,-0.0370331543779764,0.00551445993135215,0.000951272297940838,-0.0304942589613715,0.00361637842858644,0.00928515346171177,-0.0502570083582156,0.0399854827117514,0.0229721104963975,0.0241569417068289,-0.00427153817777033,-0.0706176549874217,0.0752314790269125,0.0591981803386672,-0.00245983800881054,-0.00140330627228016,0.0324682236471446,0.0733642561765121,0.0483362452360042,0.0456611189985638,0.115329699924585,0.1155882168992,0.0462917809813117,0.0677380076937404,0.0771315867367672,0.131333524998029,0.101108431999944,0.0430236354285787,-0.0143076019513421,0.028905973630344,0.0175294393533598,-0.0296201930189135,0.000326184859937047,-0.0796383171581362,-0.0646326367726931,-0.0109264632446758,-0.0257136458780452,0.0256895391789775,-0.0366470254395196,-0.0493458209159936,0.105360650967073,0.00471872974612274,-0.0624204816027437,0.0543599910821513,0.0989442346558563,0.0866041025808994,0.0019019915485299,0.035354931433949,0.045968638864998,0.0480178572289657,0.0182767632275565,0.0939272274700997,0.195107502619147,0.124215896449971,-0.0189020718530948,0.0485253412803291,-0.0021407905380332,-0.0485557641507712,-0.0411183320541366,0.0200025597040031,0.00597005713580194,-0.0861930224966643,0.0111535115136046,0.0206416553616429,-0.0256627103810584,-0.062184522670623,-0.0305082627767913,-0.0621982909496512,-0.0793235617616042,-0.057332187297796,0.113476045075592,0.0891762580691538,0.0752076213089486,-0.0463302762563535,0.00327276464592567,-0.0697210100432432,-0.0305636912789542,0.133408717995268,0.231305155484147,0.232005994825942,0.238927904548925,0.179397778730353,0.0232683776927243,0.0486867707420863,0.0147270264520494,-0.0188293910303586,0.0557978687662582,0.0542890594185675,-0.0628369023674731,-0.0210564339639661,-0.0575978525187855,0.00771099583361375,0.0156111594327925,0.0416998810133323,-0.0453809506360668,0.0364941668544201,-0.118226287083229,-0.0460979123493974,-0.00701186261539881,0.0830306263699666,0.00902701229527552,-0.047844346632089,-0.0451876069863778,-0.123610829310936,-0.0961187392724699,-0.0129069145881309,0.150248911757918,0.15338050604709,0.0762286234690651,0.0909452755568394,0.158272155920647,0.0603286848699964,0.0634484876708368,0.0275417181544744,-0.00189141026598094,0.00638380348593631,-0.000103776319030486,-0.00413734016936637,-0.0252488080771771,-0.0495540913621199,-0.0185662191365872,-0.0611487910260591,-0.106682150545102,-0.11100318875608,0.00755883927077706,-0.0900962966259877,-0.0462662841104877,-0.115219056405572,0.0695794686476871,0.0132697098171167,-0.0328887071716515,-0.102699973256545,-0.146405539201732,-0.104981211360731,0.177268874962461,0.242809307715516,0.119664568857635,0.111416075967638,0.0949295169831758,0.117116026814433,0.00474432267318234,-0.0382719883142956,0.0387959832534346,0.0383817086586246,0.0538344742531216,-0.0391470566563924,0.0573088432730491,-0.0779502305462333,-0.0866385370530325,-0.0847698806083531,-0.210984133381379,-0.042491750970115,0.0891124640064048,-0.12515382436206,0.0140333011974245,0.02239449485597,0.200566036026991,-0.0730519825563281,-0.258855216793245,-0.359210177767936,-0.264717408203667,-0.192450539509102,-0.0284931976890124,0.0921445423539892,0.162441660184165,0.157089562208684,0.0913555953697555,-0.00619409988498835,-0.0626573348539612,0.0389631510465911,-0.0153580867255361,0.0300542714618243,0.0130957792507402,0.00195943900890035,-0.0388690866477189,-0.00386923849751756,0.029114336357799,0.0482885751148824,-0.080191555951841,-0.115674747803186,-0.0587686522284468,-0.0827957742859902,0.0215725049732018,0.131765318517038,0.138571024923769,-0.160116262558249,-0.25832453824607,-0.252007272734033,-0.173196970168062,-0.0899170165279199,-0.0225273750425433,0.119283596366044,-0.00645702067063045,0.0542178959433699,0.0629998267129782,0.0562403299257695,0.0430873607363073,-0.000484224161667915,-0.0081654808012393,-0.00739978091798891,-0.0328007036683694,-0.0232878631082626,-0.102439462103363,-0.0750824807303554,0.0309581242913313,0.0186113104766853,0.0677236891445721,0.0831708674534306,-0.0110961604189013,-0.0113068452519375,0.0160272876320899,0.201097782957583,0.24206815233346,0.0547620803497691,-0.167157469816106,-0.20532695601878,-0.0964097538362966,0.014802579737199,0.0154490714069032,-0.00687979014267032,0.0346014172772093,0.097685949158647,0.0622982995734885,-0.0834785138910709,-0.0338339917507139,-0.0202467134785667,0.0148405981306182,-0.0100771403845059,-0.010487306408367,-0.0300808357922623,-0.140373232171557,0.0188173532719835,0.0364736390421761,-0.0406827820855072,0.0112846801199923,0.127140952205406,0.067202635554572,-0.0256025707576433,0.138143134384987,0.180938434664982,0.227069238853826,0.0384536701063441,-0.226541995797829,-0.186412063269915,-0.160089381194337,-0.116564217667976,-0.0610060870314267,0.0321574428797334,0.0394765077623683,0.0602470902370695,0.110020599913376,0.0163124193163133,0.00229159636771849,-0.044180009508196,0.0534751438187879,0.0408760193366699,0.0462619307303449,-0.0894520437590522,0.000485333212816037,0.00814751775036885,0.0304422109985837,0.0769804457165637,-0.0432365630475722,-0.0142637947871368,-0.0448281424198504,-0.158141224461908,0.02021362876085,0.0908942857862017,0.29308853969258,0.0727018895519076,-0.121882171453052,-0.238243891718354,-0.0627636737739846,-0.0302225402559138,0.0888183501188289,0.0348463648741092,0.043787412274799,0.0333557986981521,0.0654557994584517,0.0652445325929108,0.0429958096363833,-0.0267325274995862,-0.00389006161191354,0.00584574722849209,0.0749501891184186,-0.0136743791592979,-0.0807378462199267,-0.020126580525552,0.0524498089317409,-0.0552904769827047,-0.0987375566531776,0.0333188265934987,-0.121639073165254,-0.19948385058801,0.0348278896856374,0.334952517053029,0.173244770981695,-0.105917130431741,-0.197566765492931,-0.166553897076948,0.048774558426808,0.111223070260647,0.0551873861417969,0.0770475268412221,0.0429219084288315,0.125563325500718,0.0488969549486608,0.0448693768160466,0.00559633361259467,-0.042823546736654,-0.0348571280256758,-0.0483806192308789,0.0038025916929932,0.064166079702207,-0.0196947359666647,0.0406662352722528,-0.0072335400512261,-0.00158079050625709,0.0322365564179296,0.0150125372966549,-0.107990413572434,0.0297050505142467,0.142475320536018,0.295028121967533,0.134642396933881,-0.131510314587844,-0.147992651596529,-0.0661265819511394,0.018200679930007,0.198192379591595,0.12521686453818,0.100126224876139,0.0425892369031412,0.101210958579634,0.0675473400676938,-0.0606267004662485,0.039787514168653,-0.00231297180260012,0.0249815707508829,-0.0237338385599708,-0.0115752800611377,-0.010816618031696,0.0782943316548665,0.0254753443214238,-0.0585460446641251,0.0715347701925867,0.0903587939000825,0.0401192325493204,-0.132616629627749,0.0432195359523413,0.297447932773019,0.157524352766888,-0.117294798269321,-0.0577762563734218,0.0532017077206829,0.119468235519806,0.110759900586147,0.148406493025978,0.0280173072775039,0.0705553245174995,0.0711731406007274,0.0632834815506064,0.113585922808808,-0.0166298732767875,0.00663189211168279,0.0292591583607169,-0.0113104984419379,0.0531645486583176,-0.0555533955613064,0.0549799254588517,0.0815283809925419,0.0556117044788791,0.121673375596009,0.06950841858842,0.0617065224147499,0.124640431380681,0.0571823545624123,0.131098122997693,0.111972580903526,0.0973056371864771,0.0101696592096798,0.110485777686311,0.136134700285663,0.0862578580721254,0.055510867803663,-0.0824031372294586,-0.0106625734904599,0.0360403296407137,-0.00669312131714703,0.0483417498918307,0.0988166174619675,0.0317061816849784,-0.0223343443994046,-0.044993022610301,0.00941501897504442,-0.0146880826686174,0.0192534709425021,0.0812860295064863,0.0358069529839424,0.0096545390348848,0.105034613485552,0.117523008948509,0.18321597679291,0.115179902366912,0.0702134670499914,0.0417504969178275,-0.0498808807052846,-0.0261169813119344,-0.0553928498262008,0.225443196293829,0.128342290317235,0.0545182308577244,0.0405404515236182,-0.0255872064579867,-0.0537156222962867,0.0530930122683096,-0.016655869203044,-0.0171733691824038,-0.0318624613041519,-0.0213921938572186,0.0576108323190641,-0.00879979671082372,0.0408674860680181,-0.0296043453305299,0.0351325929240437,-0.0153854878524943,0.0326679181262936,0.0679818910950692,0.0996123324448513,0.181360599986209,0.0788018911211644,0.0543632102913067,0.0356843924844674,-0.122469785474058,-0.0920677511537384,-0.0682977305431121,0.0613424442008591,0.186987539349706,0.0247961426440995,-0.0413271169874744,0.0639299460940262,0.0505319542885219,0.0220772758774358,0.0211612547425807,0.0715410132746027,0.035803912783076,-0.0776480545289571,0.0690149094288306,0.00129440032422284,0.0131030698413979,-0.0648404738340312,-0.0291262450963751,0.0300180440302145,0.00352322453327029,0.0398069637048089,0.0176966522861427,0.0715487342612557,0.111218315645227,0.0381698870549268,0.054574783267543,-0.0639177871545858,-0.0933982169907238,0.0134245638305397,-0.0704193715025447,-0.151904969345539,-0.0879464851702376,0.0261590521522116,-0.00838896665999979,0.0263745782754664,0.137640664765675,0.0783928811944321,0.147157548631838,0.0141752331329616,0.0266398608496913,0.00151707448409137,0.0159704242480234,0.00766085432696337,-0.0550246850872651,-0.0113098879376771,-0.0121702489653259,0.0204826817069344,0.0112196710573027,0.0536209113128096,0.0497402836726292,0.0124791631928308,0.119833993951652,0.00649900383921982,0.0800394103799975,0.0196711186415755,0.0458203234518411,0.0416092824044775,-0.146593767969164,-0.0330561862346791,0.0640434134423646,0.00856895428394158,-0.00386855338288902,0.0248848921428919,0.0711522264183745,0.102215999559322,0.0474883206857483,0.0209256752062056,-0.134330713218968,0.00658865142946649,0.021375957849158,-0.00797972154727271,-0.0223205047663813,-0.0313053206843387,-0.0165111343840773,0.0459173345428716,0.00212352060921444,0.0293931959683462,0.0156685152245186,0.0840480970641065,0.163593280472314,0.0569514425924868,0.0976198125049933,0.114205806784734,0.296567383019891,0.0715805133844917,0.010049199701552,0.204731150546493,0.0410092874525874,-0.0285392828443337,-0.0567993482470525,-0.0624831503336631,-0.065833950213983,-0.0348629423036855,-0.0579715231044168,-0.131438399467819,-0.0293407511909242,0.0305456098552348,-0.0145816886786926,-0.0108686983770708,0.000112321860463345,-0.0419346276109472,-0.00892105058326802,0.00370909842707971,0.0254456092827967,-0.0148111527334876,0.00376392604160102,0.0388110170235439,0.047087923905189,0.0593284556208125,0.130532008020943,0.2385986361303,0.114118923135732,0.115594212636948,-0.0455676228869486,-0.121535547768516,0.120809385100239,-0.0557673826549585,-0.0707700236149016,-0.0418069251188461,-0.000744197980641281,-0.130468500968804,-0.0982330458444914,-0.0146787972779828,-0.0654111662428417,-0.00122379993963504,-0.0254726220415311,-0.0695721992287733,-0.0366497876902655,-0.0293681948767991,-0.0802337279627029,-0.0176673784901027,-0.0205557174186788,0.0373379278571036,0.0212394905705857,-0.0261308549419879,-0.0439934118627111,-0.0792215012081546,-0.0345514233315994,0.020667118903283,-0.0403345422763764,0.00568075421907297,-0.013703554626407,-0.0655151442336787,0.0452022870616025,-0.0206945764822862,0.0532758261978986,0.0122071496915205,0.0192612142176199,-0.000299615772695808,-0.0204418114040949,-0.011882011404975,0.010111662076671,-0.0394963514350245,0.0325950888011816,-0.0507168504617534,0.0373081022551149,-0.0493006843180277,-0.00800792951861921,-0.0279081716145055,-0.0219014758835199,0.00486277214308423,0.013206478582701,-0.0685520643010208,-0.0132085103421416,-0.0202731242060694,0.0176244801016273,0.0219260082906149,-0.00798020195521716,-0.000187868069925902,0.0364154284427667,0.0101663316842883,-0.0365562013750698,0.0167142582208786,-0.0218136797410379,-0.0261120851338422,-0.0757272446896608,0.00457698065394894,-0.0135581876562319,-0.00356864072456939,0.0160350540827133,-0.0189125847134196,0.0483548505835655,0.0314929104467811,0.0056082835827668],[0.0471376691027542,-0.000756243113367199,0.00482508232362646,-0.00861348030812984,0.0359404988495492,-0.0154462901908918,0.0066396482463857,0.0130430296773592,0.0545801833831655,-0.00374906978579543,-0.0525617209171904,-0.00383149836966627,0.0582431374103024,0.0130666105010094,-0.0348257229843064,0.0179663660513161,-0.0136719225151122,0.0277603941340804,0.0139058234337894,-0.00327481668876164,0.0368301050447686,-0.0294402817889637,0.0199403512196551,0.00342479723987641,0.0799187995175233,-0.0088882578358826,0.0571823465758143,0.023192241202741,-0.0210307848369567,-0.0752462764276807,-0.0507663723844946,-0.0153051324208152,-0.0273175233588887,-0.0159917395390851,0.027190863478493,0.005363473071655,-0.0166360345428245,0.0511391672946408,0.036374179475746,0.0188062896901247,-0.000939042115323358,0.00732935246458606,0.0249247482481841,0.0422768213107568,0.0160939610533193,0.0136842128713364,0.0260043836624031,0.0555410652105363,-0.0168031388164028,0.00243634903485932,-0.014034096215834,-0.014028155078976,0.00699178016131193,-0.0012208743522217,0.0125048105052047,0.024172772254832,0.0453261297470842,-0.00448587108159399,0.0145929915459933,-0.0549688493714852,-0.0412835139737173,-0.00851788119531691,-0.0315226852969039,-0.0117093863911401,-0.0239061753640777,-0.00875159606037156,0.0166954165233282,0.043145246293039,0.0393487004935664,0.0403032860548504,0.0285211874477399,0.0266771636005216,-0.00528604624870005,-0.00241524087597403,-0.0395469464319263,-0.0211606955370408,-0.0145505357969686,-0.0108516145155517,-0.0208017954518207,-0.0508357609350311,-0.0341809106555053,0.0487897297203309,0.0660199118974747,-0.00439737953392627,-0.0713819849507702,0.129911071051287,-0.0346072097519326,0.0158509391590516,-0.00852570372478765,0.0387615654443291,-0.0171118762845853,-0.00105660757887766,-0.0464984052823898,0.0321432659967868,0.0675091640398964,0.112029705089847,0.0698451472655591,0.136793864130738,0.05545691136967,0.00391124336690337,-0.0527656557355963,-0.0713226207925751,-0.0354121645929589,-0.0463087180180718,-0.0721460311914646,0.00192424048043305,0.109467235309809,-0.00684829598996688,-0.0527799913992913,0.0432626521858805,-0.0678872904593564,-0.0285067958891351,-0.00898488348256281,-0.00303049951523121,0.0575533940476659,-0.00581260541047225,-0.00462984992689327,0.0171631284041348,0.000231297172971414,-0.0167826700118681,0.0210952867412864,0.0304943806558567,0.114158475389008,0.0670392761468528,0.171477928421159,0.13274165161965,0.0285649062143425,0.0032297834719391,-0.0460275141751911,0.0058632111262696,-0.0259083312165477,0.0152822847770712,-0.0681142217709086,0.00755551745532777,-0.000841447482356673,0.011771693397009,-0.0740673022433646,0.035288850046789,-0.0103499193297267,0.0477889275069654,-0.0170481989624857,0.0242025223352552,-0.0602204523107447,-0.0843627877692807,0.054242634170086,-0.0336187018238818,0.0503007838571829,0.051824767838141,0.00242948285601418,0.064246234404045,0.101347379266034,0.0679224876642201,0.189982557900134,0.0906356151135228,-0.0758405112728851,-0.155168030144588,-0.120088635645703,-0.0681949743199435,-0.08879135338403,-0.0292174902918238,0.00475675876340538,-0.0485746277106744,-0.0305372751447026,0.0265211181235418,-0.0230904593533158,0.0370565619111376,0.0585913181859702,0.0499346137526758,0.0181790678764796,0.0256148184083126,-0.00944974613919713,-0.0229968797091043,0.030229917815811,-0.0069097488154195,-0.03628907552462,-0.0203513187902466,0.0904926259700968,0.046448064265503,0.0527481250626965,0.130257735796224,0.235684650142625,0.0965416095290235,-0.19984339509918,-0.419962104791853,-0.192538991691251,-0.0879891090413893,0.0521733043248565,0.0294417882270252,-0.0624224017579856,-0.0410480291917762,0.0337365028343557,-0.00321828182885641,0.0323272037007402,-0.0970501559599805,0.0207846443711136,-0.0832236188897322,0.106419523432066,-0.0314966279436914,-0.0496716676516249,-0.0390435964292046,-0.00547831080128554,0.080955370371137,-0.0243910091460404,0.0223047532100168,0.0216678886011757,0.0396156241263662,0.227715965777971,0.188145579282555,0.209378457669498,0.0167490571446822,-0.290424279269804,-0.292923770558756,-0.132758927370441,0.0879968713263017,0.075781449758968,0.0658437458733485,-0.0719646726909163,-0.107758187067829,0.060851376825377,0.0409581803747882,-0.0302295185993233,0.032508065902013,0.0276123080803256,-0.0125789610232518,-0.0110281099022447,-0.0388762140494443,-0.0153756821560971,0.0548699542225177,-0.0722930784176585,-0.00437591559487133,-0.05741060963315,0.0972493572752044,0.121737201648085,0.28195378777817,0.170973919156095,0.0715971855753763,0.247038282873878,0.0316588527010764,-0.167507995276816,-0.148928465245013,-0.0790088434962975,0.139889279172121,0.0853078510157371,-0.0676759617052865,0.0211250595168847,0.00960501644143233,0.0256456610149838,0.100945333284995,-0.00933288266296098,0.0102383232531853,0.016188505022325,-0.0115947477659857,0.0379532375517611,-0.018090186734266,0.00838742178383892,-0.0455210132236631,0.0352866004175901,-0.0943149349909765,-0.0202107185993462,0.0117893864757125,0.0197782268383472,0.102928354550082,0.0279822156515004,0.203726030644537,0.263025793923813,0.139265928298468,-0.127163275918708,-0.0869378048602494,0.0909565596693074,-0.0262219423265996,0.0866080657957155,-0.0247543255610868,0.113008267194492,0.215812876873288,0.0856108080977148,0.0737868186672796,0.0831419232624571,0.0336330700736986,-0.0188715959276215,0.00784258037605408,-0.050015726153348,0.0493492979508871,0.0107490132387145,-0.00549276436394529,0.069386977453676,-0.0478199840054647,0.0344911662717208,-0.0195520446306527,-0.0218944709663596,0.0840790248348886,0.176880891836257,0.281180747299906,0.0872331137331096,-0.0748720394883743,-0.289452216180813,0.0638175109730068,-0.00840917384643178,0.173777131276216,0.0304075164174976,-0.0479684306978029,-0.0456828996453637,0.0754631272390647,0.0674675662752523,0.0523882910073243,0.152067877264058,0.0611407826686528,-0.0381942032888455,-0.089840801683678,-0.102049880292545,-0.0288337711148674,-0.0453522537503518,0.0499439831569474,-0.00895742742594819,-0.0366338335926484,-0.0590080122889138,6.14331008789674e-05,-0.0957925874421906,-0.0278266126510718,-0.0338345913818428,0.156382245020304,-0.0573052517348921,-0.206703182344957,-0.101927510642929,0.028952424947676,0.0432863961784373,0.096339630934022,0.0984287958365996,-0.0395544523006062,-0.0368397854576878,0.0833981675103653,0.0205932031631481,-0.0451983720782166,0.0425018223046568,0.0765564923423353,-0.0242386190266752,0.0598761192092508,0.0634401817230463,0.00032216425314887,0.00305190020819446,0.00280402937864196,-0.143698150205783,-0.107126471788673,-0.161870483294827,-0.0853630127442792,-0.0404460674668531,-0.0438488538880612,-0.0192139612604735,0.0282416114305789,-0.0764318571635546,-0.174852637981858,-0.157101730305307,0.0917181586049255,0.147179589112673,0.148791297547994,0.156821519483254,-0.0306062265806491,0.000609139375719826,0.106046357190982,0.0829304951712619,0.0214259714548435,0.102623200411764,0.069176410929831,-0.0283164046386918,0.0153032622653137,0.0702089152882941,-0.0111025991510219,-0.0137030448434679,-0.0483909554383688,-0.0528938934197941,-0.0228017816718442,0.0114584265952109,0.12683287872116,0.00640674078911051,0.014985783156041,0.0314433719914396,-0.00645790380781009,-0.323899349039315,-0.293263147453013,-0.0751298528313767,-0.0705526180515394,-0.121720264189873,-0.0431282129448673,0.0047806361889012,-0.0970226254824385,-0.142827411274472,-0.0290183425426058,0.0940505902526819,0.00808542295259587,0.112370303302925,0.0470753876358268,-0.0937303938014203,-0.0311478340920676,-0.041413410123161,-0.0350375568440579,-0.0759107138034704,0.0174147255167868,-0.0651300607067361,0.040850350903174,0.103085545424143,0.0892810988676551,0.0844029819928219,0.102277033954419,0.021722393642281,-0.15717499614307,-0.20574478804967,-0.138380436926337,0.0454219453054419,0.00783879159674485,-0.0710610471714836,-0.0719856562984173,-0.136977553703363,-0.0352822042569413,-0.1174006002259,-0.129138226469369,0.0780654046861677,0.127133452274521,0.210844054530455,0.0243258580245901,0.00630002983510691,-0.0813218146522931,0.0387212912198702,-0.0720038544442903,-0.020182015451724,0.034261252961603,-0.052956814611978,-0.0379874254725554,0.0803891208073009,0.122148983174378,-0.0690711433014362,-0.0368315767328343,0.038247273253912,0.0808776437589449,-0.112173095624634,-0.054389229103735,0.02112775664577,-0.112349818459018,-0.170092558890295,-0.0425602793345254,-0.0340636676756263,-0.0578058503004688,-0.102194887112936,0.0302322934574852,0.139846502350317,0.129038824621793,0.0689299048767688,-0.0502906319476985,0.0300780395940458,-0.0108622743517354,-0.0120717033380578,0.00490065433037649,0.0737842798930707,-0.000476247750377431,-0.017697871293272,0.0370289222230293,0.0154087661147523,0.061734560103146,-0.0256928634974569,-0.0162437413706039,-0.0401519615056801,-0.0345197603687474,-0.135929520765041,0.0163739864582061,0.0235318099453226,-0.0554015350673623,-0.0820099576438084,-0.00752654309640344,-0.0756859005085584,0.0162928808413493,-0.0104049659509212,0.0554236666717248,0.0550227326206293,0.0855540417698425,-0.0190672851627705,0.000359954752584059,-0.00615813359797406,0.0285045664466454,-0.0268793558966329,-0.0138582472973485,0.0360902335153602,0.0294016404966902,0.0273843132515135,0.136523786172944,0.161872693574559,-0.00454937698252814,-0.0344340819958218,-0.0277634352648947,0.10207888705993,-0.0181175026581655,-0.139070372378945,0.051263472819424,0.161535937462521,-0.0997148352279102,0.0302785076073519,-0.143720195065653,0.050564571510841,-0.0150517185115085,0.0230503944757848,0.12025096410013,0.0886002176260498,0.0785973508148372,-0.0194786782210314,0.00806912775934253,0.0190811761200207,-0.0354511336710776,-0.0371009953231102,0.0180522397182922,0.0332647013390132,-0.00523012671911112,0.0246318830578475,0.0372305371322845,0.0550858357791914,0.0464591803234541,-0.071453818731561,-0.0519605363131835,-0.0645536256757647,-0.201856377946001,-0.0698186273755963,0.137039615107807,0.122993633417398,-0.04524642111953,-0.100108726539597,-0.0359598362231588,0.0835422435776001,-0.00152127013031928,0.017424891136036,0.0513578991455443,0.027653408577282,0.0206062313405403,-0.0466517100461021,0.0106056901726393,0.00362921811102547,-0.0539076215184028,-0.0126973735389952,-0.0571514480218626,-0.0313385589220254,0.0434396036204602,0.028092696535258,-0.00356317946868356,0.0839660188211636,-0.0311038462348116,-0.0419390225921236,-0.041757285415889,-0.0676853838198088,-0.0302802082783557,-0.00109343667189766,0.134717242826468,0.191006556413992,-0.0359162593341417,-0.157390822297669,0.0332692410009339,0.0796114916881509,-0.0697655356304781,0.0337103630474521,-0.00629572559454484,-0.0354265328526802,0.0404560791710906,-0.0122932077518446,-0.0244079559638014,0.0345395554143947,-0.029906244540203,-0.0434626787655174,-0.0413859667950452,-0.0132087733680011,0.0432481425028898,0.00319462062400994,0.0778313513052003,0.0296425365259051,1.84478479305501e-05,-0.124498257609605,-0.110095636815859,-0.0673251347601808,0.0220393469508995,0.183790769110572,0.190640536014529,0.144733716135056,0.127467561808834,0.0550988629557899,0.0532789865906768,0.0144152119610362,0.0114804165810337,-0.100583402868478,-0.0511558842916497,0.00777373978290376,-0.0593097508271663,-0.0287011816766049,-0.030324848528576,0.0173777356399399,-0.0156368753278963,0.0200274859738705,-0.0233984198469963,0.00368427093984727,-0.00779351394310186,-0.0375921319230612,0.0305904459515189,-0.122852620033477,-0.050161017489447,-0.0361734606622395,-0.20621762048317,0.0206410163648551,0.0674242605666042,0.0616853573719409,0.127810030339782,0.175654338911684,0.211948626799504,-0.0753004504458868,-0.0948536417416721,-0.0315785949915661,-0.0791304769379911,-0.0242522973329024,-0.00528893341927879,0.0114279439335771,-0.0837327474705794,-0.0625718221971724,-0.0548145996914326,0.00216838359302477,0.0303981556110761,0.0354260864402718,0.0109144664125968,0.0507107659596358,0.0264805857137985,0.00076608665814496,0.00194219044259077,-0.0401240416492593,0.000799295343744217,-0.0517146694469246,-0.0785691001806495,0.0403114379385372,0.0163724596756434,-0.0776889286511756,0.0947858261424624,0.0168481812818053,0.0667392471092778,0.0671188161157462,-0.0824690086627795,0.00105378260046182,-0.0330153648313327,-0.0706079886198158,-0.0908087489267242,-0.0724684674650704,-0.142607957860961,-0.0607639379972493,0.00362936582609417,0.00836317310566041,0.0110870835546466,-0.0232323436006373,-0.0222858150013239,-0.0230594631381269,-0.0157128544526926,-0.0125431272704299,-0.0113230366281921,-0.0447252129442698,-0.0161761638817219,-0.102773591830585,-0.0155180077693628,-0.00419172299726415,-0.119906336706039,0.00290210587975411,0.112428157027963,0.093176859767828,0.0418737806633169,0.0205444207142684,0.051228213982601,-0.0379113817697688,-0.0754688440165365,-0.168630280740352,-0.055483538397447,-0.143290439652035,-0.107281589418442,-0.113446271168475,0.0488304359931077,0.0839271783690771,-0.0206563789644491,0.0278392495489054,-0.0107494907680621,0.0202252998824829,-0.000362412904679074,-0.0140243395944746,-0.00888471581379867,-0.0574526780649418,-0.0478308824586047,-0.0275841214438688,-0.019359310925012,0.0461414235266485,-0.158963203709634,-0.0102042349259519,0.0239142062999452,0.0658586470687183,-0.112710485844974,-0.031188158675602,0.0514055981883631,-0.0288116963802023,-0.132675268929795,-0.107807458995609,-0.062677513152697,-0.0671725835049068,-0.013468374995248,-0.0354739337520198,0.066449349963619,-0.0296811944874338,-0.0329712361329095,0.0520150847701494,0.0218266565040361,0.0316572510821448,-0.0312428123766572,0.01076438725861,0.0192973926249603,-0.0256792228565347,-0.00609395634772033,0.00596748652786417,0.0248267497799438,0.0294856108753889,0.0305866948152639,0.0519901700081347,0.113258275871495,0.00789843926245135,-0.0216777880203415,-0.0298440811228098,-0.0324483815272161,-0.0132579927241782,-0.13180394605788,-0.0851631613189792,-0.0308364360996506,0.0155759010150367,0.00698275961402092,0.0550186389012143,-0.0251301815907582,0.00786075038796415,0.0299819791717444,-0.0168078152348021,-0.0394549112582059,-0.0529581699712626,-0.0847748491202615,0.0229278643544885,-0.0319273392150002,-0.031099318175093,0.0274755857103431,-0.0694150387636642,-0.0784804786140642,-0.120098294434757,-0.104748556218197,-0.0287781358953086,-0.0351827287499625,-0.0729429838537722,0.0387746253560078,-0.0723417332442959,-0.00237478082015401,0.0278171016814334,-0.0560570241031665,-0.0150941615938238,-0.049688486162185,0.042142018133106,0.0263543042800261,-0.0230485071993255,-0.00705943520032325,0.0240884136711119,-0.0619870298943821,0.0124671222556382,-6.08683791353481e-05,-0.0142229119196804,-0.0193731405537454,-0.0252128293816064,0.00693247465985092,-0.0330913840011819,-0.0255120276017221,-0.02476615129848,0.00845294839765202,0.0146583626006673,0.0154542127597479,0.0120889125843359,-0.000301677578762895,0.00587199384728871,-0.0222251012601834,0.0149938942531023,0.00528358369069169,-0.0309132095529796,-0.0344550935428796,0.0180522893541161,0.0369058087452343,0.00892659716417866,0.00161851851211528,-0.024454844094629,-0.00940603848206344,-0.0356929222543037,0.0361178059078668],[0.00183175008055127,0.0697247924392435,-0.032031521592574,0.0427280097573934,0.0159758322236646,-0.0140749989585795,-0.0158954923251443,-0.0660360697428093,0.063101919182018,-0.0521523834965598,0.0683022223975105,0.00516197324883028,0.0135512069298917,-0.0125224728534256,-0.0565573166280429,0.00938587830167476,-0.00427960894853851,-0.0054139187064449,0.0113190907147454,0.00989294216542312,0.0131409452407772,-0.0821922222774114,0.0202235085149867,-0.0131171448241703,0.00104893789983071,-0.0636711927199493,-0.0136913248179914,-0.0390814627193409,0.0166701685459651,-0.0223083572722282,-0.0569082760955766,0.0353212378476305,-0.0400991989061468,0.0339932635339465,-0.0344218484152034,-0.00629708439363335,-0.0554252677352867,-0.0390461152538477,-0.0148480375243252,-0.0242869741571035,0.0234621479239744,-0.0627239463332654,0.0105545832993129,0.0360155262219822,-0.00775711296205438,0.0249811092042495,-0.0332053828515085,-0.0425868040374933,-0.0207844722704812,-0.0107293671916374,-0.048141546656828,-0.0796855429420164,0.0427034236804344,0.0245291667972024,0.0301544709557449,-0.00829112166082142,-0.00956344115865946,-0.00342866002892924,-0.037689807658876,-0.0225063928321279,0.020172739312983,-0.0294447005657494,0.00660654099665132,0.0362251528458651,0.016586860844129,0.0449803303505475,0.0196574347868245,0.00719299999995696,0.0418140150161542,0.0622281961969697,0.0618805056152124,0.0259717404764319,-0.00118390778529843,-0.0129777187774197,0.00935066374853627,-0.00425209317420967,0.0268855221258491,-0.0113870208682758,0.0422783073598842,0.0110454731064128,0.00399709256230931,-0.0170324440482278,0.00970326234877653,-0.0707397140804929,0.0429353221820688,0.0136809163766049,0.0550181787456351,-0.0282448614865624,0.0479140751023215,0.0429095531513021,0.0267212139123274,-0.0399159076949202,-0.0248293908623515,0.0405081501216774,0.0595947280368828,0.0217178939874859,0.0280002268805832,0.0439115317562447,-0.0490628330385811,-0.0344231034149581,0.0539793044685166,0.0393817467424195,-0.0201357209346487,0.0148613605945125,-0.0124854798097822,0.016679747676233,-0.0468886148506554,0.0922446201655764,0.0368131247060193,-0.0116675031286536,-0.0448028011635479,-0.0211776240694331,-0.048600699094437,-0.0740820647381709,-0.0255012987346799,-0.0291453838012972,0.0586725817048618,0.00056715796087622,-0.0463279489642166,-0.0149732570372839,0.0584096647479709,0.00964618014357147,-7.9198580827981e-05,0.0173677663281415,-0.010878734339597,0.115917138374215,0.0431483084075215,-0.0830640115131886,-0.0907290490466277,0.00802786949177424,0.103797392430283,-0.0341558242729114,0.0452917515655796,0.0230563693181253,-0.0641914115220793,-0.0605820086388538,-0.0828221675417747,-0.0855987061322504,0.000233565261533855,0.0251900481924792,0.0695084513444851,-0.0431051905703253,0.0105122168622664,-0.000899165110383217,-0.00263209711203354,0.024986147710727,0.0133397739429185,0.0183319537238459,-0.114161504054999,-0.244313224146925,-0.15574259228256,0.0338199196526458,-0.0138302649169336,0.185363746757674,0.0855681183996024,0.0888408158787694,-0.0412260932382228,0.0332388137234791,0.00371095573596872,-0.0261995345488526,0.0197470456660177,-0.0439357002184565,-0.142089244740489,-0.0927602948947061,-0.167521085363785,-0.0144875477368208,-0.0108726507929945,-0.00960318389293067,-0.0322279588392161,-0.0229545131602032,0.0297626389748005,0.0165053928150549,-0.0411853251246937,0.045103845927015,-0.0157117488735998,-0.0614996339997681,-0.211232363724943,-0.0902226955684247,-0.178379329820905,0.183722481046998,0.200185313886816,0.192307914406942,0.105650790601175,-0.0909134414003467,-0.0351672286281916,-0.0760742953701563,-0.026371538932724,-0.0300418478194606,0.119627964310392,0.0715584279260525,-0.0840549681679611,-0.00335435895512122,-0.0379369063796933,0.00839732458667752,-0.0837538445753872,0.0194555537191461,-0.0511949448685322,-0.0568238770806102,0.0282079447763808,0.0155306357620494,0.0814720341734607,-0.0627340415718751,-0.0135268180487219,-0.0998418096350114,-0.100232631655854,-0.126727642358846,-0.186166070371817,0.0256037342705787,0.236828892638202,0.20288596861332,0.0607071306518222,0.0072068698660431,-0.20650840266706,-0.0944074023036592,-0.0240265275177767,-0.141754240434057,-0.038649241323042,-0.0662736567459307,-0.0772666511260885,-0.0226077359950768,-0.00900756182955481,-0.0403042479653594,0.01130405103343,-0.0685617049877102,-0.0123867003807922,-0.0189201273687864,0.0640515047922232,0.0387972662971499,0.0134349058279676,-0.0212056380918074,0.0295670306882969,-0.0140575734047095,0.00441156714251174,-0.263101855638958,-0.193241294174957,0.148184055067961,0.0582574212606276,0.0917557377511662,0.132876045619725,-0.100266206095354,-0.149512863915463,-0.0356147158751579,-0.0694184407548024,-0.157928803604766,-0.108372922817661,-0.0652462408028818,-0.03326048175701,-0.0658775101481443,-0.1411829320256,-0.0735142500047876,-0.0438558210197217,-0.0531259178315078,0.0249194063750278,0.0278839135420569,-0.02286470139463,-0.000167818568152749,0.0415893526314807,-0.00329553265982082,-0.081879655835819,0.0179400333742035,-0.0325993398536549,-0.255164690425742,-0.149597078839023,-0.0337266922106901,0.233844787816379,0.17000200082917,0.211174976783613,0.148338954606999,0.0528772232817223,0.143723321390746,0.051241145748068,-0.0481239873760419,0.0539716383467357,-0.0312120066091681,0.00510772294445615,0.00220016666557107,-0.0549672302941224,-0.109201141151114,0.0247498921399978,0.00988340217511678,0.0350328091677006,-0.0138209719560502,0.0522427425540019,-0.00365882344823187,0.0175741597295061,0.0715606112785991,0.0576443583244688,-0.0142597825865509,-0.0495529838531915,-0.22453310959856,-0.248161026399319,0.0587988638898744,0.256392282588727,0.197967483966981,0.223640237603834,0.111762318226766,0.115424359493791,0.206813807446249,0.0811483329694744,0.0179526724476314,0.079010797419941,-0.0195132141971284,0.111782399984182,0.166089811255051,0.0434163424238635,-0.0230131152996266,-0.019423095061759,-0.0165753856790837,-0.00711346542822282,-0.019886973165164,0.0435914201080144,0.012454919895533,0.0027934449886887,0.0110007661830253,-0.0174292327374438,-0.0278743316545077,-0.0699370715677438,-0.0658078146289417,-0.0519542077416295,-0.0177698541712534,0.177885351791137,0.171490890194434,0.104350968868371,0.0434231412806368,0.0308502399682327,-0.0468569772177135,0.126370827659579,0.00434901670859998,0.0457003958834645,-0.0143272997827167,0.102496215817345,0.112915108498731,0.0800428192156482,-0.019930298238617,-0.0414991575368489,0.0191523676273606,-0.0162516436284485,0.00179733667871261,-0.0133142463342282,0.0656361072468619,0.057651406838115,0.0283873665448676,-0.042747520337128,-0.183866701016657,-0.0746680302527771,-0.0967119433837648,-0.131910828981425,-0.038648145416032,-0.0159224801701641,-0.0247517972011139,0.169272192134967,0.0292113317301981,-0.0174292378220313,0.0491828089998413,-0.0225762689328705,-0.0506570357328294,-0.0447999236308349,0.0427004553432278,0.15801096284169,0.0524529151256501,0.0718770598856488,-0.0185389690198189,-0.0235730115070995,0.0782060369146939,-0.025014563330609,-0.0346197319936823,-0.0566948647398036,-0.0131523919437959,-0.0508916422780883,-0.0887248301148976,-0.0905268031830223,-0.0896106149178141,-0.0892240605885078,-0.0972519190764515,-0.093878480163935,-0.0504897754962025,0.0411344612114074,-0.00866288084829778,0.259918780880647,0.21083874768329,0.205683111182928,0.0653501707291705,-0.132790646784429,-0.160593041196682,-0.0544073745548774,0.0264215425943409,-0.0588156126491721,0.0447132000703925,-0.00453271294786361,-0.0200002988563916,-0.0497866023546667,0.0616557756460414,-0.0114893229493315,0.0577783897945022,-0.0315827836424832,-0.00519426697658764,-0.0389083072895261,-0.177488292207801,-0.0905934121939179,-0.0944208334879515,-0.0413882472178714,-0.019377675021935,-0.0530022560883476,-0.0537161696462933,0.0451547157473019,0.13611619994352,0.105274440785344,0.0602944614640007,0.0125958975105013,0.0613165984136037,0.0380774193825567,-0.00811077219215365,0.0308927913577498,-0.00892828623466359,0.0362711174449176,-0.0353374301281626,-0.117257084559322,0.00121071975879498,0.0219560950463297,-0.011424912773562,-0.0350163506043151,-0.0148949853255347,-0.0120261164920813,-0.0446420624672217,-0.0319893440404213,-0.0969161386698446,-0.106973136482236,-0.0986099386460731,-0.0943130816788392,-0.0819163191680719,-0.0851170834526894,-0.072474198150109,-0.0231789973425393,0.0345804081709932,0.0276853712496526,-0.0165117810370889,-0.111978140149348,0.10465680664613,0.100583099870292,0.0342720006383103,0.0762900001682779,-0.0706055516530963,0.0975716276293199,-0.0480520609942809,0.0145319317154169,0.0332423000931109,-0.0370203285449589,-0.00501021728070421,0.0303504170334901,0.0283270192499342,-0.00690593420018173,-0.0367206456407223,0.0228837455463195,0.0529141546154682,0.0265365109866223,0.0110499060960284,-0.0514306637291641,-0.011716076704387,0.105822419422202,0.144452348580019,0.000229847626247495,0.0448949143427841,0.00888664488236937,0.0573290164375134,-0.118958071496128,0.183690869606263,0.224430790479194,0.0406951464820916,0.0614562007099383,0.0422221716759651,0.0305927770062531,0.0279473924348818,-0.00692741574380192,0.0120736535170019,-0.00193120279195911,-0.00575644145287043,-0.0421117416800645,0.0263037930749344,-0.0139333253168097,-0.032548604235684,-0.0202856361851622,0.0824018701249072,0.0587024392885125,0.0299683290468752,0.0352356299431657,-0.0310183286822913,-0.0586665907155276,0.0587873852200106,-0.0924623215383583,0.0969651855718359,0.0644977799587981,0.0780544128990918,0.0118191707816893,0.118505069793943,0.055976921427089,0.0523505247979891,-0.0232272353711591,0.0430370997273168,0.0975421045657854,0.0509249588144184,-0.0335406922624794,0.0199276548839131,0.0144366796743146,-0.0536993323898534,-0.0016787534377036,-0.030094542624403,0.0305998748091305,-0.0206855850098756,0.0194801730728822,0.173218729301186,0.134244538439514,0.10651766858796,0.165019049136326,0.111436157885038,0.0223152332402614,-0.0163905582648157,0.00779281787966621,0.0825840839135083,0.0537795833004408,0.0411922549828757,0.0321370941722471,0.0960988948957128,0.0677882700082024,0.0566441138779002,0.0671934419754668,0.11005174575558,0.0581439923281551,-0.023201020638366,-0.010815459456915,-0.0264992255718798,-0.0228301971700338,-0.01196462461095,0.0430188444569247,0.0150162910616943,-0.00556556585085689,-0.00989138510304141,0.0624186403469295,0.138988510665157,0.165665150041619,0.062232038155424,0.133432306661909,0.148976687759094,0.0447544143781288,-0.0169571371244454,0.0836477807103308,0.0559632412315706,0.000861060270969751,0.0958931745036631,0.0569398922976789,-0.0331988202629603,-0.000734623527810412,0.142087886020703,0.105759738237699,-0.0198708787346726,0.051293632640717,0.0450366500742179,-0.0580240936942052,-0.0763185209599331,0.00641482351656889,0.0148613861667193,0.00896962466763933,-0.0112164916455906,-0.0456783471753726,0.0188372988710329,0.0401902631606811,-0.0198808787238793,0.0610900235394737,0.0531556348962356,0.0257101247504205,0.0257831885580743,-0.0148777215832631,0.00453756932913748,-0.0571864456805241,-0.0294662807694502,0.154649107894371,0.0750727073713485,-0.00182662064612137,0.0365049449198229,-0.0681597936075518,0.114490494689645,0.153989127880134,0.0392976914495846,-0.0608280732975107,0.02506076926682,-0.023728792990849,0.0136669751539669,-0.0355616022340191,0.0225282964154052,0.00364713127569342,-0.0941030843549764,-0.0454187977272024,0.0439389999956233,-0.0194080556517026,0.0584032496306981,-0.043993663685597,-0.0923817251611266,-0.0726009391754027,0.00271931358727509,0.0741594974278037,0.0251763440809417,0.0822700478693137,-0.0312636143834751,0.0181919412485543,-0.124076186536128,0.0139927359640007,0.0666541908996167,0.0380703418275992,0.081988349985516,0.00317970600855741,-0.0597795368868408,-0.034361828739886,-0.116430554512414,-0.0531096181953956,-0.000479697083662764,-0.0454829399048064,-0.0143266392903272,-0.0308251662083643,-0.000829668669095338,0.0606778179267422,0.00474088659551693,0.0260959037481662,-0.0146854143116183,-0.0290616229892077,-0.109422021101504,-0.0448847121146447,-0.0483568687684316,0.00261938014995234,-0.0243286942859218,0.0915855559615677,0.0218011858031682,-0.103413907943141,-0.0725119129832525,-0.0844157000221669,-0.00435504494744495,-0.081392858055483,-0.0991957708887206,-0.021240354207782,-0.0317614754568826,-0.0580924566729934,-0.0641913658663325,0.0145147126049658,-0.00571003630677725,0.0525124270858657,-0.00594015436399484,0.0176158040922529,0.0594379350182109,-0.00856287778105187,-0.049144495166599,-0.0471918468690583,0.0493413903459266,0.0231209675063619,0.0315423169148131,-0.0720673509145822,-0.129440517612793,-0.174537483044625,0.0340201979319238,-0.120357482261255,-0.086725952228317,-0.0705523730664033,-0.0679247403547929,-0.123779090396178,-0.0765151392331669,-0.0252784215127699,0.0743522745778947,-0.0140481556552904,-0.0294109950051344,-0.0582810845183035,-0.0339625496598331,-0.00780714203914501,-0.0324365276381529,0.00981293682531723,0.0390080618554015,0.00717020177856139,0.0610397282417259,0.0255249800446393,0.0422279891350405,-0.0325710943603813,0.0556735404679003,0.00427425857140039,-0.0348657364210705,-0.0253089682381996,0.00144123159028027,0.00545103185009827,-0.00475496531385805,-0.152901589420795,-0.0626869227125014,-0.102967604189349,-0.171001405725398,-0.0724955654296284,-0.1568038798342,-0.1416234659902,-0.0995271564806606,0.0139723047037306,0.0437861162180868,-0.0294121154210923,0.0285681680284731,0.0522157616196889,-0.0352079502875167,-0.00233384260894619,0.0378221737557352,0.0425199699188344,-0.00455103047255271,-0.0123728087227394,0.0197686131893247,0.0541682919635597,-0.0267667997356718,0.0502131839719813,0.0224130221240066,0.00332431560765504,0.0607695182575643,0.0986891055515083,-0.0176554031579345,-0.0425390257818786,-0.0916037429685051,-0.00955822768140487,-0.138979862405989,-0.0642431660707436,-0.0107913171050064,-0.0152169856708973,-0.00775745332820431,-0.0133286431586665,0.125836062877728,0.00992777671596212,-0.00686067213714504,0.0445014097974653,-0.0112881266440576,0.0519992714830474,-0.0145429728394104,0.0182703132176737,0.0295329464518684,-0.0127856279535802,0.0450250479163616,0.0351810584906646,0.0134641256286753,0.0191150966716894,0.0302928020823203,0.0158090605770881,0.0710273250963963,0.0337057169031081,-0.0445846589823787,-0.0526536363760929,-0.0105456358663527,0.084006165712195,-0.0235188066417244,-0.0218597308637499,0.0363963656193164,0.0458099193720278,0.0401686879570645,0.0511367158488434,0.0490064459037219,0.00780802236483713,0.0114969016565942,0.0195323297331635,-0.0373499452801914,0.0349163834132339,0.0197101073895608,-0.00775661709148275,-0.0748735870985712,-0.0234036096202307,-0.0695111104926217,-0.0207827595710602,0.0419667699990453,-0.102596297231993,0.0031946280395526,-0.0193973276329275,-0.00857323163908613,-0.02976832735263,0.00175917693156041,-0.0442486853127557,-0.0655439735148663,-0.0256352120233414,-0.051174324480375,-0.011066534557508,-0.00790296281521421,0.0457141077910853,0.0350565562963768,-0.00815315219616832,0.068376335044868,-0.0322022340125322,-0.0114238862915371,-0.0147767558920172,0.0485891201335475,-0.0252825348078867,-0.0860471186541798],[0.0193567830468134,-0.0580142240068151,-0.0362227514151964,-0.0111891646243072,0.0104622094031339,-0.0488536827290604,-0.0183616955555339,0.00434340739226926,0.0916826239096734,2.29586108008108e-05,0.00367010314323594,0.0144340033217832,0.00245413094308461,-0.0374050417409684,0.00300776889686792,-0.0314452884133179,-0.0221012158061038,0.0291421137769801,-0.0179885533376482,0.0153202526299818,0.0209111639463693,0.0213058669808095,0.0121428546820358,-0.0766562996188798,0.0870715591975533,-0.0446059140963692,0.0441643458561447,0.0459392946949047,-0.0046672816956032,0.0161478928125576,0.0563954940677788,0.0194194633913886,-0.073376330566356,-0.0194954335049769,-0.0358622229419159,0.0144336272841305,0.0676657563842353,0.0407496421459767,0.0176523065824327,0.0147644219019586,-0.0560654158175603,-0.0172364160004148,-0.083461211103111,-0.00531257539533024,0.0231263874661874,-0.0432738018008427,0.0160126250831113,-0.0527141025964838,0.00671061327676704,-0.0149144305467554,0.135755245378405,0.0491467428643054,0.0653722935972911,-0.0440391156254871,-0.0263884402084624,-0.0132224252928598,0.00379027822593649,0.070329184594307,0.0429461197766946,-0.0246075305558817,-0.0211225180499118,-0.00727057261703561,-0.0652442825580696,0.0321980096525508,0.0391987709917694,0.0482066438648467,0.026237839201729,0.0390659749917162,0.0371985293480345,0.053845551179016,0.0346252383185581,0.0245833305863978,0.049935817975687,-0.0885664033577714,0.0322516340340452,0.0128335544614884,0.043115376048507,-0.0234098342430656,0.00758853310214964,0.0815588677014781,-0.0076311184280372,-0.0101962802596778,-0.0518782515853673,0.0362931852134355,0.0795552467498145,-0.0682552249154175,0.0779778632337294,0.0657317856610163,0.0415784589597337,-0.00559404055469116,0.0636062597933974,0.01225606591233,0.0816185570094986,0.110221671150387,0.00704774009227734,0.095211639301647,0.0432475727394591,0.0963871830898564,0.0953641280986677,0.0591583479701198,0.0248593036072967,-0.00697697591690621,-0.0902698037675274,-0.0165134369245236,-0.0308078029112167,0.0099051926034624,0.00399057013577411,0.031959574476844,-0.00102101259009276,0.0502664882162879,0.0156604273099717,-0.0335767185351808,0.0535267556425641,0.037064083451195,0.0145283394664575,-0.0477651533085852,0.0646128771999022,-0.0338586614442408,0.00313232061504957,-0.00653558568755975,0.00323180589665094,-0.0235793197569761,0.0102191257441077,0.0332757095770248,0.0152020335076226,0.0309259575580576,0.0435827885343524,0.000472527606625347,-0.098971592550827,-0.0248857148563759,0.0565951752361391,-0.0571991067201198,-0.0426023138605154,0.00128800189840435,-0.0257489398738605,-0.0359418940560972,0.066891137528572,-0.00353853374681629,-0.0348205004408957,0.0222911746326113,0.00658845951685482,0.0151633552063069,0.0539895778765537,0.0154624331204881,0.0205439216706571,-0.0538474655679394,-0.1016122952311,-0.0015927752633008,-0.0888777307284825,-0.0380148721635337,0.00171815452583946,-0.0476904913776162,0.0532362923762371,0.000178148603768278,-0.037435273405343,-0.0255064470625398,-0.0595757680237854,-0.0295164395234902,0.00913940853870536,-0.0120344455527437,-0.0761423970092572,0.0312209089726772,0.00878357480666297,-0.0253823613789772,0.0698667826389121,0.0911008215992098,-0.0227456366014936,0.0243074551689511,-0.0259887189311713,-0.00576723299195234,-0.0464119137311724,-0.0213660819283668,-0.0670641918187921,-0.0808965540859239,-0.0475330471513922,-0.0430938451038052,-0.0220910309833509,-0.00720472911548142,0.0292546929094877,0.0414794022024308,0.0582230550437897,-0.00590271928655012,0.0953222250887474,0.121145845390829,0.0549206346347272,0.0306857779411176,-0.122000522621695,-0.0238909080672136,-0.130154270808539,0.0379675045468823,0.0517904177502958,-0.033151102226689,-0.0053507263879114,0.0167588110427365,-0.0174669382905988,-0.0292988066245269,-0.00864383086759115,-0.0273965609922076,0.0282954476402267,-0.00397084313392273,0.0123669289935202,-0.0174998196097408,-0.0698764120996422,0.00552792145595917,-0.00883847574146535,-0.0186371034682648,0.131473054979599,0.180629584145073,0.11262189281085,0.0728276801847817,0.0661942216847712,0.0382988807296839,0.09076551979859,-0.0306747219278717,-0.0456339796879222,-0.0864311570523411,-0.0758043648834496,-0.0397268304763194,0.0278171263906751,-0.0519622471225,0.0193357188648345,0.0238019584623914,-0.025398640810909,0.0463366129267217,0.109206593277771,-0.036745480251308,0.0198312658026464,-0.00448573501000389,0.0114371513135234,-0.0312758860551595,0.0110692467418422,0.00203554347384927,-0.0315862415987529,-0.0396079344238169,0.0612040711047163,0.0882510253969816,0.0829235677472995,-0.00668224084517126,0.0437810448574142,0.0745001103250325,0.00443919397471327,-0.118641382332194,-0.0327066075184852,0.0112373941539966,-0.050945471419345,-0.105586347917862,-0.0525536677774154,0.0550841429602464,-0.0247975757762161,-0.0569786632712096,-0.0387931023861292,-0.0483472412559347,-0.0423623557046217,0.0233831186799574,0.00750293505121003,-0.00997327931094296,-0.00440359868488457,-0.0034027492676201,-0.0623536721674656,0.0465856923789549,-0.0963509277929546,-0.0161334652240597,0.0273256447352859,0.116639918949097,0.0394907258480189,-0.0593893388635407,0.0524951194068504,0.0897105987504123,-0.0503607993345133,-0.0631186633428475,0.0194075615227939,-0.0436672101646062,-0.0265076786501281,-0.0407597308202,0.0126035376711346,0.0223029196069875,0.0239802968914541,-0.0185568500508901,-0.00783645476084844,-0.0290766778111265,-0.010122426908225,0.0126869330190723,-0.0647433213682878,-0.0809251834812362,-0.0630701383651254,-0.00813393798767868,-0.0395421286818679,0.0580285384783716,0.0806465025401809,0.0636121607106809,0.0890284327596521,0.0668837754833118,0.0181155564464089,0.0179083351861786,0.0938902202982984,0.141551195524208,-0.0925899258698506,-0.133153336688875,-0.0444440969810613,-0.115709620441994,-0.0570147820515096,-0.0342238937679075,-0.0362540527260076,-0.0107367188204878,0.0474234735224684,0.0986375479572843,-0.031982325379358,0.0565696624233549,0.000947653571880396,0.0118645208805169,-0.00586008206967222,-0.0637281568433348,-0.0545813758303538,-0.0108468428122542,0.00536802517998694,-0.0611516670572826,0.0234400021586865,-0.0822042601971114,-0.0180659521191208,0.0235566761791152,-0.0749176811683093,0.116490030775623,0.0406878210032663,0.106757048307455,-0.175990441161745,-0.132156077596607,-0.0530282873653605,-0.125272197346738,-0.00892691802716296,0.0118099288847589,0.0438471520263424,-0.0229206962689456,-0.0542563761828697,0.0386608211407974,-0.0477507921687764,0.021348428090719,0.00912276966893514,0.0138274831998955,-0.0255904087200896,-0.0255106396078876,-0.0034377055106477,-0.0228322910104335,-0.016056214241816,-0.0614794170215317,0.081454921852447,-0.0748378374798039,-0.0192776146719473,0.0289679599628295,-0.119944703867514,0.0658776230262994,0.0729031626729342,-0.0346310527511291,-0.25565688989959,-0.179365173424335,-0.0873068648363226,0.0138971668919267,0.0745771366865872,0.0313419028882428,-0.0455213587463557,-0.0243564047428301,-0.0357541087720295,-0.0754349403009007,-0.0381366894859026,0.0179983807270157,-0.0666487281984118,0.0480743510257712,-0.0241819823239029,-0.0534486376153621,0.0164882701655249,0.00899314495622227,0.0168865292046907,-0.0441891906975885,-0.085975720345291,-0.0754603851527029,-0.0100840569873336,-0.182868467079831,-0.0536494534994214,0.211166823422192,0.164837269027015,-0.10095881063586,-0.220361290432005,-0.205240973170156,-0.0933288980730842,-0.0272791675002977,0.0303308334616644,-0.0119548576370991,7.34251916249406e-05,-0.0218417802281846,-0.00299126383464553,-0.0317480092504789,-0.0449596462893245,-0.0024376207002875,0.0805171586028018,-0.0522903169439059,-0.00140353202659153,0.00371413368038068,0.0415653786762453,0.0557103338905606,0.0518019897884725,0.0170571833838084,-0.0102276120487482,-0.0765510743723201,-0.1775386579815,-0.187355977310681,0.00522559347010898,0.0225384970149015,0.0319692132914576,0.0163232315687539,-0.0677647353802522,-0.106466530278532,-0.104856248167738,-0.0462861188557949,-0.0152766330695493,-0.0974251105582857,-0.091661061739065,-0.0264853134790671,-0.0358341304156148,-0.00902709368062686,0.00524581548629835,0.0316549207649186,-0.0600828810982461,0.0152632614517112,-0.0343928531288195,0.0446819390270651,0.0456492429928757,0.0364574522092562,0.0972356050120321,0.0106149848725966,-0.0147221628917914,-0.0347736158187291,-0.0300470729273931,-0.170200309094685,-0.0652424424873124,0.032152554052604,0.118727174958537,-0.00142869026385824,-0.119459705447278,-0.11936737618355,0.0189207113205856,0.0237812015238064,0.069772419084711,0.0404040716334525,-0.0781171392585656,-0.0193109815124505,0.0395457776936612,0.0372983853217236,0.0700394707413435,0.0110006759359992,0.0218353562160391,0.0268589396357771,0.0676169345608682,0.0254713499770746,0.0639824823748743,0.0570338240905397,0.0192013840015085,-0.0490488184107664,-0.0778403003772565,-0.0022378987121924,-0.0962241713360228,-0.0912815973316393,-0.156083087490927,0.0808936278910888,0.0488285872850672,-0.183184989302579,-0.16449580978122,-0.150832575642719,0.0848393356417272,0.0114248384255818,0.0683424699519919,0.030543738635572,0.0542885267503188,0.0181706527879573,0.0502968949592005,-0.0196386683992134,0.0516810361904065,0.0267424101594552,0.0127277056576333,0.0210613128130563,-0.0596393776124185,0.0166223738076536,0.00784979976301258,-0.000993392306425228,-0.00397838615352721,-0.121670890028277,0.0688161691387684,-0.0064733961183771,-0.136863555324564,-0.0770620128727402,-0.0370727848296468,0.10523167466685,0.00566038827071984,0.000491617126568565,-0.119552166986242,0.0600551850827866,0.068957054877913,0.0136556523011465,0.0236798358187359,0.0363999827031257,0.0314503741704103,-0.0020873696853902,0.00601210029109679,0.00593355762862218,0.0443345081161252,-0.0410155645267814,0.0432472524934705,0.0108476784410614,0.0546196468998237,-0.0577408667263199,0.00948264258888574,-0.0781612779775326,0.00836790113326175,-0.0623612093521087,-0.02273776669204,-0.0681698666875514,-0.055955893230264,-0.0274057884358395,-0.0139814345274742,-0.00376449353136262,0.0663917576043156,0.0932589177640736,0.0237676229265766,0.0717737576748445,0.0888055541489965,0.10779544749955,-0.0489691118531662,-0.0421987129306884,0.0276109325668345,0.094629239157266,0.0117659228279232,-0.00557255015145056,0.00790063199323282,0.000751030964369151,0.0331328479264521,-0.00179374141140829,0.0396948875798272,-0.00939974950009489,0.0581453633409706,0.0345742412610838,-0.0133477983421352,-0.0846943396169107,-0.126059916503697,-0.0469725198902436,-0.0268235064687465,0.0594718966428614,0.0302082229539025,0.047504751048475,0.136583530491512,-0.0185205127961405,-0.00581703476907924,0.020726307058491,0.00369482862060554,0.0161190140541032,0.0023332431449384,-0.0272505985644851,-0.00571448431423939,0.0804310794363092,-0.0282448247435257,-0.0475823166791206,-0.0157393844776774,-0.0235775350377989,-0.0255775607369353,-0.0337723824300563,-0.0235976121794235,-0.0126306934217934,0.0211416982674087,0.0446855767569176,-0.0534204260486333,0.0177930861029088,0.0694618322594869,0.0206479324914762,-0.0524162365795129,0.00533062338055903,-0.0523438176195969,0.0103134798852041,0.0870608532802479,-0.0340216387236184,0.0345494515356242,0.0107184167579976,-0.127103581238959,0.0432665977503883,-0.0374615250744519,0.0167436753217579,-0.0374683227170058,-0.0253465624113043,-0.0185529584478529,0.0438917597670644,-0.0113389307026643,-0.00750779778209786,0.0245357929528846,0.0269729677010636,0.0220719806675912,0.00640586852288685,0.00778919842263625,-0.0330281911692819,-0.0599605433241731,-0.0645806225602579,0.0171884574953101,0.115912614266274,-0.006916158306781,-0.0263026214824726,-0.070596041164958,-0.012321813490503,-0.025133133215926,-0.0301897623364046,0.0934466903814047,0.0698951790151453,-0.0266123850176933,0.0433652646259489,-0.0323378278740881,-0.0736587023308834,0.00412503260047008,0.00339385992754888,-0.0604365865297177,-0.039955119429273,-0.00159858390976865,-0.00322902763411267,0.0214570321838048,0.00561155097022861,0.00459030974708576,0.00196393036539999,0.0251474999056904,0.0366537493566661,-0.095906601044823,0.00734762779126778,0.0401716306234557,0.109604266641431,0.017342437191084,0.0233418407036801,0.0203338921649729,-0.0546380112492663,-0.0966150401544067,-0.0228213215991143,0.109926385375737,-0.00232247418145136,0.0669363958252643,0.0172907007971348,0.0136509053400373,-0.0425363550202121,0.00846780004310799,0.0100505960518011,-0.00811780065457231,0.00214096499493022,0.00413926758230183,0.0508549545730114,-0.0212855691198268,-0.0126410925663485,-0.0616652336875401,-0.0662441204709768,0.0321768796890179,0.0669491141523349,0.00615707638949135,-0.0086443565927268,0.0579118407332622,-0.00230692500850458,0.0237184879515923,0.0487780180693112,-0.0721005626362424,-0.0583960227352524,0.0307785031922339,-0.018095546490893,-0.0590070270961662,-0.00539734441857022,-0.0327638599104978,0.0469609047016927,0.0424919039034203,0.0737175351700927,-0.0155201348432729,0.0545883186670685,0.0364501226207454,0.0135560244460885,-0.0203497147943315,-0.0124123950489503,0.00979444545146142,-0.0105721227890894,0.0136456090984632,-0.040154266635376,0.0585324290462593,-0.0214700504510015,0.0106875252114245,0.0034931319191105,0.0633016316136681,0.0322230729238938,-0.0202153119576642,-0.105831676861032,-0.0569148310253731,-0.166023825859471,-0.0462147243546359,-0.0440415323348092,0.0229126738219519,0.0373946865204603,0.0697923123852017,0.0308979794807091,0.0399666666451826,0.00288219583652985,-0.00387654334423231,-0.00624755340526603,-0.0621792050751296,-0.0103353834962906,-0.024057362764684,0.0381496489852978,0.0010586633369278,0.022796145557021,0.0813619727394734,0.0545607443073783,0.0343022064973953,0.000549626617982809,0.031293468885731,0.0415252174953313,0.0156211686357911,-0.0888399566719765,0.0488109192453895,0.0668897389222258,0.021885092551131,0.0224070209251732,-0.0315768790006467,0.00411571555272488,-0.00966319145268415,-0.00106709132240552,-0.0448871522012737,-0.0287436728598934,0.0414139721554506,0.104643678421935,-0.0489278481134937,0.111909489050973,0.011210045422542,0.0397112609042022,0.0108171933622437,0.0286641899989201,-0.00771156892090218,-0.0445721824461877,0.0413586268239376,-0.0439414421140961,0.0418193387260648,0.0409674372692032,-0.0309367518532616,-0.021088332119903,-0.0328119401526832,-0.0144410880789984,0.0198117602757772,-0.00809141899126074,0.076542814524372,-0.0289963879097974,0.0360637011001588,-0.0122451896402581,-0.0473264811167528,-0.0275979215601672,-0.0767494912517608,0.00742323827128504,0.0124153034040066,-0.0244551055009243,0.0856409572976543,0.0217868996852705,-0.0180792985974482,-0.00207457281945265,0.000426890708646357,-0.00469451963366839,-0.0583260929745894,-0.00611758465838199,-0.000361504161899139,0.00216478057853513,0.0291604289324003,0.0370770877907727,-0.0105750288000288,-0.055446046353925,-0.0342126176414014,-0.00616471973366526,0.0252434506318806,-0.0656773559679484,-0.00746260260458901,-0.0181619478647947,0.0402599412178077,-0.0199569734525634,-0.00719713806582565,-0.0208305182842217,0.053142439071961,0.0260408772598261,-0.0768608381747538,0.0272567750724695,-0.0110643162074444,-0.00669618180922296,-0.0161908179425015,-0.0231900177828296,-0.0101379018122586,-0.0173298715253429],[-0.0510956154353701,0.0180789869395599,0.0195065386914577,-0.00683863079489539,0.0211143987556411,-0.03081727811828,-0.0752810420849503,0.0197653379897584,0.0319806888976227,0.034387505988423,0.0244784551049447,0.0300963011349975,-0.0308129671551275,0.0575614821716869,-0.00638281088091106,0.0117561977394361,-0.0687685125729401,-0.0298630316996391,0.0628670777063261,-0.0108208111510918,-0.0268127739452812,-0.0501764157182615,0.0145048621830266,0.0165295712418042,-0.0115660612578929,-0.000573504826414104,-0.00360525812683538,-0.048762992258544,-0.0391474797620756,0.0275916070004389,0.0322295417862199,-0.101798867675994,-0.0185218649373346,-0.0473037299179609,-0.0108828352436989,-0.0235450662535978,0.0137875545296781,-0.0420107002099504,0.00237950266980023,-0.00581908477657161,-0.0366026192501316,0.0825295832688336,-0.00571914862283238,0.0160014796753077,0.0118009355901789,0.00526205604726554,-0.0382369923358445,0.00388429904441659,-0.0708840654268225,-0.00942104082446073,-0.114833888548867,0.0127321128074378,-0.00130691445193431,0.00607015138208875,-0.00661026975750339,0.0293843946235308,0.0396219661239073,0.0266420742500355,-0.0169321549761582,-0.045517909258302,0.0259611269966991,0.0103088935745125,-0.0411004698780842,-0.0268713682466647,0.00171866012872545,-0.0348222614564216,0.0442435982891028,-0.0122095070484505,-0.00461417449442401,-0.00829774488662614,-0.0535102774948971,-0.0520495591757833,-0.0600020759382471,-0.0704248570177516,0.0301147602756048,0.0576541801103203,0.0476558652077306,0.0102954781229152,0.0174431204557874,0.00370295649575001,0.0165255463340158,0.0500081774737912,-0.0105448004295328,-0.00427827297681054,0.0209005018929953,-0.0176578509023434,0.00697961064666215,0.049921907813731,0.00490800732546026,0.0223857506747206,0.0642467356736487,-0.0743674397073634,-0.0434841442459541,-0.0391461224189313,0.0294038688077755,-0.0751887141109326,-0.060570620886537,-0.0426195108657349,-0.104977144822418,-0.111370373965543,-0.00508508294400747,0.0384917391589867,0.0936035393810681,0.0052473287780926,0.0668368860878777,0.00907236957267486,0.0513415773606441,-0.0193447043605469,0.0564762665291777,-0.0536519418866702,-0.00148901195445339,-0.0342021256299014,-0.00316321720977727,0.0204159294926279,-0.067017209792721,0.00972773725181265,0.0552673803113921,0.0311141066015642,0.00590032157974367,-0.00410415532239385,-0.0287242396814775,-0.0611361260122254,-0.0254127204125619,-0.042153201345915,-0.0173440203775783,0.0176238587210587,-0.0611863479901914,-0.0647794305831188,-0.0527683253221722,-0.00650949405741487,-0.064977556927954,0.0176928808247811,0.0930102488083363,0.0532855179893897,0.0098858249686857,0.0333901961462913,0.0487720609545566,-0.0835278557187357,0.0100761444307276,0.0716321076566946,-0.0430535767176166,0.0459817006957663,-0.0293557832682744,-0.00146967426936568,-0.017250197788456,0.0483331100713516,0.0743701758018479,0.00607765575324663,-0.0445422537362144,0.00154515977556773,0.085982624054282,-0.0944932810964966,-0.0237447338874732,-0.0425850231764188,0.0272673687235229,-0.0491097463447799,-0.0445831787905122,-0.0392267364524971,-0.0030821575644671,-0.0799698791878792,-0.119554909677727,-0.0421204312021768,0.0660036462898339,0.0165122370318166,0.149852455735617,-0.0343974840181618,0.00390110960720432,-0.00574156992032028,-0.0195439003857823,-0.0352667937668497,0.00687729576237585,-0.0272858635967691,-0.123279058479418,0.060272016774414,0.0164645815920288,0.0287172790734704,0.0146856094054837,0.0476840464187658,0.0572874300407297,0.137553401866226,-0.113860232055506,0.0897882184104199,-0.109223188728867,-0.0947784106014514,0.0359684637215089,0.0845034747462279,0.0813804077641333,-0.0319197278094496,0.0445683982151066,0.0513509373878153,0.154676685052998,0.0528395926031535,-0.0134952761342912,-0.022183258156605,0.00300868513395504,-0.0613545434238055,0.0333678922902718,-0.00644210484435169,0.00716531812493304,0.0277652115822797,0.0462440776815764,-0.0210972574968556,-0.0200723639182231,-0.0310300306230131,-0.0971758952717394,0.040652086477537,0.118782461608462,0.0136886482569266,0.116959313296677,-0.051104589062971,0.0408310843920016,-0.121299541095163,0.0227661607440991,0.191108309740099,0.0081542929525624,0.0463536786353383,0.1774553513059,0.03739029925459,0.0539901450820114,-0.00878424386706408,0.0797358410392096,0.00762111081004211,-0.0859820871528493,-0.00583882296625326,0.0321655717280977,-0.0438703957217624,-0.0193484171715419,0.078729763372961,-0.00178606131241197,-0.0891849589555873,0.0119511175563454,0.100085641346826,0.0326527551472005,0.0110695558199709,0.0494623808392876,0.0443167318767548,-0.0603324302747815,-0.184129524363837,-0.00888689995707607,0.0865222294519615,0.142414017418184,0.122353314933974,0.0686237206297253,-0.0770893350981061,-0.0601969696949529,0.0494903103494405,0.0315835569543884,-0.107290598063942,0.072760335625266,-0.017211948053891,-0.0373542933206288,-0.00505197660087698,-0.0449750806999622,0.0462938079675357,-0.100358508289565,-0.0136939269405237,0.00418446833361711,-0.0750255095023585,-0.0888930245540565,0.0347382780732239,0.0058055622286087,0.0119023747068277,-0.0522122013435282,-0.143622496918107,-0.169269143947996,-0.0953206237167231,-0.0420821601403274,0.138542015088767,0.12803034938117,0.0486261438695577,-0.0907573744445905,-0.14719290193732,-0.0234289854094743,-0.0985160742152429,0.0701220940180604,-0.0994024732874054,-0.0629744929867846,-0.045314224087379,0.0185721463139158,-0.0629473378136904,-0.0222788461646612,0.0118101067822532,0.00292137717948907,-0.0351080617823371,-0.014161038601689,-0.0736953377077235,-0.184682311430582,-0.103071274907763,-0.146079398182072,-0.109129796680137,-0.170529748174289,0.00893561907169989,-0.115600670536233,-0.0990095738758547,0.0468687982982396,0.134293758414123,-0.0243326466048831,-0.0194274507030853,-0.0927784912709841,0.0153357690186726,0.0113907585752659,-0.0074576434013836,0.0328211636563118,-0.0634466185249891,-0.0777034676661424,-0.0200946258134128,-0.0264899839691371,0.0163279670678638,0.0535018558442344,0.0349160387750306,0.0701349565440244,0.0302913548238843,-0.106444455272994,-0.0587376160300222,-0.0638171063750796,-0.150944218457438,0.17158119797314,0.026225749463494,-0.0141967001932033,-0.0955425231805929,-0.159255574254677,0.0588575822793814,0.159003623893847,0.094474840973479,0.0968509687098148,-0.0302507915023066,-0.135667982490965,0.0874851423838838,0.0221031122537191,0.0350044369330044,0.0150698365701859,-0.063696431435535,-0.182198939729707,-0.0507571183236533,0.0288082960552636,0.0307283379822448,-0.0311337016698316,-0.019326185884886,-0.0199439765062359,-0.0881929916739386,-0.110176803061827,-0.207964932172474,-0.043071621309338,-0.0939010407816531,0.0784247905510433,0.0594576226759903,0.0610837414813483,-0.0291747789460101,0.0250009023096192,0.238462716271816,0.0753394455402127,0.168381974345793,-0.0564371674431102,-0.103950344320849,0.0695718023733536,-0.0210745878556754,-0.0329065934671269,-0.0387996963180719,-0.0181790791199575,-0.11108500658535,-0.117691507911063,0.0164428735491126,-0.0122479158863241,0.044341360932235,-0.0793326085025199,-0.0400641298304552,0.00228167935995683,-0.032237459553565,-0.192517909454844,-0.194874942552348,0.0298393123801621,0.0892611070127087,-0.0153583850693873,0.01330056313886,0.0339120086061097,-0.107933681329678,0.134419969784358,0.210505976289077,0.103805148857822,0.104638720505646,-0.106705420318922,0.108934218379863,0.226131460083694,0.0734541091610866,0.0287839914669494,-0.113483180675089,-0.228398430004841,-0.216841977383044,-0.0944774385841855,-0.0112995347245082,-0.0339960014156367,0.00321882917012265,0.0292080301286865,0.00236344386109615,0.085585539945618,-0.0523889895342217,-0.0607881029201048,-0.137536346424026,-0.120127234302734,-0.0552744684420404,0.0761999253731338,0.0356533976534281,-0.0016061691458696,0.00722401152715166,0.185127841834116,0.109386482814911,0.153983928478646,0.0718590794176797,-0.0475188081962761,0.0289832758210356,-0.0189042267933509,0.031932640765952,-0.151066679334755,-0.130490377642536,-0.218241344647416,-0.245206119567234,-0.0871564298610316,-0.143814071629469,-0.0371192087827715,-0.0232161627310123,-0.0094407097820375,-0.00751250922984648,-0.0369475162530689,-0.0759329634850223,0.0500412070622271,-0.153490020788869,-0.185366463619761,-0.177073490420282,-0.00630249879353629,0.0442388588282019,0.0369652038967986,0.094273028932592,0.240520908732208,0.1937761120306,0.101897041941975,0.129408904547432,0.0830788640776576,0.142184164683928,-0.0460678650341183,0.0121835690823488,-0.0869834016394004,-0.00493960587133678,-0.0291512435263378,-0.0662881941658222,-0.148941847296686,-0.0252781213442842,-0.0938366150879019,-0.0337914883394036,-0.0516736202573188,-0.0280234814716093,0.0205324474590503,0.00152946050168278,0.00282297287711631,-0.131047627138383,-0.372140201606128,-0.209469862465879,-0.190303788153011,-0.137256289695907,-0.0567683967646031,0.0823837992403769,0.0605139881434751,-0.036912459456357,0.118124797080619,0.0785493836569165,0.103526719290727,-0.0533360649472948,-0.0163702963339255,-0.105515827177948,-0.103087995752389,-0.0649547832034487,-0.0852810187241743,-0.0113654515756418,-0.102230668945061,-0.0973487586716167,-0.0483255704187068,-0.00269744492382427,0.0328260448614037,0.00781446565003023,0.0438861148416043,-0.0321907839441291,-0.118072113136791,-0.178322966674322,-0.27220634487511,-0.295103965677902,-0.430235104698603,-0.254334258415014,-0.0559214190924341,-0.060769256505827,0.102754537110106,0.129675021182842,0.15363428601564,-0.00950275522549654,0.00283330527547663,0.0154558489704617,0.0271377165394249,-0.195048192540814,-0.165432006973053,-0.0769496395085475,-0.0681788683975533,-0.0735405413947504,-0.0017138618204455,-0.109272538279667,-0.0666328480788855,0.00937623015827736,-0.0147432084230454,0.0409090751743647,0.0141472909580958,0.0373815846413731,-0.095408932446089,-0.183660878972225,-0.194814400360314,-0.211200987686538,-0.293099439407035,-0.252889926513306,-0.183497275613212,-0.0313576683921833,0.00711382574016555,0.27449241455568,0.043764061355469,0.106868498750216,0.0497043414702411,-0.206142065467858,-0.194950731495038,-0.32500370372941,-0.144812158670114,-0.0733617050171318,-0.137760120728384,-0.147797096089732,-0.0843756976273696,0.0958605415906844,0.00771180086866249,0.0289747990836634,0.0308740032753763,0.00455730215169026,0.0607580129596658,0.0351952872855833,0.0201445996809634,-0.0511181398192906,-0.0203164733772649,0.0224612236890325,-0.205030594110659,-0.218874517382595,-0.214882708738984,-0.21244720943923,-0.188509122702117,-0.153012811125413,0.0600379686434961,0.0786295778301534,-0.0907407244624186,-0.276199878956106,-0.223037315162867,-0.114117633505528,-0.128268313838281,-0.0626422780506141,-0.105580039873902,-0.183065494881535,-0.019068696032161,0.113905604039193,0.0195781677488284,0.0203319937191909,-0.00487814190067692,0.0370329184027033,0.0362017007006354,0.0029140161971741,0.143339795225109,0.120555472226847,0.0969430308804408,0.0458335070463271,-0.179401414201109,-0.21539069271442,-0.151462143423193,-0.295246060370849,-0.244842317411673,-0.0710129366451399,-0.00754444858550229,-0.0396220225841815,-0.0464048305480939,-0.123437276138341,0.102827423688275,-0.0615115618919729,-0.189645239724396,-0.122023697864243,0.0210650988435501,-0.0620632993114489,-0.00914300296668517,0.051283519936637,0.0171489421983491,-0.0248125654329692,-0.0396825415630354,-0.0339912111060936,-0.0539877635559157,0.0303274295316684,0.0720933828878796,0.157522292650633,0.179660873910566,0.201017207247114,0.102593465947155,0.0335995605848528,0.103189079998776,-0.119473302563378,-0.189493157277554,-0.130239594359209,-0.159651011173594,0.0159447407160956,0.00848130689079247,-0.129615054368446,-0.0435468425891883,-0.199685446461465,-0.13164680444045,-0.103760443897866,-0.0248284070839838,-0.0490955836529685,0.0156662313043224,-0.0211640866087232,0.00595308206947152,-0.0469329141747229,-0.042337823196895,0.0373392136944753,-0.0750327793547573,0.0442257184360368,0.0755203461548265,0.108920062613998,0.187445868445697,0.212875708101485,0.228296682128288,0.173162136891396,0.331104311263456,0.063119039758928,-0.109094664195078,-0.149032908586789,-0.193744155712024,0.16369960191851,-0.050890236643948,-0.0648308031537813,-0.0556366130151128,0.000559331380075338,-0.0732949078049137,-0.0697114899812982,-0.0257807965477479,0.0239991741559141,0.0142018057440893,0.0523863615347963,0.0277511788821655,-0.0105994530507005,-0.0258267741899359,-0.00639352421930564,0.040202337096502,0.0160526153511764,0.0578573543240037,0.025043848305266,0.0872681003521599,0.0707583056918937,0.0248530602987268,0.12621652775435,0.155424789957749,0.0654433175667989,0.0210384586366185,-0.0446661913085612,-0.0306400166405297,-0.0496081779689109,-0.147188179102907,-0.127339771748609,0.00393618011785892,-0.0338123728347928,-0.154467144929339,-0.172127793048536,-0.109857248865517,-0.0256062925115847,0.0780950195511711,-0.040526854218171,0.0525690804011191,0.0682277865863753,-0.00436926116169357,0.0253556896109416,0.0125670752017902,-0.000491314481881663,0.00604753908030877,0.118858929045154,0.0841063359640387,0.175155045135225,0.050458977318097,0.15092658739793,0.00703516989546959,-0.183422563033327,-0.0997418080151993,-0.0104096953611984,-0.0616496034849257,-0.211406794715678,-0.19646237566732,-0.106347806543735,-0.0233516630642094,-0.0703292676045672,-0.0311850291027891,-0.0435401623635756,-0.050876428095483,-0.0228370687569585,-0.0246009000864124,0.0186376584379999,0.0466910174071665,-0.0731912021109705,-0.00747746920977518,0.0119944900367628,0.020198700596466,-0.0213497326479969,0.0414134757639478,0.0416756938309037,0.0358102607270143,0.00553293914362862,0.155449923788869,0.0212518895405953,-0.0900460365093307,-0.108645101459963,-0.0562677477908115,-0.0455750271070101,-0.0946823461735703,-0.234228519479462,-0.121320061919634,-0.0107927893690582,-0.100382297736642,-0.0278186936279465,-0.0346367590593347,-0.0334296538616027,-0.0371272258644022,0.0438785116561994,-0.015253829066433,0.0300967699799975,-0.0186326707027084,0.0279585226701623,-0.0410246504073314,0.0204081252746189,0.0450881307069808,-0.0432007535322352,0.00476083034025632,0.0076666145962855,0.0655441822259099,-0.0315770274966311,0.0454604299933493,-0.00882283813226051,-0.0331025298397762,-0.0358012815481328,-0.0254497454984149,-0.148167300716499,0.0111028921993936,0.106507885776704,-0.037829095968262,-0.0556302113570782,0.0132883750557346,-0.0546130914459943,-0.0218509794879125,-0.00823115765119412,0.0121699015272002,-0.0329955539945732,0.0757670784536132,0.0190676453387286,0.0319051447231216,0.00743321739884959,-0.0391384433604058,-0.02171298262469,0.021388482451697,-7.10105839037006e-05,0.00268171282343015,0.0346371690826979,0.0363906464523182,-0.0530395881780728,0.0762691021032602,-0.0132632313321245,-0.0624261422049523,0.0117597164528517,0.0104114054134915,0.00245688131315519,0.0598909483087022,0.0580281812027299,-0.0426330358119524,0.0315185878560156,0.00847066169505733,-0.0442274153320913,0.0301163658841893,0.0235750027740845,-0.0748059837433453,-0.0188073079960745,0.0411017727570863,-0.0418670007471242,0.0255499163947324,0.0363815581250783],[-0.0201104078727807,0.0568569277142323,-0.0191934423832396,-0.0636171211931639,0.0453288594170341,-0.0140370949314738,0.0231953389490476,-0.0808737805465076,0.0164144227083021,-0.0240780458852027,0.00463828807546294,-0.0406546953823312,0.083442628706575,-0.0466110878921689,0.0197231911862854,0.0157221719019062,-0.00422489542871963,-0.00377218572799281,-0.0630266985784104,-0.0100625007791265,0.0213217473995395,0.0120279493875619,0.0124904258304406,-0.0244157018941181,-0.0641315677705084,-0.0139962333804036,0.049956374865635,0.0236190026110733,-0.0167354502871824,-0.0183490642998491,-0.0295911895074306,-0.00370632910370254,0.0193696645124848,-0.0331085605164303,0.0486749666839121,0.0363135998554469,-0.0258285822981668,0.0106496710484645,0.0224870793458807,-0.0446381191820255,0.0105794777833546,0.0290865075276404,0.0395449647158616,0.0260757548871306,0.036556308030609,-0.0372430972257874,0.0166718913123059,0.0428284342623402,0.0330092599933598,-0.00915163365466633,-0.0087379702823538,0.000969495658098123,0.0308670331153865,0.014017604703939,0.0294780858905162,0.023375715162106,0.00964266683595955,0.0273345000687096,0.0278656378357551,0.0191234624548795,0.00453324064755477,-0.0282647244712463,0.0332230288209735,0.0577254864356349,0.0248518290927882,0.0337352015787948,-0.00839460899538514,0.0347001448508738,0.142630450009325,0.0702300057565269,0.0741582063461445,0.0532955049433159,0.0540351813588769,-0.0113361446189316,0.0696614611273077,0.0632852576454965,0.00958454977086942,0.0615114632830862,-0.0119863705878388,-0.0203616067019201,0.0282222245287822,-0.042258418346952,-0.0165524257895083,0.00666456348495032,0.0180616104952037,0.0150377096169719,0.0129991638415447,0.00207861773193657,-0.00670052154186244,-0.0527908339256332,0.0124824627873461,-0.00969923262649335,0.0631325126391698,-0.0439977419639607,0.0729267754847169,0.130783470151399,0.104515843087977,0.188269029555438,0.156036078551456,0.086354722494873,0.171872634907328,0.1636840267147,0.0539056321909538,-0.000416210166622204,-0.0263150932739975,0.0352194186238301,-0.0597062199245153,0.0955375806810612,-0.000616314267024781,-0.00721681504445532,0.0539701687726768,-0.0324758309323433,-0.0224155551395435,0.000293942966068263,0.0318104510119152,0.012543173573821,-0.00655371084540292,-0.0320091206679041,0.0107998661511363,-0.118082306951949,-0.00686306731221181,0.0527221677925117,0.0107473034392849,0.108474944196594,-0.0330688444458731,0.0498606835710848,0.148487747174765,0.140241677381659,0.171106526952191,0.202540039630716,0.00454129973966551,-0.25786837011318,-0.18012964291424,-0.0673974845743479,-0.0406200202381232,0.00592872700208732,0.0957174064943421,0.0497968796099367,0.014586511698962,0.082945313154482,-0.0259661768909101,-0.0358831775711863,-0.0432671844309094,0.026546611418127,-0.00469627808223468,-0.0386721759559576,-0.0185114076394865,-0.0633216564221156,-0.0376401979405257,-0.0546822230425731,-0.195978204047275,0.0338912389227949,0.086431706260135,0.353697136673797,0.491690083332348,0.402575410527967,0.187983469911191,-0.0481325921262324,-0.114604825928422,-0.29620549206585,-0.158723244521466,-0.117665316925414,-0.0385078968722819,-0.0380145749990781,0.00251541093220574,0.0956156534168781,0.0376917180250769,-0.0144310840819889,-0.0164578463103323,0.0371891700542402,-0.0224536593857584,0.0822405225861571,-0.0258512864586679,-0.0870699526868613,-0.0991743437463524,-0.184575940628336,-0.100725832751492,-0.26789817763337,-0.0106720987187591,0.0335849963695011,0.114043824185089,0.564935936204065,0.748083522220295,0.175644691611755,-0.0408706114784557,-0.0764683728884365,-0.18778343541131,-0.228348161142741,-0.163147088161394,0.0218924841104792,-0.0807009391814631,-0.0808979383212182,0.0646387424479307,0.07999267019549,-0.0365964744123026,-0.0733004555474899,-0.0180487918989503,-0.0031736762403206,-0.0263486027603433,-0.0082937261953916,-0.022844378805588,-0.0326606526749287,0.00431911961562419,0.011368148876846,-0.0772153443900492,-0.0500337698428112,0.072318420080122,-0.0997531448467444,0.0652675101002203,0.554935521957819,0.542530554777393,-0.0968824712628054,-0.144767201274803,-0.263339718211867,-0.191204586765051,-0.15685900201289,-0.0892007401893716,-0.0579316116541875,-0.0729768614988761,-0.0430244440545918,0.0373716430801239,0.0681707309381311,0.0931969219835885,-0.0123111723010846,-0.0754613569804194,0.0526661559494598,-0.0253125893462428,0.0177378534233023,0.00812141610139359,-0.111407477483464,-0.0123169768659696,0.0361182186093583,0.0273050966587918,-0.000624171870653731,0.0115307320555119,0.087470705873657,0.15567412814772,0.595578161731805,0.529168481134029,0.0362037394685946,-0.29032877706559,-0.225786312738266,-0.0678211659626787,-0.0605843453501426,0.04721221212374,-0.0659647607263088,-0.0321346273031399,-0.0742849408923901,0.116573283431765,0.005982187365694,-0.00170868914554957,-0.0314125881007389,0.0448448134390498,-0.0269225671875429,0.0317052201189011,0.0435001586857686,0.0807970385540216,0.0460307792056117,-0.0191487527767169,0.0762024597450853,-0.104618047389879,-0.11513650197113,-0.0615479037809096,-0.0387159298692708,-0.0170851777168949,0.491904062501071,0.399801598503157,-0.0333264143642137,-0.413647630697906,-0.0885622580943984,0.00185515100731133,-0.0356871693483495,0.0249599736046515,-0.0103920212589353,0.0232905205377345,0.117910930718858,0.141190480581323,0.0833344632226672,0.0123980641339864,0.0353571099430672,0.03903332350696,-0.0183528047988378,-0.0200921029782875,0.085484072241609,0.0340326767638452,0.0067676560055242,0.16263072842236,0.0216922621552595,-0.00394068166628132,-0.105295823286752,-0.081214442030316,-0.0679089350601021,0.00459315283662248,0.58949714291548,0.321729607774861,-0.109549686637811,-0.0398970502008543,-0.184688449137251,-0.0837691378581475,-0.0104979347002023,0.0521549152419102,0.0437355454498615,0.170820421778882,0.059149887938591,0.0172313102900788,-0.0219913203163897,0.0653185792740877,-0.0399413548393687,-0.00134028913367585,0.0143774816953165,-0.0140385030225023,0.021361411631148,0.122229039314315,0.0821442980886453,0.144086611976072,0.0900890829192744,-0.0429610006241151,0.0170643249480816,0.0203481664131262,0.0841094005913137,0.0679134976245561,0.278938240585098,0.110836846598509,-0.0502317854776228,-0.165440487491304,-0.0367551100469976,-0.12932130276429,0.0660376443640324,0.0912322032804093,0.0809213459714154,0.0922637674966068,0.103669466890401,0.104479895484965,-0.0570213118287587,-0.026810215022062,-0.00646424274987195,-0.00610030445570274,0.00397372520323741,0.0209907998965203,0.0751184522685069,0.110813739953435,0.0858609524464597,0.00183531645351013,-0.00891888657402476,0.080807536424396,0.072112214211061,-0.0568201686751816,-0.00449857386277475,-0.0693691406699045,-0.0319678792690784,0.0991565064182017,-0.082622413842505,0.0185932853838575,-0.0826901274160304,-0.0639202078050814,-0.130382611946097,0.0504761081241106,-0.0398335057728916,0.0400391165734463,0.0781978156024244,0.0632886804296083,0.0870122117658716,0.0516085867933274,-0.0194608412150812,